digraph Tree {
node [shape=box] ;
0 [label="F21_f <= 0.5\ngini = 0.5\nsamples = 3004\nvalue = [1502, 1502]"] ;
1 [label="gini = 0.0\nsamples = 584\nvalue = [0, 584]"] ;
0 -> 1 [labeldistance=2.5, labelangle=45, headlabel="True"] ;
2 [label="F33_t <= 0.5\ngini = 0.471\nsamples = 2420\nvalue = [1502, 918]"] ;
0 -> 2 [labeldistance=2.5, labelangle=-45, headlabel="False"] ;
3 [label="F10_t <= 0.5\ngini = 0.485\nsamples = 1509\nvalue = [623, 886]"] ;
2 -> 3 ;
4 [label="F32_f <= 0.5\ngini = 0.367\nsamples = 1169\nvalue = [283, 886]"] ;
3 -> 4 ;
5 [label="F2_f <= 0.5\ngini = 0.043\nsamples = 135\nvalue = [132, 3]"] ;
4 -> 5 ;
6 [label="F18_t <= 0.5\ngini = 0.255\nsamples = 20\nvalue = [17, 3]"] ;
5 -> 6 ;
7 [label="F24_t <= 0.5\ngini = 0.444\nsamples = 9\nvalue = [6, 3]"] ;
6 -> 7 ;
8 [label="gini = 0.0\nsamples = 3\nvalue = [0, 3]"] ;
7 -> 8 ;
9 [label="gini = 0.0\nsamples = 6\nvalue = [6, 0]"] ;
7 -> 9 ;
10 [label="gini = 0.0\nsamples = 11\nvalue = [11, 0]"] ;
6 -> 10 ;
11 [label="gini = 0.0\nsamples = 115\nvalue = [115, 0]"] ;
5 -> 11 ;
12 [label="F6_f <= 0.5\ngini = 0.249\nsamples = 1034\nvalue = [151, 883]"] ;
4 -> 12 ;
13 [label="gini = 0.0\nsamples = 511\nvalue = [0, 511]"] ;
12 -> 13 ;
14 [label="F35_t <= 0.5\ngini = 0.411\nsamples = 523\nvalue = [151, 372]"] ;
12 -> 14 ;
15 [label="F15_w <= 0.5\ngini = 0.497\nsamples = 206\nvalue = [111, 95]"] ;
14 -> 15 ;
16 [label="F1_f <= 0.5\ngini = 0.418\nsamples = 158\nvalue = [111, 47]"] ;
15 -> 16 ;
17 [label="F14_f <= 0.5\ngini = 0.324\nsamples = 54\nvalue = [11, 43]"] ;
16 -> 17 ;
18 [label="gini = 0.0\nsamples = 10\nvalue = [10, 0]"] ;
17 -> 18 ;
19 [label="F28_t <= 0.5\ngini = 0.044\nsamples = 44\nvalue = [1, 43]"] ;
17 -> 19 ;
20 [label="gini = 0.0\nsamples = 43\nvalue = [0, 43]"] ;
19 -> 20 ;
21 [label="gini = 0.0\nsamples = 1\nvalue = [1, 0]"] ;
19 -> 21 ;
22 [label="F18_t <= 0.5\ngini = 0.074\nsamples = 104\nvalue = [100, 4]"] ;
16 -> 22 ;
23 [label="F31_f <= 0.5\ngini = 0.238\nsamples = 29\nvalue = [25, 4]"] ;
22 -> 23 ;
24 [label="F20_f <= 0.5\ngini = 0.408\nsamples = 14\nvalue = [10, 4]"] ;
23 -> 24 ;
25 [label="gini = 0.0\nsamples = 7\nvalue = [7, 0]"] ;
24 -> 25 ;
26 [label="F23_f <= 0.5\ngini = 0.49\nsamples = 7\nvalue = [3, 4]"] ;
24 -> 26 ;
27 [label="gini = 0.0\nsamples = 2\nvalue = [0, 2]"] ;
26 -> 27 ;
28 [label="F24_f <= 0.5\ngini = 0.48\nsamples = 5\nvalue = [3, 2]"] ;
26 -> 28 ;
29 [label="F5_t <= 0.5\ngini = 0.375\nsamples = 4\nvalue = [3, 1]"] ;
28 -> 29 ;
30 [label="F30_t <= 0.5\ngini = 0.444\nsamples = 3\nvalue = [2, 1]"] ;
29 -> 30 ;
31 [label="F25_t <= 0.5\ngini = 0.5\nsamples = 2\nvalue = [1, 1]"] ;
30 -> 31 ;
32 [label="gini = 0.0\nsamples = 1\nvalue = [0, 1]"] ;
31 -> 32 ;
33 [label="gini = 0.0\nsamples = 1\nvalue = [1, 0]"] ;
31 -> 33 ;
34 [label="gini = 0.0\nsamples = 1\nvalue = [1, 0]"] ;
30 -> 34 ;
35 [label="gini = 0.0\nsamples = 1\nvalue = [1, 0]"] ;
29 -> 35 ;
36 [label="gini = 0.0\nsamples = 1\nvalue = [0, 1]"] ;
28 -> 36 ;
37 [label="gini = 0.0\nsamples = 15\nvalue = [15, 0]"] ;
23 -> 37 ;
38 [label="gini = 0.0\nsamples = 75\nvalue = [75, 0]"] ;
22 -> 38 ;
39 [label="gini = 0.0\nsamples = 48\nvalue = [0, 48]"] ;
15 -> 39 ;
40 [label="F15_b <= 0.5\ngini = 0.221\nsamples = 317\nvalue = [40, 277]"] ;
14 -> 40 ;
41 [label="F23_t <= 0.5\ngini = 0.112\nsamples = 285\nvalue = [17, 268]"] ;
40 -> 41 ;
42 [label="F12_f <= 0.5\ngini = 0.016\nsamples = 243\nvalue = [2, 241]"] ;
41 -> 42 ;
43 [label="F26_f <= 0.5\ngini = 0.188\nsamples = 19\nvalue = [2, 17]"] ;
42 -> 43 ;
44 [label="F13_l <= 0.5\ngini = 0.408\nsamples = 7\nvalue = [2, 5]"] ;
43 -> 44 ;
45 [label="gini = 0.0\nsamples = 2\nvalue = [2, 0]"] ;
44 -> 45 ;
46 [label="gini = 0.0\nsamples = 5\nvalue = [0, 5]"] ;
44 -> 46 ;
47 [label="gini = 0.0\nsamples = 12\nvalue = [0, 12]"] ;
43 -> 47 ;
48 [label="gini = 0.0\nsamples = 224\nvalue = [0, 224]"] ;
42 -> 48 ;
49 [label="F17_f <= 0.5\ngini = 0.459\nsamples = 42\nvalue = [15, 27]"] ;
41 -> 49 ;
50 [label="gini = 0.0\nsamples = 27\nvalue = [0, 27]"] ;
49 -> 50 ;
51 [label="gini = 0.0\nsamples = 15\nvalue = [15, 0]"] ;
49 -> 51 ;
52 [label="F1_f <= 0.5\ngini = 0.404\nsamples = 32\nvalue = [23, 9]"] ;
40 -> 52 ;
53 [label="F23_f <= 0.5\ngini = 0.18\nsamples = 10\nvalue = [1, 9]"] ;
52 -> 53 ;
54 [label="F17_f <= 0.5\ngini = 0.5\nsamples = 2\nvalue = [1, 1]"] ;
53 -> 54 ;
55 [label="gini = 0.0\nsamples = 1\nvalue = [0, 1]"] ;
54 -> 55 ;
56 [label="gini = 0.0\nsamples = 1\nvalue = [1, 0]"] ;
54 -> 56 ;
57 [label="gini = 0.0\nsamples = 8\nvalue = [0, 8]"] ;
53 -> 57 ;
58 [label="gini = 0.0\nsamples = 22\nvalue = [22, 0]"] ;
52 -> 58 ;
59 [label="gini = 0.0\nsamples = 340\nvalue = [340, 0]"] ;
3 -> 59 ;
60 [label="F18_f <= 0.5\ngini = 0.068\nsamples = 911\nvalue = [879, 32]"] ;
2 -> 60 ;
61 [label="F34_t <= 0.5\ngini = 0.022\nsamples = 639\nvalue = [632, 7]"] ;
60 -> 61 ;
62 [label="F7_f <= 0.5\ngini = 0.094\nsamples = 141\nvalue = [134, 7]"] ;
61 -> 62 ;
63 [label="gini = 0.0\nsamples = 94\nvalue = [94, 0]"] ;
62 -> 63 ;
64 [label="F4_f <= 0.5\ngini = 0.254\nsamples = 47\nvalue = [40, 7]"] ;
62 -> 64 ;
65 [label="gini = 0.0\nsamples = 20\nvalue = [20, 0]"] ;
64 -> 65 ;
66 [label="F5_f <= 0.5\ngini = 0.384\nsamples = 27\nvalue = [20, 7]"] ;
64 -> 66 ;
67 [label="gini = 0.0\nsamples = 3\nvalue = [0, 3]"] ;
66 -> 67 ;
68 [label="F16_f <= 0.5\ngini = 0.278\nsamples = 24\nvalue = [20, 4]"] ;
66 -> 68 ;
69 [label="gini = 0.0\nsamples = 12\nvalue = [12, 0]"] ;
68 -> 69 ;
70 [label="F11_f <= 0.5\ngini = 0.444\nsamples = 12\nvalue = [8, 4]"] ;
68 -> 70 ;
71 [label="gini = 0.0\nsamples = 5\nvalue = [5, 0]"] ;
70 -> 71 ;
72 [label="F3_t <= 0.5\ngini = 0.49\nsamples = 7\nvalue = [3, 4]"] ;
70 -> 72 ;
73 [label="gini = 0.0\nsamples = 4\nvalue = [0, 4]"] ;
72 -> 73 ;
74 [label="gini = 0.0\nsamples = 3\nvalue = [3, 0]"] ;
72 -> 74 ;
75 [label="gini = 0.0\nsamples = 498\nvalue = [498, 0]"] ;
61 -> 75 ;
76 [label="F7_f <= 0.5\ngini = 0.167\nsamples = 272\nvalue = [247, 25]"] ;
60 -> 76 ;
77 [label="gini = 0.0\nsamples = 127\nvalue = [127, 0]"] ;
76 -> 77 ;
78 [label="F27_t <= 0.5\ngini = 0.285\nsamples = 145\nvalue = [120, 25]"] ;
76 -> 78 ;
79 [label="F10_f <= 0.5\ngini = 0.363\nsamples = 105\nvalue = [80, 25]"] ;
78 -> 79 ;
80 [label="gini = 0.0\nsamples = 32\nvalue = [32, 0]"] ;
79 -> 80 ;
81 [label="F16_t <= 0.5\ngini = 0.45\nsamples = 73\nvalue = [48, 25]"] ;
79 -> 81 ;
82 [label="F20_t <= 0.5\ngini = 0.497\nsamples = 54\nvalue = [29, 25]"] ;
81 -> 82 ;
83 [label="F4_t <= 0.5\ngini = 0.498\nsamples = 47\nvalue = [22, 25]"] ;
82 -> 83 ;
84 [label="F30_f <= 0.5\ngini = 0.469\nsamples = 40\nvalue = [15, 25]"] ;
83 -> 84 ;
85 [label="gini = 0.0\nsamples = 7\nvalue = [7, 0]"] ;
84 -> 85 ;
86 [label="F9_f <= 0.5\ngini = 0.367\nsamples = 33\nvalue = [8, 25]"] ;
84 -> 86 ;
87 [label="gini = 0.0\nsamples = 4\nvalue = [4, 0]"] ;
86 -> 87 ;
88 [label="F25_t <= 0.5\ngini = 0.238\nsamples = 29\nvalue = [4, 25]"] ;
86 -> 88 ;
89 [label="F3_f <= 0.5\ngini = 0.137\nsamples = 27\nvalue = [2, 25]"] ;
88 -> 89 ;
90 [label="gini = 0.0\nsamples = 2\nvalue = [2, 0]"] ;
89 -> 90 ;
91 [label="gini = 0.0\nsamples = 25\nvalue = [0, 25]"] ;
89 -> 91 ;
92 [label="gini = 0.0\nsamples = 2\nvalue = [2, 0]"] ;
88 -> 92 ;
93 [label="gini = 0.0\nsamples = 7\nvalue = [7, 0]"] ;
83 -> 93 ;
94 [label="gini = 0.0\nsamples = 7\nvalue = [7, 0]"] ;
82 -> 94 ;
95 [label="gini = 0.0\nsamples = 19\nvalue = [19, 0]"] ;
81 -> 95 ;
96 [label="gini = 0.0\nsamples = 40\nvalue = [40, 0]"] ;
78 -> 96 ;
}