digraph Tree {
node [shape=box] ;
0 [label="odor_n <= 0.5\ngini = 0.5\nsamples = 7574\nvalue = [3787, 3787]"] ;
1 [label="stalk-root_c <= 0.5\ngini = 0.206\nsamples = 4143\nvalue = [482, 3661]"] ;
0 -> 1 [labeldistance=2.5, labelangle=45, headlabel="True"] ;
2 [label="stalk-root_r <= 0.5\ngini = 0.082\nsamples = 3786\nvalue = [163, 3623]"] ;
1 -> 2 ;
3 [label="gill-spacing_w <= 0.5\ngini = 0.03\nsamples = 3679\nvalue = [56, 3623]"] ;
2 -> 3 ;
4 [label="gini = 0.0\nsamples = 3579\nvalue = [0, 3579]"] ;
3 -> 4 ;
5 [label="bruises?_f <= 0.5\ngini = 0.493\nsamples = 100\nvalue = [56, 44]"] ;
3 -> 5 ;
6 [label="gini = 0.0\nsamples = 56\nvalue = [56, 0]"] ;
5 -> 6 ;
7 [label="gini = 0.0\nsamples = 44\nvalue = [0, 44]"] ;
5 -> 7 ;
8 [label="gini = 0.0\nsamples = 107\nvalue = [107, 0]"] ;
2 -> 8 ;
9 [label="stalk-surface-above-ring_k <= 0.5\ngini = 0.19\nsamples = 357\nvalue = [319, 38]"] ;
1 -> 9 ;
10 [label="gini = 0.0\nsamples = 319\nvalue = [319, 0]"] ;
9 -> 10 ;
11 [label="gini = 0.0\nsamples = 38\nvalue = [0, 38]"] ;
9 -> 11 ;
12 [label="spore-print-color_r <= 0.5\ngini = 0.071\nsamples = 3431\nvalue = [3305, 126]"] ;
0 -> 12 [labeldistance=2.5, labelangle=-45, headlabel="False"] ;
13 [label="stalk-surface-below-ring_y <= 0.5\ngini = 0.029\nsamples = 3355\nvalue = [3305, 50]"] ;
12 -> 13 ;
14 [label="cap-surface_g <= 0.5\ngini = 0.005\nsamples = 3297\nvalue = [3289, 8]"] ;
13 -> 14 ;
15 [label="cap-shape_c <= 0.5\ngini = 0.002\nsamples = 3293\nvalue = [3289, 4]"] ;
14 -> 15 ;
16 [label="gill-size_b <= 0.5\ngini = 0.002\nsamples = 3292\nvalue = [3289, 3]"] ;
15 -> 16 ;
17 [label="population_c <= 0.5\ngini = 0.039\nsamples = 151\nvalue = [148, 3]"] ;
16 -> 17 ;
18 [label="gini = 0.0\nsamples = 148\nvalue = [148, 0]"] ;
17 -> 18 ;
19 [label="gini = 0.0\nsamples = 3\nvalue = [0, 3]"] ;
17 -> 19 ;
20 [label="gini = 0.0\nsamples = 3141\nvalue = [3141, 0]"] ;
16 -> 20 ;
21 [label="gini = 0.0\nsamples = 1\nvalue = [0, 1]"] ;
15 -> 21 ;
22 [label="gini = 0.0\nsamples = 4\nvalue = [0, 4]"] ;
14 -> 22 ;
23 [label="gill-size_b <= 0.5\ngini = 0.4\nsamples = 58\nvalue = [16, 42]"] ;
13 -> 23 ;
24 [label="gini = 0.0\nsamples = 42\nvalue = [0, 42]"] ;
23 -> 24 ;
25 [label="gini = 0.0\nsamples = 16\nvalue = [16, 0]"] ;
23 -> 25 ;
26 [label="gini = 0.0\nsamples = 76\nvalue = [0, 76]"] ;
12 -> 26 ;
}