digraph Tree {
node [shape=box] ;
0 [label="middle-middle-square_o <= 0.5\ngini = 0.5\nsamples = 1126\nvalue = [563, 563]"] ;
1 [label="top-left-square_o <= 0.5\ngini = 0.456\nsamples = 660\nvalue = [232, 428]"] ;
0 -> 1 [labeldistance=2.5, labelangle=45, headlabel="True"] ;
2 [label="bottom-right-square_o <= 0.5\ngini = 0.366\nsamples = 381\nvalue = [92, 289]"] ;
1 -> 2 ;
3 [label="gini = 0.0\nsamples = 188\nvalue = [0, 188]"] ;
2 -> 3 ;
4 [label="top-right-square_o <= 0.5\ngini = 0.499\nsamples = 193\nvalue = [92, 101]"] ;
2 -> 4 ;
5 [label="bottom-left-square_o <= 0.5\ngini = 0.444\nsamples = 114\nvalue = [38, 76]"] ;
4 -> 5 ;
6 [label="gini = 0.0\nsamples = 57\nvalue = [0, 57]"] ;
5 -> 6 ;
7 [label="bottom-middle-square_o <= 0.5\ngini = 0.444\nsamples = 57\nvalue = [38, 19]"] ;
5 -> 7 ;
8 [label="top-middle-square_o <= 0.5\ngini = 0.236\nsamples = 22\nvalue = [3, 19]"] ;
7 -> 8 ;
9 [label="gini = 0.0\nsamples = 16\nvalue = [0, 16]"] ;
8 -> 9 ;
10 [label="middle-left-square_o <= 0.5\ngini = 0.5\nsamples = 6\nvalue = [3, 3]"] ;
8 -> 10 ;
11 [label="middle-right-square_x <= 0.5\ngini = 0.375\nsamples = 4\nvalue = [1, 3]"] ;
10 -> 11 ;
12 [label="gini = 0.0\nsamples = 1\nvalue = [1, 0]"] ;
11 -> 12 ;
13 [label="gini = 0.0\nsamples = 3\nvalue = [0, 3]"] ;
11 -> 13 ;
14 [label="gini = 0.0\nsamples = 2\nvalue = [2, 0]"] ;
10 -> 14 ;
15 [label="gini = 0.0\nsamples = 35\nvalue = [35, 0]"] ;
7 -> 15 ;
16 [label="middle-right-square_o <= 0.5\ngini = 0.433\nsamples = 79\nvalue = [54, 25]"] ;
4 -> 16 ;
17 [label="bottom-middle-square_o <= 0.5\ngini = 0.389\nsamples = 34\nvalue = [9, 25]"] ;
16 -> 17 ;
18 [label="middle-left-square_o <= 0.5\ngini = 0.172\nsamples = 21\nvalue = [2, 19]"] ;
17 -> 18 ;
19 [label="gini = 0.0\nsamples = 15\nvalue = [0, 15]"] ;
18 -> 19 ;
20 [label="top-middle-square_x <= 0.5\ngini = 0.444\nsamples = 6\nvalue = [2, 4]"] ;
18 -> 20 ;
21 [label="gini = 0.0\nsamples = 2\nvalue = [2, 0]"] ;
20 -> 21 ;
22 [label="gini = 0.0\nsamples = 4\nvalue = [0, 4]"] ;
20 -> 22 ;
23 [label="bottom-left-square_o <= 0.5\ngini = 0.497\nsamples = 13\nvalue = [7, 6]"] ;
17 -> 23 ;
24 [label="middle-left-square_o <= 0.5\ngini = 0.245\nsamples = 7\nvalue = [1, 6]"] ;
23 -> 24 ;
25 [label="gini = 0.0\nsamples = 6\nvalue = [0, 6]"] ;
24 -> 25 ;
26 [label="gini = 0.0\nsamples = 1\nvalue = [1, 0]"] ;
24 -> 26 ;
27 [label="gini = 0.0\nsamples = 6\nvalue = [6, 0]"] ;
23 -> 27 ;
28 [label="gini = 0.0\nsamples = 45\nvalue = [45, 0]"] ;
16 -> 28 ;
29 [label="top-right-square_o <= 0.5\ngini = 0.5\nsamples = 279\nvalue = [140, 139]"] ;
1 -> 29 ;
30 [label="bottom-left-square_o <= 0.5\ngini = 0.463\nsamples = 162\nvalue = [59, 103]"] ;
29 -> 30 ;
31 [label="gini = 0.0\nsamples = 79\nvalue = [0, 79]"] ;
30 -> 31 ;
32 [label="middle-left-square_o <= 0.5\ngini = 0.411\nsamples = 83\nvalue = [59, 24]"] ;
30 -> 32 ;
33 [label="middle-right-square_x <= 0.5\ngini = 0.35\nsamples = 31\nvalue = [7, 24]"] ;
32 -> 33 ;
34 [label="top-right-square_x <= 0.5\ngini = 0.494\nsamples = 9\nvalue = [5, 4]"] ;
33 -> 34 ;
35 [label="gini = 0.0\nsamples = 4\nvalue = [0, 4]"] ;
34 -> 35 ;
36 [label="gini = 0.0\nsamples = 5\nvalue = [5, 0]"] ;
34 -> 36 ;
37 [label="top-middle-square_x <= 0.5\ngini = 0.165\nsamples = 22\nvalue = [2, 20]"] ;
33 -> 37 ;
38 [label="gini = 0.0\nsamples = 16\nvalue = [0, 16]"] ;
37 -> 38 ;
39 [label="top-right-square_b <= 0.5\ngini = 0.444\nsamples = 6\nvalue = [2, 4]"] ;
37 -> 39 ;
40 [label="bottom-right-square_x <= 0.5\ngini = 0.444\nsamples = 3\nvalue = [2, 1]"] ;
39 -> 40 ;
41 [label="gini = 0.0\nsamples = 2\nvalue = [2, 0]"] ;
40 -> 41 ;
42 [label="gini = 0.0\nsamples = 1\nvalue = [0, 1]"] ;
40 -> 42 ;
43 [label="gini = 0.0\nsamples = 3\nvalue = [0, 3]"] ;
39 -> 43 ;
44 [label="gini = 0.0\nsamples = 52\nvalue = [52, 0]"] ;
32 -> 44 ;
45 [label="top-middle-square_o <= 0.5\ngini = 0.426\nsamples = 117\nvalue = [81, 36]"] ;
29 -> 45 ;
46 [label="bottom-right-square_b <= 0.5\ngini = 0.436\nsamples = 53\nvalue = [17, 36]"] ;
45 -> 46 ;
47 [label="middle-left-square_b <= 0.5\ngini = 0.485\nsamples = 41\nvalue = [17, 24]"] ;
46 -> 47 ;
48 [label="middle-right-square_o <= 0.5\ngini = 0.5\nsamples = 34\nvalue = [17, 17]"] ;
47 -> 48 ;
49 [label="middle-left-square_x <= 0.5\ngini = 0.444\nsamples = 21\nvalue = [7, 14]"] ;
48 -> 49 ;
50 [label="bottom-left-square_o <= 0.5\ngini = 0.486\nsamples = 12\nvalue = [7, 5]"] ;
49 -> 50 ;
51 [label="bottom-middle-square_x <= 0.5\ngini = 0.278\nsamples = 6\nvalue = [1, 5]"] ;
50 -> 51 ;
52 [label="gini = 0.0\nsamples = 1\nvalue = [1, 0]"] ;
51 -> 52 ;
53 [label="gini = 0.0\nsamples = 5\nvalue = [0, 5]"] ;
51 -> 53 ;
54 [label="gini = 0.0\nsamples = 6\nvalue = [6, 0]"] ;
50 -> 54 ;
55 [label="gini = 0.0\nsamples = 9\nvalue = [0, 9]"] ;
49 -> 55 ;
56 [label="bottom-right-square_x <= 0.5\ngini = 0.355\nsamples = 13\nvalue = [10, 3]"] ;
48 -> 56 ;
57 [label="gini = 0.0\nsamples = 7\nvalue = [7, 0]"] ;
56 -> 57 ;
58 [label="bottom-middle-square_o <= 0.5\ngini = 0.5\nsamples = 6\nvalue = [3, 3]"] ;
56 -> 58 ;
59 [label="gini = 0.0\nsamples = 3\nvalue = [0, 3]"] ;
58 -> 59 ;
60 [label="gini = 0.0\nsamples = 3\nvalue = [3, 0]"] ;
58 -> 60 ;
61 [label="gini = 0.0\nsamples = 7\nvalue = [0, 7]"] ;
47 -> 61 ;
62 [label="gini = 0.0\nsamples = 12\nvalue = [0, 12]"] ;
46 -> 62 ;
63 [label="gini = 0.0\nsamples = 64\nvalue = [64, 0]"] ;
45 -> 63 ;
64 [label="bottom-right-square_o <= 0.5\ngini = 0.412\nsamples = 466\nvalue = [331, 135]"] ;
0 -> 64 [labeldistance=2.5, labelangle=-45, headlabel="False"] ;
65 [label="top-right-square_x <= 0.5\ngini = 0.452\nsamples = 304\nvalue = [199, 105]"] ;
64 -> 65 ;
66 [label="bottom-left-square_x <= 0.5\ngini = 0.378\nsamples = 166\nvalue = [124, 42]"] ;
65 -> 66 ;
67 [label="gini = 0.0\nsamples = 94\nvalue = [94, 0]"] ;
66 -> 67 ;
68 [label="bottom-middle-square_x <= 0.5\ngini = 0.486\nsamples = 72\nvalue = [30, 42]"] ;
66 -> 68 ;
69 [label="middle-left-square_x <= 0.5\ngini = 0.401\nsamples = 36\nvalue = [26, 10]"] ;
68 -> 69 ;
70 [label="gini = 0.0\nsamples = 17\nvalue = [17, 0]"] ;
69 -> 70 ;
71 [label="top-left-square_x <= 0.5\ngini = 0.499\nsamples = 19\nvalue = [9, 10]"] ;
69 -> 71 ;
72 [label="gini = 0.0\nsamples = 9\nvalue = [9, 0]"] ;
71 -> 72 ;
73 [label="gini = 0.0\nsamples = 10\nvalue = [0, 10]"] ;
71 -> 73 ;
74 [label="bottom-right-square_b <= 0.5\ngini = 0.198\nsamples = 36\nvalue = [4, 32]"] ;
68 -> 74 ;
75 [label="gini = 0.0\nsamples = 29\nvalue = [0, 29]"] ;
74 -> 75 ;
76 [label="middle-left-square_o <= 0.5\ngini = 0.49\nsamples = 7\nvalue = [4, 3]"] ;
74 -> 76 ;
77 [label="middle-right-square_x <= 0.5\ngini = 0.375\nsamples = 4\nvalue = [1, 3]"] ;
76 -> 77 ;
78 [label="gini = 0.0\nsamples = 3\nvalue = [0, 3]"] ;
77 -> 78 ;
79 [label="gini = 0.0\nsamples = 1\nvalue = [1, 0]"] ;
77 -> 79 ;
80 [label="gini = 0.0\nsamples = 3\nvalue = [3, 0]"] ;
76 -> 80 ;
81 [label="middle-right-square_x <= 0.5\ngini = 0.496\nsamples = 138\nvalue = [75, 63]"] ;
65 -> 81 ;
82 [label="top-middle-square_x <= 0.5\ngini = 0.41\nsamples = 87\nvalue = [62, 25]"] ;
81 -> 82 ;
83 [label="top-left-square_o <= 0.5\ngini = 0.256\nsamples = 53\nvalue = [45, 8]"] ;
82 -> 83 ;
84 [label="bottom-left-square_x <= 0.5\ngini = 0.153\nsamples = 48\nvalue = [44, 4]"] ;
83 -> 84 ;
85 [label="gini = 0.0\nsamples = 23\nvalue = [23, 0]"] ;
84 -> 85 ;
86 [label="bottom-middle-square_x <= 0.5\ngini = 0.269\nsamples = 25\nvalue = [21, 4]"] ;
84 -> 86 ;
87 [label="bottom-right-square_b <= 0.5\ngini = 0.172\nsamples = 21\nvalue = [19, 2]"] ;
86 -> 87 ;
88 [label="gini = 0.0\nsamples = 12\nvalue = [12, 0]"] ;
87 -> 88 ;
89 [label="middle-right-square_b <= 0.5\ngini = 0.346\nsamples = 9\nvalue = [7, 2]"] ;
87 -> 89 ;
90 [label="middle-left-square_o <= 0.5\ngini = 0.444\nsamples = 3\nvalue = [1, 2]"] ;
89 -> 90 ;
91 [label="gini = 0.0\nsamples = 2\nvalue = [0, 2]"] ;
90 -> 91 ;
92 [label="gini = 0.0\nsamples = 1\nvalue = [1, 0]"] ;
90 -> 92 ;
93 [label="gini = 0.0\nsamples = 6\nvalue = [6, 0]"] ;
89 -> 93 ;
94 [label="bottom-right-square_x <= 0.5\ngini = 0.5\nsamples = 4\nvalue = [2, 2]"] ;
86 -> 94 ;
95 [label="gini = 0.0\nsamples = 2\nvalue = [2, 0]"] ;
94 -> 95 ;
96 [label="gini = 0.0\nsamples = 2\nvalue = [0, 2]"] ;
94 -> 96 ;
97 [label="bottom-middle-square_x <= 0.5\ngini = 0.32\nsamples = 5\nvalue = [1, 4]"] ;
83 -> 97 ;
98 [label="gini = 0.0\nsamples = 1\nvalue = [1, 0]"] ;
97 -> 98 ;
99 [label="gini = 0.0\nsamples = 4\nvalue = [0, 4]"] ;
97 -> 99 ;
100 [label="top-left-square_x <= 0.5\ngini = 0.5\nsamples = 34\nvalue = [17, 17]"] ;
82 -> 100 ;
101 [label="gini = 0.0\nsamples = 17\nvalue = [17, 0]"] ;
100 -> 101 ;
102 [label="gini = 0.0\nsamples = 17\nvalue = [0, 17]"] ;
100 -> 102 ;
103 [label="bottom-right-square_b <= 0.5\ngini = 0.38\nsamples = 51\nvalue = [13, 38]"] ;
81 -> 103 ;
104 [label="gini = 0.0\nsamples = 35\nvalue = [0, 35]"] ;
103 -> 104 ;
105 [label="top-middle-square_x <= 0.5\ngini = 0.305\nsamples = 16\nvalue = [13, 3]"] ;
103 -> 105 ;
106 [label="gini = 0.0\nsamples = 10\nvalue = [10, 0]"] ;
105 -> 106 ;
107 [label="bottom-middle-square_x <= 0.5\ngini = 0.5\nsamples = 6\nvalue = [3, 3]"] ;
105 -> 107 ;
108 [label="gini = 0.0\nsamples = 3\nvalue = [0, 3]"] ;
107 -> 108 ;
109 [label="gini = 0.0\nsamples = 3\nvalue = [3, 0]"] ;
107 -> 109 ;
110 [label="top-left-square_x <= 0.5\ngini = 0.302\nsamples = 162\nvalue = [132, 30]"] ;
64 -> 110 ;
111 [label="gini = 0.0\nsamples = 99\nvalue = [99, 0]"] ;
110 -> 111 ;
112 [label="bottom-middle-square_b <= 0.5\ngini = 0.499\nsamples = 63\nvalue = [33, 30]"] ;
110 -> 112 ;
113 [label="middle-right-square_b <= 0.5\ngini = 0.453\nsamples = 49\nvalue = [32, 17]"] ;
112 -> 113 ;
114 [label="top-middle-square_b <= 0.5\ngini = 0.349\nsamples = 40\nvalue = [31, 9]"] ;
113 -> 114 ;
115 [label="top-right-square_x <= 0.5\ngini = 0.412\nsamples = 31\nvalue = [22, 9]"] ;
114 -> 115 ;
116 [label="top-middle-square_x <= 0.5\ngini = 0.219\nsamples = 16\nvalue = [14, 2]"] ;
115 -> 116 ;
117 [label="gini = 0.0\nsamples = 1\nvalue = [0, 1]"] ;
116 -> 117 ;
118 [label="bottom-middle-square_x <= 0.5\ngini = 0.124\nsamples = 15\nvalue = [14, 1]"] ;
116 -> 118 ;
119 [label="top-right-square_o <= 0.5\ngini = 0.444\nsamples = 3\nvalue = [2, 1]"] ;
118 -> 119 ;
120 [label="gini = 0.0\nsamples = 2\nvalue = [2, 0]"] ;
119 -> 120 ;
121 [label="gini = 0.0\nsamples = 1\nvalue = [0, 1]"] ;
119 -> 121 ;
122 [label="gini = 0.0\nsamples = 12\nvalue = [12, 0]"] ;
118 -> 122 ;
123 [label="top-middle-square_o <= 0.5\ngini = 0.498\nsamples = 15\nvalue = [8, 7]"] ;
115 -> 123 ;
124 [label="gini = 0.0\nsamples = 6\nvalue = [0, 6]"] ;
123 -> 124 ;
125 [label="middle-right-square_x <= 0.5\ngini = 0.198\nsamples = 9\nvalue = [8, 1]"] ;
123 -> 125 ;
126 [label="gini = 0.0\nsamples = 1\nvalue = [0, 1]"] ;
125 -> 126 ;
127 [label="gini = 0.0\nsamples = 8\nvalue = [8, 0]"] ;
125 -> 127 ;
128 [label="gini = 0.0\nsamples = 9\nvalue = [9, 0]"] ;
114 -> 128 ;
129 [label="top-right-square_o <= 0.5\ngini = 0.198\nsamples = 9\nvalue = [1, 8]"] ;
113 -> 129 ;
130 [label="gini = 0.0\nsamples = 7\nvalue = [0, 7]"] ;
129 -> 130 ;
131 [label="bottom-left-square_x <= 0.5\ngini = 0.5\nsamples = 2\nvalue = [1, 1]"] ;
129 -> 131 ;
132 [label="gini = 0.0\nsamples = 1\nvalue = [1, 0]"] ;
131 -> 132 ;
133 [label="gini = 0.0\nsamples = 1\nvalue = [0, 1]"] ;
131 -> 133 ;
134 [label="top-right-square_o <= 0.5\ngini = 0.133\nsamples = 14\nvalue = [1, 13]"] ;
112 -> 134 ;
135 [label="gini = 0.0\nsamples = 11\nvalue = [0, 11]"] ;
134 -> 135 ;
136 [label="bottom-left-square_x <= 0.5\ngini = 0.444\nsamples = 3\nvalue = [1, 2]"] ;
134 -> 136 ;
137 [label="gini = 0.0\nsamples = 1\nvalue = [1, 0]"] ;
136 -> 137 ;
138 [label="gini = 0.0\nsamples = 2\nvalue = [0, 2]"] ;
136 -> 138 ;
}