digraph Tree {
node [shape=box] ;
0 [label="odor_n <= 0.5\ngini = 0.5\nsamples = 7576\nvalue = [3788, 3788]"] ;
1 [label="stalk-root_c <= 0.5\ngini = 0.294\nsamples = 4468\nvalue = [800, 3668]"] ;
0 -> 1 [labeldistance=2.5, labelangle=45, headlabel="True"] ;
2 [label="stalk-surface-below-ring_y <= 0.5\ngini = 0.136\nsamples = 3938\nvalue = [288, 3650]"] ;
1 -> 2 ;
3 [label="spore-print-color_u <= 0.5\ngini = 0.05\nsamples = 3746\nvalue = [96, 3650]"] ;
2 -> 3 ;
4 [label="odor_a <= 0.5\ngini = 0.026\nsamples = 3698\nvalue = [48, 3650]"] ;
3 -> 4 ;
5 [label="odor_l <= 0.5\ngini = 0.013\nsamples = 3674\nvalue = [24, 3650]"] ;
4 -> 5 ;
6 [label="gini = 0.0\nsamples = 3650\nvalue = [0, 3650]"] ;
5 -> 6 ;
7 [label="gini = 0.0\nsamples = 24\nvalue = [24, 0]"] ;
5 -> 7 ;
8 [label="gini = 0.0\nsamples = 24\nvalue = [24, 0]"] ;
4 -> 8 ;
9 [label="gini = 0.0\nsamples = 48\nvalue = [48, 0]"] ;
3 -> 9 ;
10 [label="gini = 0.0\nsamples = 192\nvalue = [192, 0]"] ;
2 -> 10 ;
11 [label="stalk-color-below-ring_w <= 0.5\ngini = 0.066\nsamples = 530\nvalue = [512, 18]"] ;
1 -> 11 ;
12 [label="gini = 0.0\nsamples = 18\nvalue = [0, 18]"] ;
11 -> 12 ;
13 [label="gini = 0.0\nsamples = 512\nvalue = [512, 0]"] ;
11 -> 13 ;
14 [label="spore-print-color_r <= 0.5\ngini = 0.074\nsamples = 3108\nvalue = [2988, 120]"] ;
0 -> 14 [labeldistance=2.5, labelangle=-45, headlabel="False"] ;
15 [label="stalk-surface-below-ring_y <= 0.5\ngini = 0.028\nsamples = 3031\nvalue = [2988, 43]"] ;
14 -> 15 ;
16 [label="cap-surface_g <= 0.5\ngini = 0.005\nsamples = 2983\nvalue = [2975, 8]"] ;
15 -> 16 ;
17 [label="cap-shape_c <= 0.5\ngini = 0.003\nsamples = 2979\nvalue = [2975, 4]"] ;
16 -> 17 ;
18 [label="population_c <= 0.5\ngini = 0.002\nsamples = 2978\nvalue = [2975, 3]"] ;
17 -> 18 ;
19 [label="gini = 0.0\nsamples = 2892\nvalue = [2892, 0]"] ;
18 -> 19 ;
20 [label="gill-color_w <= 0.5\ngini = 0.067\nsamples = 86\nvalue = [83, 3]"] ;
18 -> 20 ;
21 [label="gini = 0.0\nsamples = 83\nvalue = [83, 0]"] ;
20 -> 21 ;
22 [label="gini = 0.0\nsamples = 3\nvalue = [0, 3]"] ;
20 -> 22 ;
23 [label="gini = 0.0\nsamples = 1\nvalue = [0, 1]"] ;
17 -> 23 ;
24 [label="gini = 0.0\nsamples = 4\nvalue = [0, 4]"] ;
16 -> 24 ;
25 [label="gill-size_b <= 0.5\ngini = 0.395\nsamples = 48\nvalue = [13, 35]"] ;
15 -> 25 ;
26 [label="gini = 0.0\nsamples = 35\nvalue = [0, 35]"] ;
25 -> 26 ;
27 [label="gini = 0.0\nsamples = 13\nvalue = [13, 0]"] ;
25 -> 27 ;
28 [label="gini = 0.0\nsamples = 77\nvalue = [0, 77]"] ;
14 -> 28 ;
}