digraph Tree {
node [shape=box] ;
0 [label="a2_1 <= 0.5\ngini = 0.5\nsamples = 712\nvalue = [356, 356]"] ;
1 [label="a1_2 <= 0.5\ngini = 0.497\nsamples = 473\nvalue = [217, 256]"] ;
0 -> 1 [labeldistance=2.5, labelangle=45, headlabel="True"] ;
2 [label="a4_1 <= 0.5\ngini = 0.5\nsamples = 343\nvalue = [170, 173]"] ;
1 -> 2 ;
3 [label="a1_3 <= 0.5\ngini = 0.497\nsamples = 235\nvalue = [108, 127]"] ;
2 -> 3 ;
4 [label="a5_1 <= 0.5\ngini = 0.477\nsamples = 130\nvalue = [51, 79]"] ;
3 -> 4 ;
5 [label="a2_3 <= 0.5\ngini = 0.447\nsamples = 104\nvalue = [35, 69]"] ;
4 -> 5 ;
6 [label="a4_2 <= 0.5\ngini = 0.428\nsamples = 58\nvalue = [18, 40]"] ;
5 -> 6 ;
7 [label="a6_1 <= 0.5\ngini = 0.459\nsamples = 28\nvalue = [10, 18]"] ;
6 -> 7 ;
8 [label="a3_1 <= 0.5\ngini = 0.486\nsamples = 12\nvalue = [5, 7]"] ;
7 -> 8 ;
9 [label="gini = 0.0\nsamples = 5\nvalue = [5, 0]"] ;
8 -> 9 ;
10 [label="gini = 0.0\nsamples = 7\nvalue = [0, 7]"] ;
8 -> 10 ;
11 [label="a3_2 <= 0.5\ngini = 0.43\nsamples = 16\nvalue = [5, 11]"] ;
7 -> 11 ;
12 [label="gini = 0.0\nsamples = 5\nvalue = [5, 0]"] ;
11 -> 12 ;
13 [label="gini = 0.0\nsamples = 11\nvalue = [0, 11]"] ;
11 -> 13 ;
14 [label="a6_2 <= 0.5\ngini = 0.391\nsamples = 30\nvalue = [8, 22]"] ;
6 -> 14 ;
15 [label="a3_2 <= 0.5\ngini = 0.444\nsamples = 15\nvalue = [5, 10]"] ;
14 -> 15 ;
16 [label="gini = 0.0\nsamples = 5\nvalue = [5, 0]"] ;
15 -> 16 ;
17 [label="gini = 0.0\nsamples = 10\nvalue = [0, 10]"] ;
15 -> 17 ;
18 [label="a3_1 <= 0.5\ngini = 0.32\nsamples = 15\nvalue = [3, 12]"] ;
14 -> 18 ;
19 [label="gini = 0.0\nsamples = 3\nvalue = [3, 0]"] ;
18 -> 19 ;
20 [label="gini = 0.0\nsamples = 12\nvalue = [0, 12]"] ;
18 -> 20 ;
21 [label="a5_4 <= 0.5\ngini = 0.466\nsamples = 46\nvalue = [17, 29]"] ;
5 -> 21 ;
22 [label="a6_2 <= 0.5\ngini = 0.444\nsamples = 33\nvalue = [11, 22]"] ;
21 -> 22 ;
23 [label="a3_2 <= 0.5\ngini = 0.49\nsamples = 14\nvalue = [6, 8]"] ;
22 -> 23 ;
24 [label="gini = 0.0\nsamples = 6\nvalue = [6, 0]"] ;
23 -> 24 ;
25 [label="gini = 0.0\nsamples = 8\nvalue = [0, 8]"] ;
23 -> 25 ;
26 [label="a3_2 <= 0.5\ngini = 0.388\nsamples = 19\nvalue = [5, 14]"] ;
22 -> 26 ;
27 [label="gini = 0.0\nsamples = 14\nvalue = [0, 14]"] ;
26 -> 27 ;
28 [label="gini = 0.0\nsamples = 5\nvalue = [5, 0]"] ;
26 -> 28 ;
29 [label="a4_3 <= 0.5\ngini = 0.497\nsamples = 13\nvalue = [6, 7]"] ;
21 -> 29 ;
30 [label="a6_1 <= 0.5\ngini = 0.49\nsamples = 7\nvalue = [4, 3]"] ;
29 -> 30 ;
31 [label="a3_2 <= 0.5\ngini = 0.444\nsamples = 3\nvalue = [2, 1]"] ;
30 -> 31 ;
32 [label="gini = 0.0\nsamples = 1\nvalue = [0, 1]"] ;
31 -> 32 ;
33 [label="gini = 0.0\nsamples = 2\nvalue = [2, 0]"] ;
31 -> 33 ;
34 [label="a3_2 <= 0.5\ngini = 0.5\nsamples = 4\nvalue = [2, 2]"] ;
30 -> 34 ;
35 [label="gini = 0.0\nsamples = 2\nvalue = [2, 0]"] ;
34 -> 35 ;
36 [label="gini = 0.0\nsamples = 2\nvalue = [0, 2]"] ;
34 -> 36 ;
37 [label="a3_1 <= 0.5\ngini = 0.444\nsamples = 6\nvalue = [2, 4]"] ;
29 -> 37 ;
38 [label="a6_2 <= 0.5\ngini = 0.444\nsamples = 3\nvalue = [1, 2]"] ;
37 -> 38 ;
39 [label="gini = 0.0\nsamples = 2\nvalue = [0, 2]"] ;
38 -> 39 ;
40 [label="gini = 0.0\nsamples = 1\nvalue = [1, 0]"] ;
38 -> 40 ;
41 [label="a6_2 <= 0.5\ngini = 0.444\nsamples = 3\nvalue = [1, 2]"] ;
37 -> 41 ;
42 [label="gini = 0.0\nsamples = 1\nvalue = [1, 0]"] ;
41 -> 42 ;
43 [label="gini = 0.0\nsamples = 2\nvalue = [0, 2]"] ;
41 -> 43 ;
44 [label="a3_1 <= 0.5\ngini = 0.473\nsamples = 26\nvalue = [16, 10]"] ;
4 -> 44 ;
45 [label="a6_2 <= 0.5\ngini = 0.444\nsamples = 15\nvalue = [5, 10]"] ;
44 -> 45 ;
46 [label="gini = 0.0\nsamples = 5\nvalue = [5, 0]"] ;
45 -> 46 ;
47 [label="gini = 0.0\nsamples = 10\nvalue = [0, 10]"] ;
45 -> 47 ;
48 [label="gini = 0.0\nsamples = 11\nvalue = [11, 0]"] ;
44 -> 48 ;
49 [label="a6_2 <= 0.5\ngini = 0.496\nsamples = 105\nvalue = [57, 48]"] ;
3 -> 49 ;
50 [label="a3_1 <= 0.5\ngini = 0.458\nsamples = 59\nvalue = [21, 38]"] ;
49 -> 50 ;
51 [label="a5_1 <= 0.5\ngini = 0.495\nsamples = 29\nvalue = [16, 13]"] ;
50 -> 51 ;
52 [label="gini = 0.0\nsamples = 16\nvalue = [16, 0]"] ;
51 -> 52 ;
53 [label="gini = 0.0\nsamples = 13\nvalue = [0, 13]"] ;
51 -> 53 ;
54 [label="a5_1 <= 0.5\ngini = 0.278\nsamples = 30\nvalue = [5, 25]"] ;
50 -> 54 ;
55 [label="gini = 0.0\nsamples = 25\nvalue = [0, 25]"] ;
54 -> 55 ;
56 [label="gini = 0.0\nsamples = 5\nvalue = [5, 0]"] ;
54 -> 56 ;
57 [label="a5_1 <= 0.5\ngini = 0.34\nsamples = 46\nvalue = [36, 10]"] ;
49 -> 57 ;
58 [label="gini = 0.0\nsamples = 32\nvalue = [32, 0]"] ;
57 -> 58 ;
59 [label="a3_1 <= 0.5\ngini = 0.408\nsamples = 14\nvalue = [4, 10]"] ;
57 -> 59 ;
60 [label="gini = 0.0\nsamples = 4\nvalue = [4, 0]"] ;
59 -> 60 ;
61 [label="gini = 0.0\nsamples = 10\nvalue = [0, 10]"] ;
59 -> 61 ;
62 [label="a5_1 <= 0.5\ngini = 0.489\nsamples = 108\nvalue = [62, 46]"] ;
2 -> 62 ;
63 [label="a6_2 <= 0.5\ngini = 0.5\nsamples = 86\nvalue = [42, 44]"] ;
62 -> 63 ;
64 [label="a1_3 <= 0.5\ngini = 0.455\nsamples = 40\nvalue = [26, 14]"] ;
63 -> 64 ;
65 [label="gini = 0.0\nsamples = 17\nvalue = [17, 0]"] ;
64 -> 65 ;
66 [label="a3_1 <= 0.5\ngini = 0.476\nsamples = 23\nvalue = [9, 14]"] ;
64 -> 66 ;
67 [label="gini = 0.0\nsamples = 14\nvalue = [0, 14]"] ;
66 -> 67 ;
68 [label="gini = 0.0\nsamples = 9\nvalue = [9, 0]"] ;
66 -> 68 ;
69 [label="a5_2 <= 0.5\ngini = 0.454\nsamples = 46\nvalue = [16, 30]"] ;
63 -> 69 ;
70 [label="a5_4 <= 0.5\ngini = 0.422\nsamples = 33\nvalue = [10, 23]"] ;
69 -> 70 ;
71 [label="a3_2 <= 0.5\ngini = 0.444\nsamples = 18\nvalue = [6, 12]"] ;
70 -> 71 ;
72 [label="a1_3 <= 0.5\ngini = 0.469\nsamples = 8\nvalue = [3, 5]"] ;
71 -> 72 ;
73 [label="gini = 0.0\nsamples = 3\nvalue = [3, 0]"] ;
72 -> 73 ;
74 [label="gini = 0.0\nsamples = 5\nvalue = [0, 5]"] ;
72 -> 74 ;
75 [label="a1_3 <= 0.5\ngini = 0.42\nsamples = 10\nvalue = [3, 7]"] ;
71 -> 75 ;
76 [label="gini = 0.0\nsamples = 7\nvalue = [0, 7]"] ;
75 -> 76 ;
77 [label="gini = 0.0\nsamples = 3\nvalue = [3, 0]"] ;
75 -> 77 ;
78 [label="a2_3 <= 0.5\ngini = 0.391\nsamples = 15\nvalue = [4, 11]"] ;
70 -> 78 ;
79 [label="a1_1 <= 0.5\ngini = 0.346\nsamples = 9\nvalue = [2, 7]"] ;
78 -> 79 ;
80 [label="a3_2 <= 0.5\ngini = 0.278\nsamples = 6\nvalue = [1, 5]"] ;
79 -> 80 ;
81 [label="gini = 0.0\nsamples = 5\nvalue = [0, 5]"] ;
80 -> 81 ;
82 [label="gini = 0.0\nsamples = 1\nvalue = [1, 0]"] ;
80 -> 82 ;
83 [label="a3_2 <= 0.5\ngini = 0.444\nsamples = 3\nvalue = [1, 2]"] ;
79 -> 83 ;
84 [label="gini = 0.0\nsamples = 1\nvalue = [1, 0]"] ;
83 -> 84 ;
85 [label="gini = 0.0\nsamples = 2\nvalue = [0, 2]"] ;
83 -> 85 ;
86 [label="a1_3 <= 0.5\ngini = 0.444\nsamples = 6\nvalue = [2, 4]"] ;
78 -> 86 ;
87 [label="a3_2 <= 0.5\ngini = 0.375\nsamples = 4\nvalue = [1, 3]"] ;
86 -> 87 ;
88 [label="gini = 0.0\nsamples = 1\nvalue = [1, 0]"] ;
87 -> 88 ;
89 [label="gini = 0.0\nsamples = 3\nvalue = [0, 3]"] ;
87 -> 89 ;
90 [label="a3_1 <= 0.5\ngini = 0.5\nsamples = 2\nvalue = [1, 1]"] ;
86 -> 90 ;
91 [label="gini = 0.0\nsamples = 1\nvalue = [1, 0]"] ;
90 -> 91 ;
92 [label="gini = 0.0\nsamples = 1\nvalue = [0, 1]"] ;
90 -> 92 ;
93 [label="a1_1 <= 0.5\ngini = 0.497\nsamples = 13\nvalue = [6, 7]"] ;
69 -> 93 ;
94 [label="a3_2 <= 0.5\ngini = 0.49\nsamples = 7\nvalue = [3, 4]"] ;
93 -> 94 ;
95 [label="gini = 0.0\nsamples = 4\nvalue = [0, 4]"] ;
94 -> 95 ;
96 [label="gini = 0.0\nsamples = 3\nvalue = [3, 0]"] ;
94 -> 96 ;
97 [label="a3_2 <= 0.5\ngini = 0.5\nsamples = 6\nvalue = [3, 3]"] ;
93 -> 97 ;
98 [label="gini = 0.0\nsamples = 3\nvalue = [3, 0]"] ;
97 -> 98 ;
99 [label="gini = 0.0\nsamples = 3\nvalue = [0, 3]"] ;
97 -> 99 ;
100 [label="a3_1 <= 0.5\ngini = 0.165\nsamples = 22\nvalue = [20, 2]"] ;
62 -> 100 ;
101 [label="a6_1 <= 0.5\ngini = 0.32\nsamples = 10\nvalue = [8, 2]"] ;
100 -> 101 ;
102 [label="a1_1 <= 0.5\ngini = 0.5\nsamples = 4\nvalue = [2, 2]"] ;
101 -> 102 ;
103 [label="gini = 0.0\nsamples = 2\nvalue = [0, 2]"] ;
102 -> 103 ;
104 [label="gini = 0.0\nsamples = 2\nvalue = [2, 0]"] ;
102 -> 104 ;
105 [label="gini = 0.0\nsamples = 6\nvalue = [6, 0]"] ;
101 -> 105 ;
106 [label="gini = 0.0\nsamples = 12\nvalue = [12, 0]"] ;
100 -> 106 ;
107 [label="a3_1 <= 0.5\ngini = 0.462\nsamples = 130\nvalue = [47, 83]"] ;
1 -> 107 ;
108 [label="a6_1 <= 0.5\ngini = 0.49\nsamples = 58\nvalue = [33, 25]"] ;
107 -> 108 ;
109 [label="a5_1 <= 0.5\ngini = 0.269\nsamples = 25\nvalue = [21, 4]"] ;
108 -> 109 ;
110 [label="gini = 0.0\nsamples = 19\nvalue = [19, 0]"] ;
109 -> 110 ;
111 [label="a4_1 <= 0.5\ngini = 0.444\nsamples = 6\nvalue = [2, 4]"] ;
109 -> 111 ;
112 [label="gini = 0.0\nsamples = 2\nvalue = [2, 0]"] ;
111 -> 112 ;
113 [label="gini = 0.0\nsamples = 4\nvalue = [0, 4]"] ;
111 -> 113 ;
114 [label="a4_1 <= 0.5\ngini = 0.463\nsamples = 33\nvalue = [12, 21]"] ;
108 -> 114 ;
115 [label="a5_1 <= 0.5\ngini = 0.5\nsamples = 20\nvalue = [10, 10]"] ;
114 -> 115 ;
116 [label="gini = 0.0\nsamples = 10\nvalue = [10, 0]"] ;
115 -> 116 ;
117 [label="gini = 0.0\nsamples = 10\nvalue = [0, 10]"] ;
115 -> 117 ;
118 [label="a5_1 <= 0.5\ngini = 0.26\nsamples = 13\nvalue = [2, 11]"] ;
114 -> 118 ;
119 [label="gini = 0.0\nsamples = 11\nvalue = [0, 11]"] ;
118 -> 119 ;
120 [label="gini = 0.0\nsamples = 2\nvalue = [2, 0]"] ;
118 -> 120 ;
121 [label="a5_1 <= 0.5\ngini = 0.313\nsamples = 72\nvalue = [14, 58]"] ;
107 -> 121 ;
122 [label="a6_1 <= 0.5\ngini = 0.259\nsamples = 59\nvalue = [9, 50]"] ;
121 -> 122 ;
123 [label="a4_1 <= 0.5\ngini = 0.444\nsamples = 24\nvalue = [8, 16]"] ;
122 -> 123 ;
124 [label="gini = 0.0\nsamples = 8\nvalue = [8, 0]"] ;
123 -> 124 ;
125 [label="gini = 0.0\nsamples = 16\nvalue = [0, 16]"] ;
123 -> 125 ;
126 [label="a4_1 <= 0.5\ngini = 0.056\nsamples = 35\nvalue = [1, 34]"] ;
122 -> 126 ;
127 [label="gini = 0.0\nsamples = 34\nvalue = [0, 34]"] ;
126 -> 127 ;
128 [label="gini = 0.0\nsamples = 1\nvalue = [1, 0]"] ;
126 -> 128 ;
129 [label="a6_2 <= 0.5\ngini = 0.473\nsamples = 13\nvalue = [5, 8]"] ;
121 -> 129 ;
130 [label="gini = 0.0\nsamples = 4\nvalue = [4, 0]"] ;
129 -> 130 ;
131 [label="a4_1 <= 0.5\ngini = 0.198\nsamples = 9\nvalue = [1, 8]"] ;
129 -> 131 ;
132 [label="gini = 0.0\nsamples = 8\nvalue = [0, 8]"] ;
131 -> 132 ;
133 [label="gini = 0.0\nsamples = 1\nvalue = [1, 0]"] ;
131 -> 133 ;
134 [label="a6_2 <= 0.5\ngini = 0.487\nsamples = 239\nvalue = [139, 100]"] ;
0 -> 134 [labeldistance=2.5, labelangle=-45, headlabel="False"] ;
135 [label="a3_2 <= 0.5\ngini = 0.366\nsamples = 108\nvalue = [82, 26]"] ;
134 -> 135 ;
136 [label="gini = 0.0\nsamples = 49\nvalue = [49, 0]"] ;
135 -> 136 ;
137 [label="a4_1 <= 0.5\ngini = 0.493\nsamples = 59\nvalue = [33, 26]"] ;
135 -> 137 ;
138 [label="a1_1 <= 0.5\ngini = 0.464\nsamples = 41\nvalue = [15, 26]"] ;
137 -> 138 ;
139 [label="a5_1 <= 0.5\ngini = 0.271\nsamples = 31\nvalue = [5, 26]"] ;
138 -> 139 ;
140 [label="gini = 0.0\nsamples = 26\nvalue = [0, 26]"] ;
139 -> 140 ;
141 [label="gini = 0.0\nsamples = 5\nvalue = [5, 0]"] ;
139 -> 141 ;
142 [label="gini = 0.0\nsamples = 10\nvalue = [10, 0]"] ;
138 -> 142 ;
143 [label="gini = 0.0\nsamples = 18\nvalue = [18, 0]"] ;
137 -> 143 ;
144 [label="a5_1 <= 0.5\ngini = 0.492\nsamples = 131\nvalue = [57, 74]"] ;
134 -> 144 ;
145 [label="a1_3 <= 0.5\ngini = 0.466\nsamples = 100\nvalue = [37, 63]"] ;
144 -> 145 ;
146 [label="a4_1 <= 0.5\ngini = 0.493\nsamples = 59\nvalue = [26, 33]"] ;
145 -> 146 ;
147 [label="a3_2 <= 0.5\ngini = 0.459\nsamples = 42\nvalue = [15, 27]"] ;
146 -> 147 ;
148 [label="a1_1 <= 0.5\ngini = 0.42\nsamples = 20\nvalue = [6, 14]"] ;
147 -> 148 ;
149 [label="gini = 0.0\nsamples = 14\nvalue = [0, 14]"] ;
148 -> 149 ;
150 [label="gini = 0.0\nsamples = 6\nvalue = [6, 0]"] ;
148 -> 150 ;
151 [label="a1_1 <= 0.5\ngini = 0.483\nsamples = 22\nvalue = [9, 13]"] ;
147 -> 151 ;
152 [label="gini = 0.0\nsamples = 9\nvalue = [9, 0]"] ;
151 -> 152 ;
153 [label="gini = 0.0\nsamples = 13\nvalue = [0, 13]"] ;
151 -> 153 ;
154 [label="a3_1 <= 0.5\ngini = 0.457\nsamples = 17\nvalue = [11, 6]"] ;
146 -> 154 ;
155 [label="a1_1 <= 0.5\ngini = 0.444\nsamples = 9\nvalue = [3, 6]"] ;
154 -> 155 ;
156 [label="gini = 0.0\nsamples = 6\nvalue = [0, 6]"] ;
155 -> 156 ;
157 [label="gini = 0.0\nsamples = 3\nvalue = [3, 0]"] ;
155 -> 157 ;
158 [label="gini = 0.0\nsamples = 8\nvalue = [8, 0]"] ;
154 -> 158 ;
159 [label="a4_3 <= 0.5\ngini = 0.393\nsamples = 41\nvalue = [11, 30]"] ;
145 -> 159 ;
160 [label="a5_2 <= 0.5\ngini = 0.312\nsamples = 31\nvalue = [6, 25]"] ;
159 -> 160 ;
161 [label="a4_1 <= 0.5\ngini = 0.287\nsamples = 23\nvalue = [4, 19]"] ;
160 -> 161 ;
162 [label="a3_2 <= 0.5\ngini = 0.32\nsamples = 10\nvalue = [2, 8]"] ;
161 -> 162 ;
163 [label="gini = 0.0\nsamples = 8\nvalue = [0, 8]"] ;
162 -> 163 ;
164 [label="gini = 0.0\nsamples = 2\nvalue = [2, 0]"] ;
162 -> 164 ;
165 [label="a3_1 <= 0.5\ngini = 0.26\nsamples = 13\nvalue = [2, 11]"] ;
161 -> 165 ;
166 [label="gini = 0.0\nsamples = 11\nvalue = [0, 11]"] ;
165 -> 166 ;
167 [label="gini = 0.0\nsamples = 2\nvalue = [2, 0]"] ;
165 -> 167 ;
168 [label="a4_1 <= 0.5\ngini = 0.375\nsamples = 8\nvalue = [2, 6]"] ;
160 -> 168 ;
169 [label="a3_1 <= 0.5\ngini = 0.32\nsamples = 5\nvalue = [1, 4]"] ;
168 -> 169 ;
170 [label="gini = 0.0\nsamples = 1\nvalue = [1, 0]"] ;
169 -> 170 ;
171 [label="gini = 0.0\nsamples = 4\nvalue = [0, 4]"] ;
169 -> 171 ;
172 [label="a3_2 <= 0.5\ngini = 0.444\nsamples = 3\nvalue = [1, 2]"] ;
168 -> 172 ;
173 [label="gini = 0.0\nsamples = 1\nvalue = [1, 0]"] ;
172 -> 173 ;
174 [label="gini = 0.0\nsamples = 2\nvalue = [0, 2]"] ;
172 -> 174 ;
175 [label="a3_1 <= 0.5\ngini = 0.5\nsamples = 10\nvalue = [5, 5]"] ;
159 -> 175 ;
176 [label="gini = 0.0\nsamples = 5\nvalue = [5, 0]"] ;
175 -> 176 ;
177 [label="gini = 0.0\nsamples = 5\nvalue = [0, 5]"] ;
175 -> 177 ;
178 [label="a3_1 <= 0.5\ngini = 0.458\nsamples = 31\nvalue = [20, 11]"] ;
144 -> 178 ;
179 [label="a1_1 <= 0.5\ngini = 0.475\nsamples = 18\nvalue = [7, 11]"] ;
178 -> 179 ;
180 [label="a4_1 <= 0.5\ngini = 0.26\nsamples = 13\nvalue = [2, 11]"] ;
179 -> 180 ;
181 [label="gini = 0.0\nsamples = 11\nvalue = [0, 11]"] ;
180 -> 181 ;
182 [label="gini = 0.0\nsamples = 2\nvalue = [2, 0]"] ;
180 -> 182 ;
183 [label="gini = 0.0\nsamples = 5\nvalue = [5, 0]"] ;
179 -> 183 ;
184 [label="gini = 0.0\nsamples = 13\nvalue = [13, 0]"] ;
178 -> 184 ;
}