digraph Tree {
node [shape=box] ;
0 [label="age_CHILD <= 0.5\ngini = 0.499\nsamples = 23\nvalue = [12, 11]"] ;
1 [label="act_STRETCH <= 0.5\ngini = 0.391\nsamples = 15\nvalue = [4, 11]"] ;
0 -> 1 [labeldistance=2.5, labelangle=45, headlabel="True"] ;
2 [label="gini = 0.0\nsamples = 4\nvalue = [4, 0]"] ;
1 -> 2 ;
3 [label="gini = 0.0\nsamples = 11\nvalue = [0, 11]"] ;
1 -> 3 ;
4 [label="gini = 0.0\nsamples = 8\nvalue = [8, 0]"] ;
0 -> 4 [labeldistance=2.5, labelangle=-45, headlabel="False"] ;
}