digraph Tree {
node [shape=box] ;
0 [label="a5_1 <= 0.5\ngini = 0.5\nsamples = 502\nvalue = [251, 251]"] ;
1 [label="a2_2 <= 0.5\ngini = 0.438\nsamples = 371\nvalue = [251, 120]"] ;
0 -> 1 [labeldistance=2.5, labelangle=45, headlabel="True"] ;
2 [label="a1_2 <= 0.5\ngini = 0.402\nsamples = 258\nvalue = [186, 72]"] ;
1 -> 2 ;
3 [label="a2_1 <= 0.5\ngini = 0.491\nsamples = 166\nvalue = [94, 72]"] ;
2 -> 3 ;
4 [label="a1_3 <= 0.5\ngini = 0.455\nsamples = 80\nvalue = [52, 28]"] ;
3 -> 4 ;
5 [label="gini = 0.0\nsamples = 52\nvalue = [52, 0]"] ;
4 -> 5 ;
6 [label="gini = 0.0\nsamples = 28\nvalue = [0, 28]"] ;
4 -> 6 ;
7 [label="a1_3 <= 0.5\ngini = 0.5\nsamples = 86\nvalue = [42, 44]"] ;
3 -> 7 ;
8 [label="gini = 0.0\nsamples = 44\nvalue = [0, 44]"] ;
7 -> 8 ;
9 [label="gini = 0.0\nsamples = 42\nvalue = [42, 0]"] ;
7 -> 9 ;
10 [label="gini = 0.0\nsamples = 92\nvalue = [92, 0]"] ;
2 -> 10 ;
11 [label="a1_2 <= 0.5\ngini = 0.489\nsamples = 113\nvalue = [65, 48]"] ;
1 -> 11 ;
12 [label="gini = 0.0\nsamples = 65\nvalue = [65, 0]"] ;
11 -> 12 ;
13 [label="gini = 0.0\nsamples = 48\nvalue = [0, 48]"] ;
11 -> 13 ;
14 [label="gini = 0.0\nsamples = 131\nvalue = [0, 131]"] ;
0 -> 14 [labeldistance=2.5, labelangle=-45, headlabel="False"] ;
}