digraph Tree {
node [shape=box] ;
0 [label="Uniformity of Cell Size_1 <= 0.5\ngini = 0.5\nsamples = 824\nvalue = [412, 412]"] ;
1 [label="Bare Nuclei_1 <= 0.5\ngini = 0.261\nsamples = 479\nvalue = [74, 405]"] ;
0 -> 1 [labeldistance=2.5, labelangle=45, headlabel="True"] ;
2 [label="Uniformity of Cell Shape_1 <= 0.5\ngini = 0.108\nsamples = 400\nvalue = [23, 377]"] ;
1 -> 2 ;
3 [label="Uniformity of Cell Shape_2 <= 0.5\ngini = 0.096\nsamples = 397\nvalue = [20, 377]"] ;
2 -> 3 ;
4 [label="Bare Nuclei_2 <= 0.5\ngini = 0.062\nsamples = 377\nvalue = [12, 365]"] ;
3 -> 4 ;
5 [label="Clump Thickness_6 <= 0.5\ngini = 0.049\nsamples = 361\nvalue = [9, 352]"] ;
4 -> 5 ;
6 [label="Uniformity of Cell Shape_4 <= 0.5\ngini = 0.035\nsamples = 336\nvalue = [6, 330]"] ;
5 -> 6 ;
7 [label="Normal Nucleoli_4 <= 0.5\ngini = 0.014\nsamples = 294\nvalue = [2, 292]"] ;
6 -> 7 ;
8 [label="Clump Thickness_3 <= 0.5\ngini = 0.007\nsamples = 277\nvalue = [1, 276]"] ;
7 -> 8 ;
9 [label="gini = 0.0\nsamples = 263\nvalue = [0, 263]"] ;
8 -> 9 ;
10 [label="Bare Nuclei_3 <= 0.5\ngini = 0.133\nsamples = 14\nvalue = [1, 13]"] ;
8 -> 10 ;
11 [label="gini = 0.0\nsamples = 13\nvalue = [0, 13]"] ;
10 -> 11 ;
12 [label="gini = 0.0\nsamples = 1\nvalue = [1, 0]"] ;
10 -> 12 ;
13 [label="Marginal Adhesion_1 <= 0.5\ngini = 0.111\nsamples = 17\nvalue = [1, 16]"] ;
7 -> 13 ;
14 [label="gini = 0.0\nsamples = 16\nvalue = [0, 16]"] ;
13 -> 14 ;
15 [label="gini = 0.0\nsamples = 1\nvalue = [1, 0]"] ;
13 -> 15 ;
16 [label="Bare Nuclei_5 <= 0.5\ngini = 0.172\nsamples = 42\nvalue = [4, 38]"] ;
6 -> 16 ;
17 [label="Single Epithelial Cell Size_7 <= 0.5\ngini = 0.097\nsamples = 39\nvalue = [2, 37]"] ;
16 -> 17 ;
18 [label="Marginal Adhesion_2 <= 0.5\ngini = 0.051\nsamples = 38\nvalue = [1, 37]"] ;
17 -> 18 ;
19 [label="gini = 0.0\nsamples = 37\nvalue = [0, 37]"] ;
18 -> 19 ;
20 [label="gini = 0.0\nsamples = 1\nvalue = [1, 0]"] ;
18 -> 20 ;
21 [label="gini = 0.0\nsamples = 1\nvalue = [1, 0]"] ;
17 -> 21 ;
22 [label="Single Epithelial Cell Size_2 <= 0.5\ngini = 0.444\nsamples = 3\nvalue = [2, 1]"] ;
16 -> 22 ;
23 [label="gini = 0.0\nsamples = 2\nvalue = [2, 0]"] ;
22 -> 23 ;
24 [label="gini = 0.0\nsamples = 1\nvalue = [0, 1]"] ;
22 -> 24 ;
25 [label="Bland Chromatin_3 <= 0.5\ngini = 0.211\nsamples = 25\nvalue = [3, 22]"] ;
5 -> 25 ;
26 [label="Bland Chromatin_4 <= 0.5\ngini = 0.087\nsamples = 22\nvalue = [1, 21]"] ;
25 -> 26 ;
27 [label="gini = 0.0\nsamples = 21\nvalue = [0, 21]"] ;
26 -> 27 ;
28 [label="gini = 0.0\nsamples = 1\nvalue = [1, 0]"] ;
26 -> 28 ;
29 [label="Single Epithelial Cell Size_4 <= 0.5\ngini = 0.444\nsamples = 3\nvalue = [2, 1]"] ;
25 -> 29 ;
30 [label="gini = 0.0\nsamples = 2\nvalue = [2, 0]"] ;
29 -> 30 ;
31 [label="gini = 0.0\nsamples = 1\nvalue = [0, 1]"] ;
29 -> 31 ;
32 [label="Uniformity of Cell Shape_3 <= 0.5\ngini = 0.305\nsamples = 16\nvalue = [3, 13]"] ;
4 -> 32 ;
33 [label="Bland Chromatin_2 <= 0.5\ngini = 0.133\nsamples = 14\nvalue = [1, 13]"] ;
32 -> 33 ;
34 [label="gini = 0.0\nsamples = 13\nvalue = [0, 13]"] ;
33 -> 34 ;
35 [label="gini = 0.0\nsamples = 1\nvalue = [1, 0]"] ;
33 -> 35 ;
36 [label="gini = 0.0\nsamples = 2\nvalue = [2, 0]"] ;
32 -> 36 ;
37 [label="Bland Chromatin_3 <= 0.5\ngini = 0.48\nsamples = 20\nvalue = [8, 12]"] ;
3 -> 37 ;
38 [label="Bland Chromatin_2 <= 0.5\ngini = 0.32\nsamples = 15\nvalue = [3, 12]"] ;
37 -> 38 ;
39 [label="Marginal Adhesion_4 <= 0.5\ngini = 0.142\nsamples = 13\nvalue = [1, 12]"] ;
38 -> 39 ;
40 [label="gini = 0.0\nsamples = 12\nvalue = [0, 12]"] ;
39 -> 40 ;
41 [label="gini = 0.0\nsamples = 1\nvalue = [1, 0]"] ;
39 -> 41 ;
42 [label="gini = 0.0\nsamples = 2\nvalue = [2, 0]"] ;
38 -> 42 ;
43 [label="gini = 0.0\nsamples = 5\nvalue = [5, 0]"] ;
37 -> 43 ;
44 [label="gini = 0.0\nsamples = 3\nvalue = [3, 0]"] ;
2 -> 44 ;
45 [label="Single Epithelial Cell Size_2 <= 0.5\ngini = 0.458\nsamples = 79\nvalue = [51, 28]"] ;
1 -> 45 ;
46 [label="Bland Chromatin_1 <= 0.5\ngini = 0.478\nsamples = 43\nvalue = [17, 26]"] ;
45 -> 46 ;
47 [label="Single Epithelial Cell Size_1 <= 0.5\ngini = 0.401\nsamples = 36\nvalue = [10, 26]"] ;
46 -> 47 ;
48 [label="Uniformity of Cell Size_3 <= 0.5\ngini = 0.305\nsamples = 32\nvalue = [6, 26]"] ;
47 -> 48 ;
49 [label="Uniformity of Cell Shape_5 <= 0.5\ngini = 0.185\nsamples = 29\nvalue = [3, 26]"] ;
48 -> 49 ;
50 [label="Marginal Adhesion_9 <= 0.5\ngini = 0.074\nsamples = 26\nvalue = [1, 25]"] ;
49 -> 50 ;
51 [label="gini = 0.0\nsamples = 25\nvalue = [0, 25]"] ;
50 -> 51 ;
52 [label="gini = 0.0\nsamples = 1\nvalue = [1, 0]"] ;
50 -> 52 ;
53 [label="Single Epithelial Cell Size_10 <= 0.5\ngini = 0.444\nsamples = 3\nvalue = [2, 1]"] ;
49 -> 53 ;
54 [label="gini = 0.0\nsamples = 2\nvalue = [2, 0]"] ;
53 -> 54 ;
55 [label="gini = 0.0\nsamples = 1\nvalue = [0, 1]"] ;
53 -> 55 ;
56 [label="gini = 0.0\nsamples = 3\nvalue = [3, 0]"] ;
48 -> 56 ;
57 [label="gini = 0.0\nsamples = 4\nvalue = [4, 0]"] ;
47 -> 57 ;
58 [label="gini = 0.0\nsamples = 7\nvalue = [7, 0]"] ;
46 -> 58 ;
59 [label="Clump Thickness_8 <= 0.5\ngini = 0.105\nsamples = 36\nvalue = [34, 2]"] ;
45 -> 59 ;
60 [label="gini = 0.0\nsamples = 34\nvalue = [34, 0]"] ;
59 -> 60 ;
61 [label="gini = 0.0\nsamples = 2\nvalue = [0, 2]"] ;
59 -> 61 ;
62 [label="Bland Chromatin_5 <= 0.5\ngini = 0.04\nsamples = 345\nvalue = [338, 7]"] ;
0 -> 62 [labeldistance=2.5, labelangle=-45, headlabel="False"] ;
63 [label="Bare Nuclei_5 <= 0.5\ngini = 0.012\nsamples = 338\nvalue = [336, 2]"] ;
62 -> 63 ;
64 [label="gini = 0.0\nsamples = 331\nvalue = [331, 0]"] ;
63 -> 64 ;
65 [label="Clump Thickness_4 <= 0.5\ngini = 0.408\nsamples = 7\nvalue = [5, 2]"] ;
63 -> 65 ;
66 [label="gini = 0.0\nsamples = 5\nvalue = [5, 0]"] ;
65 -> 66 ;
67 [label="gini = 0.0\nsamples = 2\nvalue = [0, 2]"] ;
65 -> 67 ;
68 [label="Clump Thickness_3 <= 0.5\ngini = 0.408\nsamples = 7\nvalue = [2, 5]"] ;
62 -> 68 ;
69 [label="gini = 0.0\nsamples = 5\nvalue = [0, 5]"] ;
68 -> 69 ;
70 [label="gini = 0.0\nsamples = 2\nvalue = [2, 0]"] ;
68 -> 70 ;
}