digraph Tree {
node [shape=box] ;
0 [label="a1_2 <= 0.5\ngini = 0.5\nsamples = 712\nvalue = [356, 356]"] ;
1 [label="a5_1 <= 0.5\ngini = 0.497\nsamples = 479\nvalue = [258, 221]"] ;
0 -> 1 [labeldistance=2.5, labelangle=45, headlabel="True"] ;
2 [label="a6_1 <= 0.5\ngini = 0.5\nsamples = 370\nvalue = [184, 186]"] ;
1 -> 2 ;
3 [label="a1_1 <= 0.5\ngini = 0.494\nsamples = 185\nvalue = [82, 103]"] ;
2 -> 3 ;
4 [label="a2_1 <= 0.5\ngini = 0.498\nsamples = 96\nvalue = [51, 45]"] ;
3 -> 4 ;
5 [label="a4_1 <= 0.5\ngini = 0.384\nsamples = 54\nvalue = [40, 14]"] ;
4 -> 5 ;
6 [label="gini = 0.0\nsamples = 32\nvalue = [32, 0]"] ;
5 -> 6 ;
7 [label="a3_1 <= 0.5\ngini = 0.463\nsamples = 22\nvalue = [8, 14]"] ;
5 -> 7 ;
8 [label="gini = 0.0\nsamples = 8\nvalue = [8, 0]"] ;
7 -> 8 ;
9 [label="gini = 0.0\nsamples = 14\nvalue = [0, 14]"] ;
7 -> 9 ;
10 [label="a4_3 <= 0.5\ngini = 0.387\nsamples = 42\nvalue = [11, 31]"] ;
4 -> 10 ;
11 [label="a5_2 <= 0.5\ngini = 0.305\nsamples = 32\nvalue = [6, 26]"] ;
10 -> 11 ;
12 [label="a3_2 <= 0.5\ngini = 0.278\nsamples = 24\nvalue = [4, 20]"] ;
11 -> 12 ;
13 [label="a4_1 <= 0.5\ngini = 0.298\nsamples = 11\nvalue = [2, 9]"] ;
12 -> 13 ;
14 [label="gini = 0.0\nsamples = 9\nvalue = [0, 9]"] ;
13 -> 14 ;
15 [label="gini = 0.0\nsamples = 2\nvalue = [2, 0]"] ;
13 -> 15 ;
16 [label="a4_1 <= 0.5\ngini = 0.26\nsamples = 13\nvalue = [2, 11]"] ;
12 -> 16 ;
17 [label="gini = 0.0\nsamples = 2\nvalue = [2, 0]"] ;
16 -> 17 ;
18 [label="gini = 0.0\nsamples = 11\nvalue = [0, 11]"] ;
16 -> 18 ;
19 [label="a4_2 <= 0.5\ngini = 0.375\nsamples = 8\nvalue = [2, 6]"] ;
11 -> 19 ;
20 [label="a3_2 <= 0.5\ngini = 0.444\nsamples = 3\nvalue = [1, 2]"] ;
19 -> 20 ;
21 [label="gini = 0.0\nsamples = 1\nvalue = [1, 0]"] ;
20 -> 21 ;
22 [label="gini = 0.0\nsamples = 2\nvalue = [0, 2]"] ;
20 -> 22 ;
23 [label="a3_2 <= 0.5\ngini = 0.32\nsamples = 5\nvalue = [1, 4]"] ;
19 -> 23 ;
24 [label="gini = 0.0\nsamples = 4\nvalue = [0, 4]"] ;
23 -> 24 ;
25 [label="gini = 0.0\nsamples = 1\nvalue = [1, 0]"] ;
23 -> 25 ;
26 [label="a3_1 <= 0.5\ngini = 0.5\nsamples = 10\nvalue = [5, 5]"] ;
10 -> 26 ;
27 [label="gini = 0.0\nsamples = 5\nvalue = [5, 0]"] ;
26 -> 27 ;
28 [label="gini = 0.0\nsamples = 5\nvalue = [0, 5]"] ;
26 -> 28 ;
29 [label="a4_1 <= 0.5\ngini = 0.454\nsamples = 89\nvalue = [31, 58]"] ;
3 -> 29 ;
30 [label="a3_1 <= 0.5\ngini = 0.391\nsamples = 60\nvalue = [16, 44]"] ;
29 -> 30 ;
31 [label="a2_1 <= 0.5\ngini = 0.486\nsamples = 24\nvalue = [10, 14]"] ;
30 -> 31 ;
32 [label="gini = 0.0\nsamples = 10\nvalue = [10, 0]"] ;
31 -> 32 ;
33 [label="gini = 0.0\nsamples = 14\nvalue = [0, 14]"] ;
31 -> 33 ;
34 [label="a2_1 <= 0.5\ngini = 0.278\nsamples = 36\nvalue = [6, 30]"] ;
30 -> 34 ;
35 [label="gini = 0.0\nsamples = 30\nvalue = [0, 30]"] ;
34 -> 35 ;
36 [label="gini = 0.0\nsamples = 6\nvalue = [6, 0]"] ;
34 -> 36 ;
37 [label="a3_1 <= 0.5\ngini = 0.499\nsamples = 29\nvalue = [15, 14]"] ;
29 -> 37 ;
38 [label="a2_1 <= 0.5\ngini = 0.291\nsamples = 17\nvalue = [3, 14]"] ;
37 -> 38 ;
39 [label="gini = 0.0\nsamples = 14\nvalue = [0, 14]"] ;
38 -> 39 ;
40 [label="gini = 0.0\nsamples = 3\nvalue = [3, 0]"] ;
38 -> 40 ;
41 [label="gini = 0.0\nsamples = 12\nvalue = [12, 0]"] ;
37 -> 41 ;
42 [label="a3_1 <= 0.5\ngini = 0.495\nsamples = 185\nvalue = [102, 83]"] ;
2 -> 42 ;
43 [label="a2_2 <= 0.5\ngini = 0.484\nsamples = 100\nvalue = [41, 59]"] ;
42 -> 43 ;
44 [label="a4_1 <= 0.5\ngini = 0.5\nsamples = 59\nvalue = [29, 30]"] ;
43 -> 44 ;
45 [label="a4_3 <= 0.5\ngini = 0.478\nsamples = 43\nvalue = [17, 26]"] ;
44 -> 45 ;
46 [label="a5_3 <= 0.5\ngini = 0.491\nsamples = 23\nvalue = [10, 13]"] ;
45 -> 46 ;
47 [label="a2_1 <= 0.5\ngini = 0.48\nsamples = 15\nvalue = [6, 9]"] ;
46 -> 47 ;
48 [label="a1_1 <= 0.5\ngini = 0.49\nsamples = 7\nvalue = [3, 4]"] ;
47 -> 48 ;
49 [label="gini = 0.0\nsamples = 3\nvalue = [3, 0]"] ;
48 -> 49 ;
50 [label="gini = 0.0\nsamples = 4\nvalue = [0, 4]"] ;
48 -> 50 ;
51 [label="a1_3 <= 0.5\ngini = 0.469\nsamples = 8\nvalue = [3, 5]"] ;
47 -> 51 ;
52 [label="gini = 0.0\nsamples = 3\nvalue = [3, 0]"] ;
51 -> 52 ;
53 [label="gini = 0.0\nsamples = 5\nvalue = [0, 5]"] ;
51 -> 53 ;
54 [label="a1_3 <= 0.5\ngini = 0.5\nsamples = 8\nvalue = [4, 4]"] ;
46 -> 54 ;
55 [label="a2_3 <= 0.5\ngini = 0.48\nsamples = 5\nvalue = [2, 3]"] ;
54 -> 55 ;
56 [label="gini = 0.0\nsamples = 2\nvalue = [2, 0]"] ;
55 -> 56 ;
57 [label="gini = 0.0\nsamples = 3\nvalue = [0, 3]"] ;
55 -> 57 ;
58 [label="a2_3 <= 0.5\ngini = 0.444\nsamples = 3\nvalue = [2, 1]"] ;
54 -> 58 ;
59 [label="gini = 0.0\nsamples = 1\nvalue = [0, 1]"] ;
58 -> 59 ;
60 [label="gini = 0.0\nsamples = 2\nvalue = [2, 0]"] ;
58 -> 60 ;
61 [label="a2_1 <= 0.5\ngini = 0.455\nsamples = 20\nvalue = [7, 13]"] ;
45 -> 61 ;
62 [label="a1_1 <= 0.5\ngini = 0.494\nsamples = 9\nvalue = [4, 5]"] ;
61 -> 62 ;
63 [label="gini = 0.0\nsamples = 4\nvalue = [4, 0]"] ;
62 -> 63 ;
64 [label="gini = 0.0\nsamples = 5\nvalue = [0, 5]"] ;
62 -> 64 ;
65 [label="a1_3 <= 0.5\ngini = 0.397\nsamples = 11\nvalue = [3, 8]"] ;
61 -> 65 ;
66 [label="gini = 0.0\nsamples = 3\nvalue = [3, 0]"] ;
65 -> 66 ;
67 [label="gini = 0.0\nsamples = 8\nvalue = [0, 8]"] ;
65 -> 67 ;
68 [label="a2_3 <= 0.5\ngini = 0.375\nsamples = 16\nvalue = [12, 4]"] ;
44 -> 68 ;
69 [label="gini = 0.0\nsamples = 8\nvalue = [8, 0]"] ;
68 -> 69 ;
70 [label="a1_1 <= 0.5\ngini = 0.5\nsamples = 8\nvalue = [4, 4]"] ;
68 -> 70 ;
71 [label="gini = 0.0\nsamples = 4\nvalue = [0, 4]"] ;
70 -> 71 ;
72 [label="gini = 0.0\nsamples = 4\nvalue = [4, 0]"] ;
70 -> 72 ;
73 [label="a1_3 <= 0.5\ngini = 0.414\nsamples = 41\nvalue = [12, 29]"] ;
43 -> 73 ;
74 [label="a4_1 <= 0.5\ngini = 0.33\nsamples = 24\nvalue = [5, 19]"] ;
73 -> 74 ;
75 [label="gini = 0.0\nsamples = 19\nvalue = [0, 19]"] ;
74 -> 75 ;
76 [label="gini = 0.0\nsamples = 5\nvalue = [5, 0]"] ;
74 -> 76 ;
77 [label="a4_1 <= 0.5\ngini = 0.484\nsamples = 17\nvalue = [7, 10]"] ;
73 -> 77 ;
78 [label="gini = 0.0\nsamples = 7\nvalue = [7, 0]"] ;
77 -> 78 ;
79 [label="gini = 0.0\nsamples = 10\nvalue = [0, 10]"] ;
77 -> 79 ;
80 [label="a1_3 <= 0.5\ngini = 0.405\nsamples = 85\nvalue = [61, 24]"] ;
42 -> 80 ;
81 [label="gini = 0.0\nsamples = 41\nvalue = [41, 0]"] ;
80 -> 81 ;
82 [label="a4_1 <= 0.5\ngini = 0.496\nsamples = 44\nvalue = [20, 24]"] ;
80 -> 82 ;
83 [label="a2_1 <= 0.5\ngini = 0.35\nsamples = 31\nvalue = [7, 24]"] ;
82 -> 83 ;
84 [label="gini = 0.0\nsamples = 24\nvalue = [0, 24]"] ;
83 -> 84 ;
85 [label="gini = 0.0\nsamples = 7\nvalue = [7, 0]"] ;
83 -> 85 ;
86 [label="gini = 0.0\nsamples = 13\nvalue = [13, 0]"] ;
82 -> 86 ;
87 [label="a3_1 <= 0.5\ngini = 0.436\nsamples = 109\nvalue = [74, 35]"] ;
1 -> 87 ;
88 [label="a4_1 <= 0.5\ngini = 0.5\nsamples = 57\nvalue = [29, 28]"] ;
87 -> 88 ;
89 [label="a2_1 <= 0.5\ngini = 0.455\nsamples = 40\nvalue = [14, 26]"] ;
88 -> 89 ;
90 [label="a2_2 <= 0.5\ngini = 0.375\nsamples = 28\nvalue = [7, 21]"] ;
89 -> 90 ;
91 [label="a1_1 <= 0.5\ngini = 0.278\nsamples = 12\nvalue = [2, 10]"] ;
90 -> 91 ;
92 [label="a6_1 <= 0.5\ngini = 0.408\nsamples = 7\nvalue = [2, 5]"] ;
91 -> 92 ;
93 [label="gini = 0.0\nsamples = 2\nvalue = [2, 0]"] ;
92 -> 93 ;
94 [label="gini = 0.0\nsamples = 5\nvalue = [0, 5]"] ;
92 -> 94 ;
95 [label="gini = 0.0\nsamples = 5\nvalue = [0, 5]"] ;
91 -> 95 ;
96 [label="a1_3 <= 0.5\ngini = 0.43\nsamples = 16\nvalue = [5, 11]"] ;
90 -> 96 ;
97 [label="a6_1 <= 0.5\ngini = 0.469\nsamples = 8\nvalue = [3, 5]"] ;
96 -> 97 ;
98 [label="gini = 0.0\nsamples = 5\nvalue = [0, 5]"] ;
97 -> 98 ;
99 [label="gini = 0.0\nsamples = 3\nvalue = [3, 0]"] ;
97 -> 99 ;
100 [label="a6_2 <= 0.5\ngini = 0.375\nsamples = 8\nvalue = [2, 6]"] ;
96 -> 100 ;
101 [label="gini = 0.0\nsamples = 6\nvalue = [0, 6]"] ;
100 -> 101 ;
102 [label="gini = 0.0\nsamples = 2\nvalue = [2, 0]"] ;
100 -> 102 ;
103 [label="a1_1 <= 0.5\ngini = 0.486\nsamples = 12\nvalue = [7, 5]"] ;
89 -> 103 ;
104 [label="a6_1 <= 0.5\ngini = 0.408\nsamples = 7\nvalue = [2, 5]"] ;
103 -> 104 ;
105 [label="gini = 0.0\nsamples = 5\nvalue = [0, 5]"] ;
104 -> 105 ;
106 [label="gini = 0.0\nsamples = 2\nvalue = [2, 0]"] ;
104 -> 106 ;
107 [label="gini = 0.0\nsamples = 5\nvalue = [5, 0]"] ;
103 -> 107 ;
108 [label="a2_2 <= 0.5\ngini = 0.208\nsamples = 17\nvalue = [15, 2]"] ;
88 -> 108 ;
109 [label="gini = 0.0\nsamples = 11\nvalue = [11, 0]"] ;
108 -> 109 ;
110 [label="a6_2 <= 0.5\ngini = 0.444\nsamples = 6\nvalue = [4, 2]"] ;
108 -> 110 ;
111 [label="gini = 0.0\nsamples = 3\nvalue = [3, 0]"] ;
110 -> 111 ;
112 [label="a1_1 <= 0.5\ngini = 0.444\nsamples = 3\nvalue = [1, 2]"] ;
110 -> 112 ;
113 [label="gini = 0.0\nsamples = 2\nvalue = [0, 2]"] ;
112 -> 113 ;
114 [label="gini = 0.0\nsamples = 1\nvalue = [1, 0]"] ;
112 -> 114 ;
115 [label="a1_1 <= 0.5\ngini = 0.233\nsamples = 52\nvalue = [45, 7]"] ;
87 -> 115 ;
116 [label="a6_2 <= 0.5\ngini = 0.384\nsamples = 27\nvalue = [20, 7]"] ;
115 -> 116 ;
117 [label="gini = 0.0\nsamples = 12\nvalue = [12, 0]"] ;
116 -> 117 ;
118 [label="a2_1 <= 0.5\ngini = 0.498\nsamples = 15\nvalue = [8, 7]"] ;
116 -> 118 ;
119 [label="a4_1 <= 0.5\ngini = 0.42\nsamples = 10\nvalue = [3, 7]"] ;
118 -> 119 ;
120 [label="gini = 0.0\nsamples = 7\nvalue = [0, 7]"] ;
119 -> 120 ;
121 [label="gini = 0.0\nsamples = 3\nvalue = [3, 0]"] ;
119 -> 121 ;
122 [label="gini = 0.0\nsamples = 5\nvalue = [5, 0]"] ;
118 -> 122 ;
123 [label="gini = 0.0\nsamples = 25\nvalue = [25, 0]"] ;
115 -> 123 ;
124 [label="a2_1 <= 0.5\ngini = 0.487\nsamples = 233\nvalue = [98, 135]"] ;
0 -> 124 [labeldistance=2.5, labelangle=-45, headlabel="False"] ;
125 [label="a3_1 <= 0.5\ngini = 0.498\nsamples = 180\nvalue = [85, 95]"] ;
124 -> 125 ;
126 [label="a6_2 <= 0.5\ngini = 0.47\nsamples = 82\nvalue = [51, 31]"] ;
125 -> 126 ;
127 [label="a4_1 <= 0.5\ngini = 0.488\nsamples = 45\nvalue = [19, 26]"] ;
126 -> 127 ;
128 [label="a5_1 <= 0.5\ngini = 0.49\nsamples = 28\nvalue = [16, 12]"] ;
127 -> 128 ;
129 [label="gini = 0.0\nsamples = 16\nvalue = [16, 0]"] ;
128 -> 129 ;
130 [label="gini = 0.0\nsamples = 12\nvalue = [0, 12]"] ;
128 -> 130 ;
131 [label="a5_1 <= 0.5\ngini = 0.291\nsamples = 17\nvalue = [3, 14]"] ;
127 -> 131 ;
132 [label="gini = 0.0\nsamples = 14\nvalue = [0, 14]"] ;
131 -> 132 ;
133 [label="gini = 0.0\nsamples = 3\nvalue = [3, 0]"] ;
131 -> 133 ;
134 [label="a5_1 <= 0.5\ngini = 0.234\nsamples = 37\nvalue = [32, 5]"] ;
126 -> 134 ;
135 [label="gini = 0.0\nsamples = 28\nvalue = [28, 0]"] ;
134 -> 135 ;
136 [label="a4_1 <= 0.5\ngini = 0.494\nsamples = 9\nvalue = [4, 5]"] ;
134 -> 136 ;
137 [label="gini = 0.0\nsamples = 4\nvalue = [4, 0]"] ;
136 -> 137 ;
138 [label="gini = 0.0\nsamples = 5\nvalue = [0, 5]"] ;
136 -> 138 ;
139 [label="a5_1 <= 0.5\ngini = 0.453\nsamples = 98\nvalue = [34, 64]"] ;
125 -> 139 ;
140 [label="a6_1 <= 0.5\ngini = 0.415\nsamples = 75\nvalue = [22, 53]"] ;
139 -> 140 ;
141 [label="a4_1 <= 0.5\ngini = 0.499\nsamples = 31\nvalue = [15, 16]"] ;
140 -> 141 ;
142 [label="gini = 0.0\nsamples = 15\nvalue = [15, 0]"] ;
141 -> 142 ;
143 [label="gini = 0.0\nsamples = 16\nvalue = [0, 16]"] ;
141 -> 143 ;
144 [label="a4_1 <= 0.5\ngini = 0.268\nsamples = 44\nvalue = [7, 37]"] ;
140 -> 144 ;
145 [label="gini = 0.0\nsamples = 37\nvalue = [0, 37]"] ;
144 -> 145 ;
146 [label="gini = 0.0\nsamples = 7\nvalue = [7, 0]"] ;
144 -> 146 ;
147 [label="a6_2 <= 0.5\ngini = 0.499\nsamples = 23\nvalue = [12, 11]"] ;
139 -> 147 ;
148 [label="gini = 0.0\nsamples = 9\nvalue = [9, 0]"] ;
147 -> 148 ;
149 [label="a4_1 <= 0.5\ngini = 0.337\nsamples = 14\nvalue = [3, 11]"] ;
147 -> 149 ;
150 [label="gini = 0.0\nsamples = 11\nvalue = [0, 11]"] ;
149 -> 150 ;
151 [label="gini = 0.0\nsamples = 3\nvalue = [3, 0]"] ;
149 -> 151 ;
152 [label="a4_2 <= 0.5\ngini = 0.37\nsamples = 53\nvalue = [13, 40]"] ;
124 -> 152 ;
153 [label="a6_1 <= 0.5\ngini = 0.463\nsamples = 33\nvalue = [12, 21]"] ;
152 -> 153 ;
154 [label="a4_3 <= 0.5\ngini = 0.397\nsamples = 22\nvalue = [6, 16]"] ;
153 -> 154 ;
155 [label="a3_2 <= 0.5\ngini = 0.245\nsamples = 7\nvalue = [1, 6]"] ;
154 -> 155 ;
156 [label="gini = 0.0\nsamples = 1\nvalue = [1, 0]"] ;
155 -> 156 ;
157 [label="gini = 0.0\nsamples = 6\nvalue = [0, 6]"] ;
155 -> 157 ;
158 [label="a3_1 <= 0.5\ngini = 0.444\nsamples = 15\nvalue = [5, 10]"] ;
154 -> 158 ;
159 [label="a5_1 <= 0.5\ngini = 0.5\nsamples = 8\nvalue = [4, 4]"] ;
158 -> 159 ;
160 [label="gini = 0.0\nsamples = 4\nvalue = [4, 0]"] ;
159 -> 160 ;
161 [label="gini = 0.0\nsamples = 4\nvalue = [0, 4]"] ;
159 -> 161 ;
162 [label="a5_1 <= 0.5\ngini = 0.245\nsamples = 7\nvalue = [1, 6]"] ;
158 -> 162 ;
163 [label="gini = 0.0\nsamples = 6\nvalue = [0, 6]"] ;
162 -> 163 ;
164 [label="gini = 0.0\nsamples = 1\nvalue = [1, 0]"] ;
162 -> 164 ;
165 [label="a4_1 <= 0.5\ngini = 0.496\nsamples = 11\nvalue = [6, 5]"] ;
153 -> 165 ;
166 [label="a5_1 <= 0.5\ngini = 0.408\nsamples = 7\nvalue = [2, 5]"] ;
165 -> 166 ;
167 [label="a3_2 <= 0.5\ngini = 0.278\nsamples = 6\nvalue = [1, 5]"] ;
166 -> 167 ;
168 [label="gini = 0.0\nsamples = 1\nvalue = [1, 0]"] ;
167 -> 168 ;
169 [label="gini = 0.0\nsamples = 5\nvalue = [0, 5]"] ;
167 -> 169 ;
170 [label="gini = 0.0\nsamples = 1\nvalue = [1, 0]"] ;
166 -> 170 ;
171 [label="gini = 0.0\nsamples = 4\nvalue = [4, 0]"] ;
165 -> 171 ;
172 [label="a5_4 <= 0.5\ngini = 0.095\nsamples = 20\nvalue = [1, 19]"] ;
152 -> 172 ;
173 [label="gini = 0.0\nsamples = 17\nvalue = [0, 17]"] ;
172 -> 173 ;
174 [label="a3_1 <= 0.5\ngini = 0.444\nsamples = 3\nvalue = [1, 2]"] ;
172 -> 174 ;
175 [label="a6_2 <= 0.5\ngini = 0.5\nsamples = 2\nvalue = [1, 1]"] ;
174 -> 175 ;
176 [label="gini = 0.0\nsamples = 1\nvalue = [0, 1]"] ;
175 -> 176 ;
177 [label="gini = 0.0\nsamples = 1\nvalue = [1, 0]"] ;
175 -> 177 ;
178 [label="gini = 0.0\nsamples = 1\nvalue = [0, 1]"] ;
174 -> 178 ;
}