digraph Tree {
node [shape=box] ;
0 [label="middle-middle-square_o <= 0.5\ngini = 0.5\nsamples = 1128\nvalue = [564, 564]"] ;
1 [label="top-left-square_o <= 0.5\ngini = 0.458\nsamples = 660\nvalue = [234, 426]"] ;
0 -> 1 [labeldistance=2.5, labelangle=45, headlabel="True"] ;
2 [label="bottom-right-square_o <= 0.5\ngini = 0.371\nsamples = 427\nvalue = [105, 322]"] ;
1 -> 2 ;
3 [label="gini = 0.0\nsamples = 216\nvalue = [0, 216]"] ;
2 -> 3 ;
4 [label="top-right-square_o <= 0.5\ngini = 0.5\nsamples = 211\nvalue = [105, 106]"] ;
2 -> 4 ;
5 [label="bottom-left-square_o <= 0.5\ngini = 0.465\nsamples = 125\nvalue = [46, 79]"] ;
4 -> 5 ;
6 [label="gini = 0.0\nsamples = 60\nvalue = [0, 60]"] ;
5 -> 6 ;
7 [label="bottom-middle-square_o <= 0.5\ngini = 0.414\nsamples = 65\nvalue = [46, 19]"] ;
5 -> 7 ;
8 [label="top-middle-square_o <= 0.5\ngini = 0.236\nsamples = 22\nvalue = [3, 19]"] ;
7 -> 8 ;
9 [label="gini = 0.0\nsamples = 16\nvalue = [0, 16]"] ;
8 -> 9 ;
10 [label="middle-left-square_o <= 0.5\ngini = 0.5\nsamples = 6\nvalue = [3, 3]"] ;
8 -> 10 ;
11 [label="middle-right-square_x <= 0.5\ngini = 0.375\nsamples = 4\nvalue = [1, 3]"] ;
10 -> 11 ;
12 [label="gini = 0.0\nsamples = 1\nvalue = [1, 0]"] ;
11 -> 12 ;
13 [label="gini = 0.0\nsamples = 3\nvalue = [0, 3]"] ;
11 -> 13 ;
14 [label="gini = 0.0\nsamples = 2\nvalue = [2, 0]"] ;
10 -> 14 ;
15 [label="gini = 0.0\nsamples = 43\nvalue = [43, 0]"] ;
7 -> 15 ;
16 [label="middle-right-square_o <= 0.5\ngini = 0.431\nsamples = 86\nvalue = [59, 27]"] ;
4 -> 16 ;
17 [label="bottom-middle-square_o <= 0.5\ngini = 0.353\nsamples = 35\nvalue = [8, 27]"] ;
16 -> 17 ;
18 [label="middle-left-square_o <= 0.5\ngini = 0.091\nsamples = 21\nvalue = [1, 20]"] ;
17 -> 18 ;
19 [label="gini = 0.0\nsamples = 16\nvalue = [0, 16]"] ;
18 -> 19 ;
20 [label="top-middle-square_x <= 0.5\ngini = 0.32\nsamples = 5\nvalue = [1, 4]"] ;
18 -> 20 ;
21 [label="gini = 0.0\nsamples = 1\nvalue = [1, 0]"] ;
20 -> 21 ;
22 [label="gini = 0.0\nsamples = 4\nvalue = [0, 4]"] ;
20 -> 22 ;
23 [label="bottom-left-square_o <= 0.5\ngini = 0.5\nsamples = 14\nvalue = [7, 7]"] ;
17 -> 23 ;
24 [label="middle-left-square_o <= 0.5\ngini = 0.219\nsamples = 8\nvalue = [1, 7]"] ;
23 -> 24 ;
25 [label="gini = 0.0\nsamples = 7\nvalue = [0, 7]"] ;
24 -> 25 ;
26 [label="gini = 0.0\nsamples = 1\nvalue = [1, 0]"] ;
24 -> 26 ;
27 [label="gini = 0.0\nsamples = 6\nvalue = [6, 0]"] ;
23 -> 27 ;
28 [label="gini = 0.0\nsamples = 51\nvalue = [51, 0]"] ;
16 -> 28 ;
29 [label="top-middle-square_o <= 0.5\ngini = 0.494\nsamples = 233\nvalue = [129, 104]"] ;
1 -> 29 ;
30 [label="bottom-left-square_o <= 0.5\ngini = 0.48\nsamples = 155\nvalue = [62, 93]"] ;
29 -> 30 ;
31 [label="middle-left-square_x <= 0.5\ngini = 0.206\nsamples = 77\nvalue = [9, 68]"] ;
30 -> 31 ;
32 [label="middle-right-square_x <= 0.5\ngini = 0.038\nsamples = 52\nvalue = [1, 51]"] ;
31 -> 32 ;
33 [label="gini = 0.0\nsamples = 40\nvalue = [0, 40]"] ;
32 -> 33 ;
34 [label="top-right-square_o <= 0.5\ngini = 0.153\nsamples = 12\nvalue = [1, 11]"] ;
32 -> 34 ;
35 [label="gini = 0.0\nsamples = 7\nvalue = [0, 7]"] ;
34 -> 35 ;
36 [label="bottom-middle-square_o <= 0.5\ngini = 0.32\nsamples = 5\nvalue = [1, 4]"] ;
34 -> 36 ;
37 [label="gini = 0.0\nsamples = 4\nvalue = [0, 4]"] ;
36 -> 37 ;
38 [label="gini = 0.0\nsamples = 1\nvalue = [1, 0]"] ;
36 -> 38 ;
39 [label="middle-right-square_o <= 0.5\ngini = 0.435\nsamples = 25\nvalue = [8, 17]"] ;
31 -> 39 ;
40 [label="gini = 0.0\nsamples = 13\nvalue = [0, 13]"] ;
39 -> 40 ;
41 [label="bottom-left-square_x <= 0.5\ngini = 0.444\nsamples = 12\nvalue = [8, 4]"] ;
39 -> 41 ;
42 [label="gini = 0.0\nsamples = 2\nvalue = [0, 2]"] ;
41 -> 42 ;
43 [label="top-right-square_x <= 0.5\ngini = 0.32\nsamples = 10\nvalue = [8, 2]"] ;
41 -> 43 ;
44 [label="middle-middle-square_b <= 0.5\ngini = 0.198\nsamples = 9\nvalue = [8, 1]"] ;
43 -> 44 ;
45 [label="gini = 0.0\nsamples = 7\nvalue = [7, 0]"] ;
44 -> 45 ;
46 [label="top-middle-square_b <= 0.5\ngini = 0.5\nsamples = 2\nvalue = [1, 1]"] ;
44 -> 46 ;
47 [label="gini = 0.0\nsamples = 1\nvalue = [1, 0]"] ;
46 -> 47 ;
48 [label="gini = 0.0\nsamples = 1\nvalue = [0, 1]"] ;
46 -> 48 ;
49 [label="gini = 0.0\nsamples = 1\nvalue = [0, 1]"] ;
43 -> 49 ;
50 [label="middle-left-square_o <= 0.5\ngini = 0.436\nsamples = 78\nvalue = [53, 25]"] ;
30 -> 50 ;
51 [label="bottom-middle-square_o <= 0.5\ngini = 0.278\nsamples = 30\nvalue = [5, 25]"] ;
50 -> 51 ;
52 [label="gini = 0.0\nsamples = 20\nvalue = [0, 20]"] ;
51 -> 52 ;
53 [label="bottom-right-square_o <= 0.5\ngini = 0.5\nsamples = 10\nvalue = [5, 5]"] ;
51 -> 53 ;
54 [label="middle-right-square_x <= 0.5\ngini = 0.278\nsamples = 6\nvalue = [1, 5]"] ;
53 -> 54 ;
55 [label="gini = 0.0\nsamples = 1\nvalue = [1, 0]"] ;
54 -> 55 ;
56 [label="gini = 0.0\nsamples = 5\nvalue = [0, 5]"] ;
54 -> 56 ;
57 [label="gini = 0.0\nsamples = 4\nvalue = [4, 0]"] ;
53 -> 57 ;
58 [label="gini = 0.0\nsamples = 48\nvalue = [48, 0]"] ;
50 -> 58 ;
59 [label="top-right-square_x <= 0.5\ngini = 0.242\nsamples = 78\nvalue = [67, 11]"] ;
29 -> 59 ;
60 [label="gini = 0.0\nsamples = 60\nvalue = [60, 0]"] ;
59 -> 60 ;
61 [label="bottom-middle-square_x <= 0.5\ngini = 0.475\nsamples = 18\nvalue = [7, 11]"] ;
59 -> 61 ;
62 [label="gini = 0.0\nsamples = 9\nvalue = [0, 9]"] ;
61 -> 62 ;
63 [label="bottom-right-square_o <= 0.5\ngini = 0.346\nsamples = 9\nvalue = [7, 2]"] ;
61 -> 63 ;
64 [label="gini = 0.0\nsamples = 7\nvalue = [7, 0]"] ;
63 -> 64 ;
65 [label="gini = 0.0\nsamples = 2\nvalue = [0, 2]"] ;
63 -> 65 ;
66 [label="top-left-square_o <= 0.5\ngini = 0.416\nsamples = 468\nvalue = [330, 138]"] ;
0 -> 66 [labeldistance=2.5, labelangle=-45, headlabel="False"] ;
67 [label="bottom-left-square_x <= 0.5\ngini = 0.454\nsamples = 330\nvalue = [215, 115]"] ;
66 -> 67 ;
68 [label="top-right-square_x <= 0.5\ngini = 0.385\nsamples = 188\nvalue = [139, 49]"] ;
67 -> 68 ;
69 [label="gini = 0.0\nsamples = 100\nvalue = [100, 0]"] ;
68 -> 69 ;
70 [label="top-middle-square_x <= 0.5\ngini = 0.494\nsamples = 88\nvalue = [39, 49]"] ;
68 -> 70 ;
71 [label="middle-right-square_x <= 0.5\ngini = 0.43\nsamples = 48\nvalue = [33, 15]"] ;
70 -> 71 ;
72 [label="gini = 0.0\nsamples = 23\nvalue = [23, 0]"] ;
71 -> 72 ;
73 [label="bottom-right-square_x <= 0.5\ngini = 0.48\nsamples = 25\nvalue = [10, 15]"] ;
71 -> 73 ;
74 [label="gini = 0.0\nsamples = 10\nvalue = [10, 0]"] ;
73 -> 74 ;
75 [label="gini = 0.0\nsamples = 15\nvalue = [0, 15]"] ;
73 -> 75 ;
76 [label="top-left-square_b <= 0.5\ngini = 0.255\nsamples = 40\nvalue = [6, 34]"] ;
70 -> 76 ;
77 [label="gini = 0.0\nsamples = 31\nvalue = [0, 31]"] ;
76 -> 77 ;
78 [label="middle-right-square_o <= 0.5\ngini = 0.444\nsamples = 9\nvalue = [6, 3]"] ;
76 -> 78 ;
79 [label="middle-left-square_x <= 0.5\ngini = 0.48\nsamples = 5\nvalue = [2, 3]"] ;
78 -> 79 ;
80 [label="gini = 0.0\nsamples = 3\nvalue = [0, 3]"] ;
79 -> 80 ;
81 [label="gini = 0.0\nsamples = 2\nvalue = [2, 0]"] ;
79 -> 81 ;
82 [label="gini = 0.0\nsamples = 4\nvalue = [4, 0]"] ;
78 -> 82 ;
83 [label="middle-left-square_x <= 0.5\ngini = 0.498\nsamples = 142\nvalue = [76, 66]"] ;
67 -> 83 ;
84 [label="middle-right-square_b <= 0.5\ngini = 0.418\nsamples = 84\nvalue = [59, 25]"] ;
83 -> 84 ;
85 [label="middle-left-square_o <= 0.5\ngini = 0.327\nsamples = 68\nvalue = [54, 14]"] ;
84 -> 85 ;
86 [label="bottom-middle-square_o <= 0.5\ngini = 0.488\nsamples = 19\nvalue = [11, 8]"] ;
85 -> 86 ;
87 [label="bottom-right-square_x <= 0.5\ngini = 0.42\nsamples = 10\nvalue = [3, 7]"] ;
86 -> 87 ;
88 [label="top-right-square_x <= 0.5\ngini = 0.375\nsamples = 4\nvalue = [3, 1]"] ;
87 -> 88 ;
89 [label="gini = 0.0\nsamples = 3\nvalue = [3, 0]"] ;
88 -> 89 ;
90 [label="gini = 0.0\nsamples = 1\nvalue = [0, 1]"] ;
88 -> 90 ;
91 [label="gini = 0.0\nsamples = 6\nvalue = [0, 6]"] ;
87 -> 91 ;
92 [label="top-middle-square_x <= 0.5\ngini = 0.198\nsamples = 9\nvalue = [8, 1]"] ;
86 -> 92 ;
93 [label="gini = 0.0\nsamples = 8\nvalue = [8, 0]"] ;
92 -> 93 ;
94 [label="gini = 0.0\nsamples = 1\nvalue = [0, 1]"] ;
92 -> 94 ;
95 [label="middle-right-square_x <= 0.5\ngini = 0.215\nsamples = 49\nvalue = [43, 6]"] ;
85 -> 95 ;
96 [label="gini = 0.0\nsamples = 34\nvalue = [34, 0]"] ;
95 -> 96 ;
97 [label="top-left-square_b <= 0.5\ngini = 0.48\nsamples = 15\nvalue = [9, 6]"] ;
95 -> 97 ;
98 [label="bottom-right-square_x <= 0.5\ngini = 0.298\nsamples = 11\nvalue = [9, 2]"] ;
97 -> 98 ;
99 [label="bottom-middle-square_x <= 0.5\ngini = 0.219\nsamples = 8\nvalue = [7, 1]"] ;
98 -> 99 ;
100 [label="top-middle-square_x <= 0.5\ngini = 0.5\nsamples = 2\nvalue = [1, 1]"] ;
99 -> 100 ;
101 [label="gini = 0.0\nsamples = 1\nvalue = [1, 0]"] ;
100 -> 101 ;
102 [label="gini = 0.0\nsamples = 1\nvalue = [0, 1]"] ;
100 -> 102 ;
103 [label="gini = 0.0\nsamples = 6\nvalue = [6, 0]"] ;
99 -> 103 ;
104 [label="bottom-middle-square_o <= 0.5\ngini = 0.444\nsamples = 3\nvalue = [2, 1]"] ;
98 -> 104 ;
105 [label="gini = 0.0\nsamples = 1\nvalue = [0, 1]"] ;
104 -> 105 ;
106 [label="gini = 0.0\nsamples = 2\nvalue = [2, 0]"] ;
104 -> 106 ;
107 [label="gini = 0.0\nsamples = 4\nvalue = [0, 4]"] ;
97 -> 107 ;
108 [label="bottom-middle-square_o <= 0.5\ngini = 0.43\nsamples = 16\nvalue = [5, 11]"] ;
84 -> 108 ;
109 [label="gini = 0.0\nsamples = 9\nvalue = [0, 9]"] ;
108 -> 109 ;
110 [label="top-middle-square_x <= 0.5\ngini = 0.408\nsamples = 7\nvalue = [5, 2]"] ;
108 -> 110 ;
111 [label="gini = 0.0\nsamples = 5\nvalue = [5, 0]"] ;
110 -> 111 ;
112 [label="gini = 0.0\nsamples = 2\nvalue = [0, 2]"] ;
110 -> 112 ;
113 [label="top-left-square_b <= 0.5\ngini = 0.414\nsamples = 58\nvalue = [17, 41]"] ;
83 -> 113 ;
114 [label="gini = 0.0\nsamples = 38\nvalue = [0, 38]"] ;
113 -> 114 ;
115 [label="bottom-middle-square_o <= 0.5\ngini = 0.255\nsamples = 20\nvalue = [17, 3]"] ;
113 -> 115 ;
116 [label="bottom-right-square_o <= 0.5\ngini = 0.5\nsamples = 6\nvalue = [3, 3]"] ;
115 -> 116 ;
117 [label="gini = 0.0\nsamples = 3\nvalue = [0, 3]"] ;
116 -> 117 ;
118 [label="gini = 0.0\nsamples = 3\nvalue = [3, 0]"] ;
116 -> 118 ;
119 [label="gini = 0.0\nsamples = 14\nvalue = [14, 0]"] ;
115 -> 119 ;
120 [label="bottom-right-square_x <= 0.5\ngini = 0.278\nsamples = 138\nvalue = [115, 23]"] ;
66 -> 120 ;
121 [label="gini = 0.0\nsamples = 90\nvalue = [90, 0]"] ;
120 -> 121 ;
122 [label="middle-left-square_x <= 0.5\ngini = 0.499\nsamples = 48\nvalue = [25, 23]"] ;
120 -> 122 ;
123 [label="top-middle-square_b <= 0.5\ngini = 0.386\nsamples = 23\nvalue = [6, 17]"] ;
122 -> 123 ;
124 [label="bottom-left-square_x <= 0.5\ngini = 0.49\nsamples = 14\nvalue = [6, 8]"] ;
123 -> 124 ;
125 [label="bottom-middle-square_x <= 0.5\ngini = 0.469\nsamples = 8\nvalue = [5, 3]"] ;
124 -> 125 ;
126 [label="gini = 0.0\nsamples = 3\nvalue = [0, 3]"] ;
125 -> 126 ;
127 [label="gini = 0.0\nsamples = 5\nvalue = [5, 0]"] ;
125 -> 127 ;
128 [label="bottom-middle-square_b <= 0.5\ngini = 0.278\nsamples = 6\nvalue = [1, 5]"] ;
124 -> 128 ;
129 [label="gini = 0.0\nsamples = 5\nvalue = [0, 5]"] ;
128 -> 129 ;
130 [label="gini = 0.0\nsamples = 1\nvalue = [1, 0]"] ;
128 -> 130 ;
131 [label="gini = 0.0\nsamples = 9\nvalue = [0, 9]"] ;
123 -> 131 ;
132 [label="top-right-square_o <= 0.5\ngini = 0.365\nsamples = 25\nvalue = [19, 6]"] ;
122 -> 132 ;
133 [label="middle-right-square_x <= 0.5\ngini = 0.48\nsamples = 10\nvalue = [6, 4]"] ;
132 -> 133 ;
134 [label="top-right-square_x <= 0.5\ngini = 0.278\nsamples = 6\nvalue = [5, 1]"] ;
133 -> 134 ;
135 [label="gini = 0.0\nsamples = 1\nvalue = [0, 1]"] ;
134 -> 135 ;
136 [label="gini = 0.0\nsamples = 5\nvalue = [5, 0]"] ;
134 -> 136 ;
137 [label="top-right-square_b <= 0.5\ngini = 0.375\nsamples = 4\nvalue = [1, 3]"] ;
133 -> 137 ;
138 [label="gini = 0.0\nsamples = 3\nvalue = [0, 3]"] ;
137 -> 138 ;
139 [label="gini = 0.0\nsamples = 1\nvalue = [1, 0]"] ;
137 -> 139 ;
140 [label="middle-right-square_x <= 0.5\ngini = 0.231\nsamples = 15\nvalue = [13, 2]"] ;
132 -> 140 ;
141 [label="bottom-left-square_o <= 0.5\ngini = 0.444\nsamples = 3\nvalue = [1, 2]"] ;
140 -> 141 ;
142 [label="gini = 0.0\nsamples = 2\nvalue = [0, 2]"] ;
141 -> 142 ;
143 [label="gini = 0.0\nsamples = 1\nvalue = [1, 0]"] ;
141 -> 143 ;
144 [label="gini = 0.0\nsamples = 12\nvalue = [12, 0]"] ;
140 -> 144 ;
}