digraph Tree {
node [shape=box] ;
0 [label="a5_1 <= 0.5\ngini = 0.5\nsamples = 556\nvalue = [278, 278]"] ;
1 [label="a1_1 <= 0.5\ngini = 0.447\nsamples = 419\nvalue = [278, 141]"] ;
0 -> 1 [labeldistance=2.5, labelangle=45, headlabel="True"] ;
2 [label="a2_1 <= 0.5\ngini = 0.459\nsamples = 272\nvalue = [175, 97]"] ;
1 -> 2 ;
3 [label="a6_2 <= 0.5\ngini = 0.497\nsamples = 180\nvalue = [83, 97]"] ;
2 -> 3 ;
4 [label="a4_1 <= 0.5\ngini = 0.499\nsamples = 85\nvalue = [41, 44]"] ;
3 -> 4 ;
5 [label="a5_3 <= 0.5\ngini = 0.499\nsamples = 56\nvalue = [29, 27]"] ;
4 -> 5 ;
6 [label="a3_2 <= 0.5\ngini = 0.5\nsamples = 38\nvalue = [19, 19]"] ;
5 -> 6 ;
7 [label="a5_4 <= 0.5\ngini = 0.498\nsamples = 17\nvalue = [8, 9]"] ;
6 -> 7 ;
8 [label="a2_2 <= 0.5\ngini = 0.494\nsamples = 9\nvalue = [4, 5]"] ;
7 -> 8 ;
9 [label="a1_2 <= 0.5\ngini = 0.48\nsamples = 5\nvalue = [2, 3]"] ;
8 -> 9 ;
10 [label="gini = 0.0\nsamples = 3\nvalue = [0, 3]"] ;
9 -> 10 ;
11 [label="gini = 0.0\nsamples = 2\nvalue = [2, 0]"] ;
9 -> 11 ;
12 [label="a1_3 <= 0.5\ngini = 0.5\nsamples = 4\nvalue = [2, 2]"] ;
8 -> 12 ;
13 [label="gini = 0.0\nsamples = 2\nvalue = [0, 2]"] ;
12 -> 13 ;
14 [label="gini = 0.0\nsamples = 2\nvalue = [2, 0]"] ;
12 -> 14 ;
15 [label="a4_3 <= 0.5\ngini = 0.5\nsamples = 8\nvalue = [4, 4]"] ;
7 -> 15 ;
16 [label="a2_3 <= 0.5\ngini = 0.5\nsamples = 4\nvalue = [2, 2]"] ;
15 -> 16 ;
17 [label="a1_2 <= 0.5\ngini = 0.5\nsamples = 2\nvalue = [1, 1]"] ;
16 -> 17 ;
18 [label="gini = 0.0\nsamples = 1\nvalue = [1, 0]"] ;
17 -> 18 ;
19 [label="gini = 0.0\nsamples = 1\nvalue = [0, 1]"] ;
17 -> 19 ;
20 [label="a1_2 <= 0.5\ngini = 0.5\nsamples = 2\nvalue = [1, 1]"] ;
16 -> 20 ;
21 [label="gini = 0.0\nsamples = 1\nvalue = [0, 1]"] ;
20 -> 21 ;
22 [label="gini = 0.0\nsamples = 1\nvalue = [1, 0]"] ;
20 -> 22 ;
23 [label="a1_3 <= 0.5\ngini = 0.5\nsamples = 4\nvalue = [2, 2]"] ;
15 -> 23 ;
24 [label="a2_3 <= 0.5\ngini = 0.5\nsamples = 2\nvalue = [1, 1]"] ;
23 -> 24 ;
25 [label="gini = 0.0\nsamples = 1\nvalue = [0, 1]"] ;
24 -> 25 ;
26 [label="gini = 0.0\nsamples = 1\nvalue = [1, 0]"] ;
24 -> 26 ;
27 [label="a2_3 <= 0.5\ngini = 0.5\nsamples = 2\nvalue = [1, 1]"] ;
23 -> 27 ;
28 [label="gini = 0.0\nsamples = 1\nvalue = [1, 0]"] ;
27 -> 28 ;
29 [label="gini = 0.0\nsamples = 1\nvalue = [0, 1]"] ;
27 -> 29 ;
30 [label="a1_3 <= 0.5\ngini = 0.499\nsamples = 21\nvalue = [11, 10]"] ;
6 -> 30 ;
31 [label="a2_3 <= 0.5\ngini = 0.496\nsamples = 11\nvalue = [5, 6]"] ;
30 -> 31 ;
32 [label="gini = 0.0\nsamples = 6\nvalue = [0, 6]"] ;
31 -> 32 ;
33 [label="gini = 0.0\nsamples = 5\nvalue = [5, 0]"] ;
31 -> 33 ;
34 [label="a2_2 <= 0.5\ngini = 0.48\nsamples = 10\nvalue = [6, 4]"] ;
30 -> 34 ;
35 [label="gini = 0.0\nsamples = 4\nvalue = [0, 4]"] ;
34 -> 35 ;
36 [label="gini = 0.0\nsamples = 6\nvalue = [6, 0]"] ;
34 -> 36 ;
37 [label="a3_1 <= 0.5\ngini = 0.494\nsamples = 18\nvalue = [10, 8]"] ;
5 -> 37 ;
38 [label="a1_3 <= 0.5\ngini = 0.5\nsamples = 8\nvalue = [4, 4]"] ;
37 -> 38 ;
39 [label="a2_2 <= 0.5\ngini = 0.5\nsamples = 4\nvalue = [2, 2]"] ;
38 -> 39 ;
40 [label="gini = 0.0\nsamples = 2\nvalue = [2, 0]"] ;
39 -> 40 ;
41 [label="gini = 0.0\nsamples = 2\nvalue = [0, 2]"] ;
39 -> 41 ;
42 [label="a2_3 <= 0.5\ngini = 0.5\nsamples = 4\nvalue = [2, 2]"] ;
38 -> 42 ;
43 [label="gini = 0.0\nsamples = 2\nvalue = [2, 0]"] ;
42 -> 43 ;
44 [label="gini = 0.0\nsamples = 2\nvalue = [0, 2]"] ;
42 -> 44 ;
45 [label="a1_3 <= 0.5\ngini = 0.48\nsamples = 10\nvalue = [6, 4]"] ;
37 -> 45 ;
46 [label="a2_2 <= 0.5\ngini = 0.444\nsamples = 6\nvalue = [4, 2]"] ;
45 -> 46 ;
47 [label="gini = 0.0\nsamples = 4\nvalue = [4, 0]"] ;
46 -> 47 ;
48 [label="gini = 0.0\nsamples = 2\nvalue = [0, 2]"] ;
46 -> 48 ;
49 [label="a2_2 <= 0.5\ngini = 0.5\nsamples = 4\nvalue = [2, 2]"] ;
45 -> 49 ;
50 [label="gini = 0.0\nsamples = 2\nvalue = [0, 2]"] ;
49 -> 50 ;
51 [label="gini = 0.0\nsamples = 2\nvalue = [2, 0]"] ;
49 -> 51 ;
52 [label="a5_3 <= 0.5\ngini = 0.485\nsamples = 29\nvalue = [12, 17]"] ;
4 -> 52 ;
53 [label="a1_3 <= 0.5\ngini = 0.48\nsamples = 20\nvalue = [8, 12]"] ;
52 -> 53 ;
54 [label="a2_2 <= 0.5\ngini = 0.48\nsamples = 10\nvalue = [4, 6]"] ;
53 -> 54 ;
55 [label="gini = 0.0\nsamples = 4\nvalue = [4, 0]"] ;
54 -> 55 ;
56 [label="gini = 0.0\nsamples = 6\nvalue = [0, 6]"] ;
54 -> 56 ;
57 [label="a2_3 <= 0.5\ngini = 0.48\nsamples = 10\nvalue = [4, 6]"] ;
53 -> 57 ;
58 [label="gini = 0.0\nsamples = 4\nvalue = [4, 0]"] ;
57 -> 58 ;
59 [label="gini = 0.0\nsamples = 6\nvalue = [0, 6]"] ;
57 -> 59 ;
60 [label="a2_3 <= 0.5\ngini = 0.494\nsamples = 9\nvalue = [4, 5]"] ;
52 -> 60 ;
61 [label="a1_2 <= 0.5\ngini = 0.48\nsamples = 5\nvalue = [2, 3]"] ;
60 -> 61 ;
62 [label="gini = 0.0\nsamples = 2\nvalue = [2, 0]"] ;
61 -> 62 ;
63 [label="gini = 0.0\nsamples = 3\nvalue = [0, 3]"] ;
61 -> 63 ;
64 [label="a1_2 <= 0.5\ngini = 0.5\nsamples = 4\nvalue = [2, 2]"] ;
60 -> 64 ;
65 [label="gini = 0.0\nsamples = 2\nvalue = [0, 2]"] ;
64 -> 65 ;
66 [label="gini = 0.0\nsamples = 2\nvalue = [2, 0]"] ;
64 -> 66 ;
67 [label="a4_3 <= 0.5\ngini = 0.493\nsamples = 95\nvalue = [42, 53]"] ;
3 -> 67 ;
68 [label="a2_2 <= 0.5\ngini = 0.497\nsamples = 61\nvalue = [28, 33]"] ;
67 -> 68 ;
69 [label="a1_3 <= 0.5\ngini = 0.491\nsamples = 30\nvalue = [13, 17]"] ;
68 -> 69 ;
70 [label="gini = 0.0\nsamples = 13\nvalue = [13, 0]"] ;
69 -> 70 ;
71 [label="gini = 0.0\nsamples = 17\nvalue = [0, 17]"] ;
69 -> 71 ;
72 [label="a1_3 <= 0.5\ngini = 0.499\nsamples = 31\nvalue = [15, 16]"] ;
68 -> 72 ;
73 [label="gini = 0.0\nsamples = 16\nvalue = [0, 16]"] ;
72 -> 73 ;
74 [label="gini = 0.0\nsamples = 15\nvalue = [15, 0]"] ;
72 -> 74 ;
75 [label="a1_3 <= 0.5\ngini = 0.484\nsamples = 34\nvalue = [14, 20]"] ;
67 -> 75 ;
76 [label="a2_3 <= 0.5\ngini = 0.498\nsamples = 17\nvalue = [8, 9]"] ;
75 -> 76 ;
77 [label="gini = 0.0\nsamples = 9\nvalue = [0, 9]"] ;
76 -> 77 ;
78 [label="gini = 0.0\nsamples = 8\nvalue = [8, 0]"] ;
76 -> 78 ;
79 [label="a2_3 <= 0.5\ngini = 0.457\nsamples = 17\nvalue = [6, 11]"] ;
75 -> 79 ;
80 [label="gini = 0.0\nsamples = 6\nvalue = [6, 0]"] ;
79 -> 80 ;
81 [label="gini = 0.0\nsamples = 11\nvalue = [0, 11]"] ;
79 -> 81 ;
82 [label="gini = 0.0\nsamples = 92\nvalue = [92, 0]"] ;
2 -> 82 ;
83 [label="a2_1 <= 0.5\ngini = 0.419\nsamples = 147\nvalue = [103, 44]"] ;
1 -> 83 ;
84 [label="gini = 0.0\nsamples = 103\nvalue = [103, 0]"] ;
83 -> 84 ;
85 [label="gini = 0.0\nsamples = 44\nvalue = [0, 44]"] ;
83 -> 85 ;
86 [label="gini = 0.0\nsamples = 137\nvalue = [0, 137]"] ;
0 -> 86 [labeldistance=2.5, labelangle=-45, headlabel="False"] ;
}