digraph Tree {
node [shape=box] ;
0 [label="a1_3 <= 0.5\ngini = 0.5\nsamples = 712\nvalue = [356, 356]"] ;
1 [label="a2_1 <= 0.5\ngini = 0.496\nsamples = 497\nvalue = [270, 227]"] ;
0 -> 1 [labeldistance=2.5, labelangle=45, headlabel="True"] ;
2 [label="a4_1 <= 0.5\ngini = 0.5\nsamples = 347\nvalue = [171, 176]"] ;
1 -> 2 ;
3 [label="a3_1 <= 0.5\ngini = 0.497\nsamples = 238\nvalue = [110, 128]"] ;
2 -> 3 ;
4 [label="a1_2 <= 0.5\ngini = 0.498\nsamples = 111\nvalue = [59, 52]"] ;
3 -> 4 ;
5 [label="a6_2 <= 0.5\ngini = 0.441\nsamples = 64\nvalue = [21, 43]"] ;
4 -> 5 ;
6 [label="a5_1 <= 0.5\ngini = 0.245\nsamples = 35\nvalue = [5, 30]"] ;
5 -> 6 ;
7 [label="gini = 0.0\nsamples = 30\nvalue = [0, 30]"] ;
6 -> 7 ;
8 [label="gini = 0.0\nsamples = 5\nvalue = [5, 0]"] ;
6 -> 8 ;
9 [label="a5_1 <= 0.5\ngini = 0.495\nsamples = 29\nvalue = [16, 13]"] ;
5 -> 9 ;
10 [label="gini = 0.0\nsamples = 16\nvalue = [16, 0]"] ;
9 -> 10 ;
11 [label="gini = 0.0\nsamples = 13\nvalue = [0, 13]"] ;
9 -> 11 ;
12 [label="a5_1 <= 0.5\ngini = 0.31\nsamples = 47\nvalue = [38, 9]"] ;
4 -> 12 ;
13 [label="gini = 0.0\nsamples = 34\nvalue = [34, 0]"] ;
12 -> 13 ;
14 [label="a6_1 <= 0.5\ngini = 0.426\nsamples = 13\nvalue = [4, 9]"] ;
12 -> 14 ;
15 [label="gini = 0.0\nsamples = 4\nvalue = [4, 0]"] ;
14 -> 15 ;
16 [label="gini = 0.0\nsamples = 9\nvalue = [0, 9]"] ;
14 -> 16 ;
17 [label="a5_1 <= 0.5\ngini = 0.481\nsamples = 127\nvalue = [51, 76]"] ;
3 -> 17 ;
18 [label="a1_1 <= 0.5\ngini = 0.449\nsamples = 100\nvalue = [34, 66]"] ;
17 -> 18 ;
19 [label="a6_2 <= 0.5\ngini = 0.411\nsamples = 52\nvalue = [15, 37]"] ;
18 -> 19 ;
20 [label="gini = 0.0\nsamples = 37\nvalue = [0, 37]"] ;
19 -> 20 ;
21 [label="gini = 0.0\nsamples = 15\nvalue = [15, 0]"] ;
19 -> 21 ;
22 [label="a6_1 <= 0.5\ngini = 0.478\nsamples = 48\nvalue = [19, 29]"] ;
18 -> 22 ;
23 [label="gini = 0.0\nsamples = 29\nvalue = [0, 29]"] ;
22 -> 23 ;
24 [label="gini = 0.0\nsamples = 19\nvalue = [19, 0]"] ;
22 -> 24 ;
25 [label="a6_1 <= 0.5\ngini = 0.466\nsamples = 27\nvalue = [17, 10]"] ;
17 -> 25 ;
26 [label="a1_2 <= 0.5\ngini = 0.469\nsamples = 16\nvalue = [6, 10]"] ;
25 -> 26 ;
27 [label="gini = 0.0\nsamples = 6\nvalue = [6, 0]"] ;
26 -> 27 ;
28 [label="gini = 0.0\nsamples = 10\nvalue = [0, 10]"] ;
26 -> 28 ;
29 [label="gini = 0.0\nsamples = 11\nvalue = [11, 0]"] ;
25 -> 29 ;
30 [label="a1_2 <= 0.5\ngini = 0.493\nsamples = 109\nvalue = [61, 48]"] ;
2 -> 30 ;
31 [label="a3_1 <= 0.5\ngini = 0.38\nsamples = 47\nvalue = [35, 12]"] ;
30 -> 31 ;
32 [label="a6_1 <= 0.5\ngini = 0.497\nsamples = 26\nvalue = [14, 12]"] ;
31 -> 32 ;
33 [label="a5_1 <= 0.5\ngini = 0.245\nsamples = 14\nvalue = [2, 12]"] ;
32 -> 33 ;
34 [label="gini = 0.0\nsamples = 12\nvalue = [0, 12]"] ;
33 -> 34 ;
35 [label="gini = 0.0\nsamples = 2\nvalue = [2, 0]"] ;
33 -> 35 ;
36 [label="gini = 0.0\nsamples = 12\nvalue = [12, 0]"] ;
32 -> 36 ;
37 [label="gini = 0.0\nsamples = 21\nvalue = [21, 0]"] ;
31 -> 37 ;
38 [label="a5_1 <= 0.5\ngini = 0.487\nsamples = 62\nvalue = [26, 36]"] ;
30 -> 38 ;
39 [label="a2_3 <= 0.5\ngini = 0.457\nsamples = 48\nvalue = [17, 31]"] ;
38 -> 39 ;
40 [label="a5_3 <= 0.5\ngini = 0.486\nsamples = 24\nvalue = [10, 14]"] ;
39 -> 40 ;
41 [label="a3_2 <= 0.5\ngini = 0.444\nsamples = 18\nvalue = [6, 12]"] ;
40 -> 41 ;
42 [label="a6_1 <= 0.5\ngini = 0.346\nsamples = 9\nvalue = [2, 7]"] ;
41 -> 42 ;
43 [label="gini = 0.0\nsamples = 7\nvalue = [0, 7]"] ;
42 -> 43 ;
44 [label="gini = 0.0\nsamples = 2\nvalue = [2, 0]"] ;
42 -> 44 ;
45 [label="a6_1 <= 0.5\ngini = 0.494\nsamples = 9\nvalue = [4, 5]"] ;
41 -> 45 ;
46 [label="gini = 0.0\nsamples = 4\nvalue = [4, 0]"] ;
45 -> 46 ;
47 [label="gini = 0.0\nsamples = 5\nvalue = [0, 5]"] ;
45 -> 47 ;
48 [label="a3_1 <= 0.5\ngini = 0.444\nsamples = 6\nvalue = [4, 2]"] ;
40 -> 48 ;
49 [label="a6_2 <= 0.5\ngini = 0.444\nsamples = 3\nvalue = [2, 1]"] ;
48 -> 49 ;
50 [label="gini = 0.0\nsamples = 1\nvalue = [0, 1]"] ;
49 -> 50 ;
51 [label="gini = 0.0\nsamples = 2\nvalue = [2, 0]"] ;
49 -> 51 ;
52 [label="a6_1 <= 0.5\ngini = 0.444\nsamples = 3\nvalue = [2, 1]"] ;
48 -> 52 ;
53 [label="gini = 0.0\nsamples = 1\nvalue = [0, 1]"] ;
52 -> 53 ;
54 [label="gini = 0.0\nsamples = 2\nvalue = [2, 0]"] ;
52 -> 54 ;
55 [label="a5_4 <= 0.5\ngini = 0.413\nsamples = 24\nvalue = [7, 17]"] ;
39 -> 55 ;
56 [label="a5_2 <= 0.5\ngini = 0.36\nsamples = 17\nvalue = [4, 13]"] ;
55 -> 56 ;
57 [label="a6_1 <= 0.5\ngini = 0.32\nsamples = 10\nvalue = [2, 8]"] ;
56 -> 57 ;
58 [label="a3_2 <= 0.5\ngini = 0.32\nsamples = 5\nvalue = [1, 4]"] ;
57 -> 58 ;
59 [label="gini = 0.0\nsamples = 4\nvalue = [0, 4]"] ;
58 -> 59 ;
60 [label="gini = 0.0\nsamples = 1\nvalue = [1, 0]"] ;
58 -> 60 ;
61 [label="a3_1 <= 0.5\ngini = 0.32\nsamples = 5\nvalue = [1, 4]"] ;
57 -> 61 ;
62 [label="gini = 0.0\nsamples = 4\nvalue = [0, 4]"] ;
61 -> 62 ;
63 [label="gini = 0.0\nsamples = 1\nvalue = [1, 0]"] ;
61 -> 63 ;
64 [label="a6_2 <= 0.5\ngini = 0.408\nsamples = 7\nvalue = [2, 5]"] ;
56 -> 64 ;
65 [label="a3_2 <= 0.5\ngini = 0.375\nsamples = 4\nvalue = [1, 3]"] ;
64 -> 65 ;
66 [label="gini = 0.0\nsamples = 1\nvalue = [1, 0]"] ;
65 -> 66 ;
67 [label="gini = 0.0\nsamples = 3\nvalue = [0, 3]"] ;
65 -> 67 ;
68 [label="a3_1 <= 0.5\ngini = 0.444\nsamples = 3\nvalue = [1, 2]"] ;
64 -> 68 ;
69 [label="gini = 0.0\nsamples = 1\nvalue = [1, 0]"] ;
68 -> 69 ;
70 [label="gini = 0.0\nsamples = 2\nvalue = [0, 2]"] ;
68 -> 70 ;
71 [label="a3_2 <= 0.5\ngini = 0.49\nsamples = 7\nvalue = [3, 4]"] ;
55 -> 71 ;
72 [label="a6_2 <= 0.5\ngini = 0.375\nsamples = 4\nvalue = [1, 3]"] ;
71 -> 72 ;
73 [label="gini = 0.0\nsamples = 1\nvalue = [1, 0]"] ;
72 -> 73 ;
74 [label="gini = 0.0\nsamples = 3\nvalue = [0, 3]"] ;
72 -> 74 ;
75 [label="a6_2 <= 0.5\ngini = 0.444\nsamples = 3\nvalue = [2, 1]"] ;
71 -> 75 ;
76 [label="gini = 0.0\nsamples = 1\nvalue = [0, 1]"] ;
75 -> 76 ;
77 [label="gini = 0.0\nsamples = 2\nvalue = [2, 0]"] ;
75 -> 77 ;
78 [label="a3_2 <= 0.5\ngini = 0.459\nsamples = 14\nvalue = [9, 5]"] ;
38 -> 78 ;
79 [label="gini = 0.0\nsamples = 6\nvalue = [6, 0]"] ;
78 -> 79 ;
80 [label="a6_1 <= 0.5\ngini = 0.469\nsamples = 8\nvalue = [3, 5]"] ;
78 -> 80 ;
81 [label="gini = 0.0\nsamples = 5\nvalue = [0, 5]"] ;
80 -> 81 ;
82 [label="gini = 0.0\nsamples = 3\nvalue = [3, 0]"] ;
80 -> 82 ;
83 [label="a3_2 <= 0.5\ngini = 0.449\nsamples = 150\nvalue = [99, 51]"] ;
1 -> 83 ;
84 [label="a6_1 <= 0.5\ngini = 0.274\nsamples = 67\nvalue = [56, 11]"] ;
83 -> 84 ;
85 [label="a1_2 <= 0.5\ngini = 0.444\nsamples = 33\nvalue = [22, 11]"] ;
84 -> 85 ;
86 [label="gini = 0.0\nsamples = 14\nvalue = [14, 0]"] ;
85 -> 86 ;
87 [label="a4_1 <= 0.5\ngini = 0.488\nsamples = 19\nvalue = [8, 11]"] ;
85 -> 87 ;
88 [label="a5_1 <= 0.5\ngini = 0.337\nsamples = 14\nvalue = [3, 11]"] ;
87 -> 88 ;
89 [label="gini = 0.0\nsamples = 11\nvalue = [0, 11]"] ;
88 -> 89 ;
90 [label="gini = 0.0\nsamples = 3\nvalue = [3, 0]"] ;
88 -> 90 ;
91 [label="gini = 0.0\nsamples = 5\nvalue = [5, 0]"] ;
87 -> 91 ;
92 [label="gini = 0.0\nsamples = 34\nvalue = [34, 0]"] ;
84 -> 92 ;
93 [label="a4_1 <= 0.5\ngini = 0.499\nsamples = 83\nvalue = [43, 40]"] ;
83 -> 93 ;
94 [label="a5_2 <= 0.5\ngini = 0.489\nsamples = 61\nvalue = [26, 35]"] ;
93 -> 94 ;
95 [label="a6_2 <= 0.5\ngini = 0.499\nsamples = 44\nvalue = [21, 23]"] ;
94 -> 95 ;
96 [label="a1_2 <= 0.5\ngini = 0.475\nsamples = 18\nvalue = [11, 7]"] ;
95 -> 96 ;
97 [label="gini = 0.0\nsamples = 8\nvalue = [8, 0]"] ;
96 -> 97 ;
98 [label="a5_1 <= 0.5\ngini = 0.42\nsamples = 10\nvalue = [3, 7]"] ;
96 -> 98 ;
99 [label="gini = 0.0\nsamples = 7\nvalue = [0, 7]"] ;
98 -> 99 ;
100 [label="gini = 0.0\nsamples = 3\nvalue = [3, 0]"] ;
98 -> 100 ;
101 [label="a1_2 <= 0.5\ngini = 0.473\nsamples = 26\nvalue = [10, 16]"] ;
95 -> 101 ;
102 [label="a5_1 <= 0.5\ngini = 0.355\nsamples = 13\nvalue = [3, 10]"] ;
101 -> 102 ;
103 [label="gini = 0.0\nsamples = 10\nvalue = [0, 10]"] ;
102 -> 103 ;
104 [label="gini = 0.0\nsamples = 3\nvalue = [3, 0]"] ;
102 -> 104 ;
105 [label="a5_1 <= 0.5\ngini = 0.497\nsamples = 13\nvalue = [7, 6]"] ;
101 -> 105 ;
106 [label="gini = 0.0\nsamples = 7\nvalue = [7, 0]"] ;
105 -> 106 ;
107 [label="gini = 0.0\nsamples = 6\nvalue = [0, 6]"] ;
105 -> 107 ;
108 [label="a4_2 <= 0.5\ngini = 0.415\nsamples = 17\nvalue = [5, 12]"] ;
94 -> 108 ;
109 [label="a1_1 <= 0.5\ngini = 0.469\nsamples = 8\nvalue = [3, 5]"] ;
108 -> 109 ;
110 [label="a6_2 <= 0.5\ngini = 0.444\nsamples = 3\nvalue = [2, 1]"] ;
109 -> 110 ;
111 [label="gini = 0.0\nsamples = 1\nvalue = [0, 1]"] ;
110 -> 111 ;
112 [label="gini = 0.0\nsamples = 2\nvalue = [2, 0]"] ;
110 -> 112 ;
113 [label="a6_2 <= 0.5\ngini = 0.32\nsamples = 5\nvalue = [1, 4]"] ;
109 -> 113 ;
114 [label="gini = 0.0\nsamples = 1\nvalue = [1, 0]"] ;
113 -> 114 ;
115 [label="gini = 0.0\nsamples = 4\nvalue = [0, 4]"] ;
113 -> 115 ;
116 [label="a6_1 <= 0.5\ngini = 0.346\nsamples = 9\nvalue = [2, 7]"] ;
108 -> 116 ;
117 [label="a1_2 <= 0.5\ngini = 0.5\nsamples = 2\nvalue = [1, 1]"] ;
116 -> 117 ;
118 [label="gini = 0.0\nsamples = 1\nvalue = [0, 1]"] ;
117 -> 118 ;
119 [label="gini = 0.0\nsamples = 1\nvalue = [1, 0]"] ;
117 -> 119 ;
120 [label="a1_1 <= 0.5\ngini = 0.245\nsamples = 7\nvalue = [1, 6]"] ;
116 -> 120 ;
121 [label="gini = 0.0\nsamples = 6\nvalue = [0, 6]"] ;
120 -> 121 ;
122 [label="gini = 0.0\nsamples = 1\nvalue = [1, 0]"] ;
120 -> 122 ;
123 [label="a6_2 <= 0.5\ngini = 0.351\nsamples = 22\nvalue = [17, 5]"] ;
93 -> 123 ;
124 [label="gini = 0.0\nsamples = 11\nvalue = [11, 0]"] ;
123 -> 124 ;
125 [label="a1_1 <= 0.5\ngini = 0.496\nsamples = 11\nvalue = [6, 5]"] ;
123 -> 125 ;
126 [label="a5_1 <= 0.5\ngini = 0.278\nsamples = 6\nvalue = [1, 5]"] ;
125 -> 126 ;
127 [label="gini = 0.0\nsamples = 5\nvalue = [0, 5]"] ;
126 -> 127 ;
128 [label="gini = 0.0\nsamples = 1\nvalue = [1, 0]"] ;
126 -> 128 ;
129 [label="gini = 0.0\nsamples = 5\nvalue = [5, 0]"] ;
125 -> 129 ;
130 [label="a2_3 <= 0.5\ngini = 0.48\nsamples = 215\nvalue = [86, 129]"] ;
0 -> 130 [labeldistance=2.5, labelangle=-45, headlabel="False"] ;
131 [label="a5_1 <= 0.5\ngini = 0.495\nsamples = 168\nvalue = [76, 92]"] ;
130 -> 131 ;
132 [label="a2_2 <= 0.5\ngini = 0.484\nsamples = 129\nvalue = [53, 76]"] ;
131 -> 132 ;
133 [label="a6_1 <= 0.5\ngini = 0.474\nsamples = 70\nvalue = [27, 43]"] ;
132 -> 133 ;
134 [label="a4_3 <= 0.5\ngini = 0.399\nsamples = 40\nvalue = [11, 29]"] ;
133 -> 134 ;
135 [label="a5_2 <= 0.5\ngini = 0.32\nsamples = 30\nvalue = [6, 24]"] ;
134 -> 135 ;
136 [label="a3_1 <= 0.5\ngini = 0.287\nsamples = 23\nvalue = [4, 19]"] ;
135 -> 136 ;
137 [label="a4_1 <= 0.5\ngini = 0.245\nsamples = 14\nvalue = [2, 12]"] ;
136 -> 137 ;
138 [label="gini = 0.0\nsamples = 2\nvalue = [2, 0]"] ;
137 -> 138 ;
139 [label="gini = 0.0\nsamples = 12\nvalue = [0, 12]"] ;
137 -> 139 ;
140 [label="a4_2 <= 0.5\ngini = 0.346\nsamples = 9\nvalue = [2, 7]"] ;
136 -> 140 ;
141 [label="gini = 0.0\nsamples = 2\nvalue = [2, 0]"] ;
140 -> 141 ;
142 [label="gini = 0.0\nsamples = 7\nvalue = [0, 7]"] ;
140 -> 142 ;
143 [label="a4_2 <= 0.5\ngini = 0.408\nsamples = 7\nvalue = [2, 5]"] ;
135 -> 143 ;
144 [label="a3_1 <= 0.5\ngini = 0.444\nsamples = 3\nvalue = [1, 2]"] ;
143 -> 144 ;
145 [label="gini = 0.0\nsamples = 2\nvalue = [0, 2]"] ;
144 -> 145 ;
146 [label="gini = 0.0\nsamples = 1\nvalue = [1, 0]"] ;
144 -> 146 ;
147 [label="a3_2 <= 0.5\ngini = 0.375\nsamples = 4\nvalue = [1, 3]"] ;
143 -> 147 ;
148 [label="gini = 0.0\nsamples = 3\nvalue = [0, 3]"] ;
147 -> 148 ;
149 [label="gini = 0.0\nsamples = 1\nvalue = [1, 0]"] ;
147 -> 149 ;
150 [label="a3_2 <= 0.5\ngini = 0.5\nsamples = 10\nvalue = [5, 5]"] ;
134 -> 150 ;
151 [label="gini = 0.0\nsamples = 5\nvalue = [0, 5]"] ;
150 -> 151 ;
152 [label="gini = 0.0\nsamples = 5\nvalue = [5, 0]"] ;
150 -> 152 ;
153 [label="a3_1 <= 0.5\ngini = 0.498\nsamples = 30\nvalue = [16, 14]"] ;
133 -> 153 ;
154 [label="a4_1 <= 0.5\ngini = 0.388\nsamples = 19\nvalue = [5, 14]"] ;
153 -> 154 ;
155 [label="gini = 0.0\nsamples = 14\nvalue = [0, 14]"] ;
154 -> 155 ;
156 [label="gini = 0.0\nsamples = 5\nvalue = [5, 0]"] ;
154 -> 156 ;
157 [label="gini = 0.0\nsamples = 11\nvalue = [11, 0]"] ;
153 -> 157 ;
158 [label="a6_1 <= 0.5\ngini = 0.493\nsamples = 59\nvalue = [26, 33]"] ;
132 -> 158 ;
159 [label="a4_1 <= 0.5\ngini = 0.471\nsamples = 29\nvalue = [18, 11]"] ;
158 -> 159 ;
160 [label="gini = 0.0\nsamples = 13\nvalue = [13, 0]"] ;
159 -> 160 ;
161 [label="a3_2 <= 0.5\ngini = 0.43\nsamples = 16\nvalue = [5, 11]"] ;
159 -> 161 ;
162 [label="gini = 0.0\nsamples = 11\nvalue = [0, 11]"] ;
161 -> 162 ;
163 [label="gini = 0.0\nsamples = 5\nvalue = [5, 0]"] ;
161 -> 163 ;
164 [label="a4_3 <= 0.5\ngini = 0.391\nsamples = 30\nvalue = [8, 22]"] ;
158 -> 164 ;
165 [label="a5_2 <= 0.5\ngini = 0.454\nsamples = 23\nvalue = [8, 15]"] ;
164 -> 165 ;
166 [label="a3_2 <= 0.5\ngini = 0.415\nsamples = 17\nvalue = [5, 12]"] ;
165 -> 166 ;
167 [label="a4_1 <= 0.5\ngini = 0.49\nsamples = 7\nvalue = [3, 4]"] ;
166 -> 167 ;
168 [label="gini = 0.0\nsamples = 4\nvalue = [0, 4]"] ;
167 -> 168 ;
169 [label="gini = 0.0\nsamples = 3\nvalue = [3, 0]"] ;
167 -> 169 ;
170 [label="a4_2 <= 0.5\ngini = 0.32\nsamples = 10\nvalue = [2, 8]"] ;
166 -> 170 ;
171 [label="gini = 0.0\nsamples = 8\nvalue = [0, 8]"] ;
170 -> 171 ;
172 [label="gini = 0.0\nsamples = 2\nvalue = [2, 0]"] ;
170 -> 172 ;
173 [label="a3_1 <= 0.5\ngini = 0.5\nsamples = 6\nvalue = [3, 3]"] ;
165 -> 173 ;
174 [label="a4_2 <= 0.5\ngini = 0.444\nsamples = 3\nvalue = [2, 1]"] ;
173 -> 174 ;
175 [label="gini = 0.0\nsamples = 1\nvalue = [0, 1]"] ;
174 -> 175 ;
176 [label="gini = 0.0\nsamples = 2\nvalue = [2, 0]"] ;
174 -> 176 ;
177 [label="a4_1 <= 0.5\ngini = 0.444\nsamples = 3\nvalue = [1, 2]"] ;
173 -> 177 ;
178 [label="gini = 0.0\nsamples = 2\nvalue = [0, 2]"] ;
177 -> 178 ;
179 [label="gini = 0.0\nsamples = 1\nvalue = [1, 0]"] ;
177 -> 179 ;
180 [label="gini = 0.0\nsamples = 7\nvalue = [0, 7]"] ;
164 -> 180 ;
181 [label="a3_2 <= 0.5\ngini = 0.484\nsamples = 39\nvalue = [23, 16]"] ;
131 -> 181 ;
182 [label="a2_1 <= 0.5\ngini = 0.332\nsamples = 19\nvalue = [15, 4]"] ;
181 -> 182 ;
183 [label="a6_2 <= 0.5\ngini = 0.48\nsamples = 10\nvalue = [6, 4]"] ;
182 -> 183 ;
184 [label="gini = 0.0\nsamples = 4\nvalue = [4, 0]"] ;
183 -> 184 ;
185 [label="a4_1 <= 0.5\ngini = 0.444\nsamples = 6\nvalue = [2, 4]"] ;
183 -> 185 ;
186 [label="gini = 0.0\nsamples = 4\nvalue = [0, 4]"] ;
185 -> 186 ;
187 [label="gini = 0.0\nsamples = 2\nvalue = [2, 0]"] ;
185 -> 187 ;
188 [label="gini = 0.0\nsamples = 9\nvalue = [9, 0]"] ;
182 -> 188 ;
189 [label="a4_1 <= 0.5\ngini = 0.48\nsamples = 20\nvalue = [8, 12]"] ;
181 -> 189 ;
190 [label="a6_2 <= 0.5\ngini = 0.355\nsamples = 13\nvalue = [3, 10]"] ;
189 -> 190 ;
191 [label="a2_2 <= 0.5\ngini = 0.408\nsamples = 7\nvalue = [2, 5]"] ;
190 -> 191 ;
192 [label="gini = 0.0\nsamples = 2\nvalue = [2, 0]"] ;
191 -> 192 ;
193 [label="gini = 0.0\nsamples = 5\nvalue = [0, 5]"] ;
191 -> 193 ;
194 [label="a2_2 <= 0.5\ngini = 0.278\nsamples = 6\nvalue = [1, 5]"] ;
190 -> 194 ;
195 [label="gini = 0.0\nsamples = 5\nvalue = [0, 5]"] ;
194 -> 195 ;
196 [label="gini = 0.0\nsamples = 1\nvalue = [1, 0]"] ;
194 -> 196 ;
197 [label="a6_2 <= 0.5\ngini = 0.408\nsamples = 7\nvalue = [5, 2]"] ;
189 -> 197 ;
198 [label="gini = 0.0\nsamples = 4\nvalue = [4, 0]"] ;
197 -> 198 ;
199 [label="a2_1 <= 0.5\ngini = 0.444\nsamples = 3\nvalue = [1, 2]"] ;
197 -> 199 ;
200 [label="gini = 0.0\nsamples = 2\nvalue = [0, 2]"] ;
199 -> 200 ;
201 [label="gini = 0.0\nsamples = 1\nvalue = [1, 0]"] ;
199 -> 201 ;
202 [label="a5_3 <= 0.5\ngini = 0.335\nsamples = 47\nvalue = [10, 37]"] ;
130 -> 202 ;
203 [label="a4_2 <= 0.5\ngini = 0.272\nsamples = 37\nvalue = [6, 31]"] ;
202 -> 203 ;
204 [label="a4_3 <= 0.5\ngini = 0.351\nsamples = 22\nvalue = [5, 17]"] ;
203 -> 204 ;
205 [label="a5_1 <= 0.5\ngini = 0.397\nsamples = 11\nvalue = [3, 8]"] ;
204 -> 205 ;
206 [label="a3_1 <= 0.5\ngini = 0.219\nsamples = 8\nvalue = [1, 7]"] ;
205 -> 206 ;
207 [label="gini = 0.0\nsamples = 5\nvalue = [0, 5]"] ;
206 -> 207 ;
208 [label="a6_1 <= 0.5\ngini = 0.444\nsamples = 3\nvalue = [1, 2]"] ;
206 -> 208 ;
209 [label="gini = 0.0\nsamples = 2\nvalue = [0, 2]"] ;
208 -> 209 ;
210 [label="gini = 0.0\nsamples = 1\nvalue = [1, 0]"] ;
208 -> 210 ;
211 [label="a6_2 <= 0.5\ngini = 0.444\nsamples = 3\nvalue = [2, 1]"] ;
205 -> 211 ;
212 [label="gini = 0.0\nsamples = 2\nvalue = [2, 0]"] ;
211 -> 212 ;
213 [label="gini = 0.0\nsamples = 1\nvalue = [0, 1]"] ;
211 -> 213 ;
214 [label="a3_2 <= 0.5\ngini = 0.298\nsamples = 11\nvalue = [2, 9]"] ;
204 -> 214 ;
215 [label="gini = 0.0\nsamples = 6\nvalue = [0, 6]"] ;
214 -> 215 ;
216 [label="a5_1 <= 0.5\ngini = 0.48\nsamples = 5\nvalue = [2, 3]"] ;
214 -> 216 ;
217 [label="gini = 0.0\nsamples = 2\nvalue = [2, 0]"] ;
216 -> 217 ;
218 [label="gini = 0.0\nsamples = 3\nvalue = [0, 3]"] ;
216 -> 218 ;
219 [label="a5_2 <= 0.5\ngini = 0.124\nsamples = 15\nvalue = [1, 14]"] ;
203 -> 219 ;
220 [label="gini = 0.0\nsamples = 11\nvalue = [0, 11]"] ;
219 -> 220 ;
221 [label="a3_1 <= 0.5\ngini = 0.375\nsamples = 4\nvalue = [1, 3]"] ;
219 -> 221 ;
222 [label="gini = 0.0\nsamples = 1\nvalue = [1, 0]"] ;
221 -> 222 ;
223 [label="gini = 0.0\nsamples = 3\nvalue = [0, 3]"] ;
221 -> 223 ;
224 [label="a4_2 <= 0.5\ngini = 0.48\nsamples = 10\nvalue = [4, 6]"] ;
202 -> 224 ;
225 [label="a6_2 <= 0.5\ngini = 0.278\nsamples = 6\nvalue = [1, 5]"] ;
224 -> 225 ;
226 [label="a3_1 <= 0.5\ngini = 0.375\nsamples = 4\nvalue = [1, 3]"] ;
225 -> 226 ;
227 [label="gini = 0.0\nsamples = 2\nvalue = [0, 2]"] ;
226 -> 227 ;
228 [label="a4_3 <= 0.5\ngini = 0.5\nsamples = 2\nvalue = [1, 1]"] ;
226 -> 228 ;
229 [label="gini = 0.0\nsamples = 1\nvalue = [1, 0]"] ;
228 -> 229 ;
230 [label="gini = 0.0\nsamples = 1\nvalue = [0, 1]"] ;
228 -> 230 ;
231 [label="gini = 0.0\nsamples = 2\nvalue = [0, 2]"] ;
225 -> 231 ;
232 [label="a6_1 <= 0.5\ngini = 0.375\nsamples = 4\nvalue = [3, 1]"] ;
224 -> 232 ;
233 [label="gini = 0.0\nsamples = 2\nvalue = [2, 0]"] ;
232 -> 233 ;
234 [label="a3_2 <= 0.5\ngini = 0.5\nsamples = 2\nvalue = [1, 1]"] ;
232 -> 234 ;
235 [label="gini = 0.0\nsamples = 1\nvalue = [0, 1]"] ;
234 -> 235 ;
236 [label="gini = 0.0\nsamples = 1\nvalue = [1, 0]"] ;
234 -> 236 ;
}