digraph Tree {
node [shape=box] ;
0 [label="a2_3 <= 0.5\ngini = 0.5\nsamples = 518\nvalue = [259, 259]"] ;
1 [label="a5_4 <= 0.5\ngini = 0.399\nsamples = 338\nvalue = [93, 245]"] ;
0 -> 1 [labeldistance=2.5, labelangle=45, headlabel="True"] ;
2 [label="a6_1 <= 0.5\ngini = 0.032\nsamples = 249\nvalue = [4, 245]"] ;
1 -> 2 ;
3 [label="gini = 0.0\nsamples = 122\nvalue = [0, 122]"] ;
2 -> 3 ;
4 [label="a3_1 <= 0.5\ngini = 0.061\nsamples = 127\nvalue = [4, 123]"] ;
2 -> 4 ;
5 [label="gini = 0.0\nsamples = 61\nvalue = [0, 61]"] ;
4 -> 5 ;
6 [label="a5_3 <= 0.5\ngini = 0.114\nsamples = 66\nvalue = [4, 62]"] ;
4 -> 6 ;
7 [label="a1_2 <= 0.5\ngini = 0.044\nsamples = 44\nvalue = [1, 43]"] ;
6 -> 7 ;
8 [label="gini = 0.0\nsamples = 29\nvalue = [0, 29]"] ;
7 -> 8 ;
9 [label="a4_2 <= 0.5\ngini = 0.124\nsamples = 15\nvalue = [1, 14]"] ;
7 -> 9 ;
10 [label="gini = 0.0\nsamples = 9\nvalue = [0, 9]"] ;
9 -> 10 ;
11 [label="a5_2 <= 0.5\ngini = 0.278\nsamples = 6\nvalue = [1, 5]"] ;
9 -> 11 ;
12 [label="gini = 0.0\nsamples = 3\nvalue = [0, 3]"] ;
11 -> 12 ;
13 [label="a2_2 <= 0.5\ngini = 0.444\nsamples = 3\nvalue = [1, 2]"] ;
11 -> 13 ;
14 [label="gini = 0.0\nsamples = 1\nvalue = [0, 1]"] ;
13 -> 14 ;
15 [label="gini = 0.5\nsamples = 2\nvalue = [1, 1]"] ;
13 -> 15 ;
16 [label="a1_3 <= 0.5\ngini = 0.236\nsamples = 22\nvalue = [3, 19]"] ;
6 -> 16 ;
17 [label="a1_2 <= 0.5\ngini = 0.305\nsamples = 16\nvalue = [3, 13]"] ;
16 -> 17 ;
18 [label="a4_3 <= 0.5\ngini = 0.346\nsamples = 9\nvalue = [2, 7]"] ;
17 -> 18 ;
19 [label="a2_2 <= 0.5\ngini = 0.408\nsamples = 7\nvalue = [2, 5]"] ;
18 -> 19 ;
20 [label="a4_1 <= 0.5\ngini = 0.444\nsamples = 3\nvalue = [1, 2]"] ;
19 -> 20 ;
21 [label="gini = 0.0\nsamples = 1\nvalue = [0, 1]"] ;
20 -> 21 ;
22 [label="gini = 0.5\nsamples = 2\nvalue = [1, 1]"] ;
20 -> 22 ;
23 [label="a4_2 <= 0.5\ngini = 0.375\nsamples = 4\nvalue = [1, 3]"] ;
19 -> 23 ;
24 [label="gini = 0.0\nsamples = 2\nvalue = [0, 2]"] ;
23 -> 24 ;
25 [label="gini = 0.5\nsamples = 2\nvalue = [1, 1]"] ;
23 -> 25 ;
26 [label="gini = 0.0\nsamples = 2\nvalue = [0, 2]"] ;
18 -> 26 ;
27 [label="a4_3 <= 0.5\ngini = 0.245\nsamples = 7\nvalue = [1, 6]"] ;
17 -> 27 ;
28 [label="gini = 0.0\nsamples = 4\nvalue = [0, 4]"] ;
27 -> 28 ;
29 [label="a2_2 <= 0.5\ngini = 0.444\nsamples = 3\nvalue = [1, 2]"] ;
27 -> 29 ;
30 [label="gini = 0.0\nsamples = 1\nvalue = [0, 1]"] ;
29 -> 30 ;
31 [label="gini = 0.5\nsamples = 2\nvalue = [1, 1]"] ;
29 -> 31 ;
32 [label="gini = 0.0\nsamples = 6\nvalue = [0, 6]"] ;
16 -> 32 ;
33 [label="gini = 0.0\nsamples = 89\nvalue = [89, 0]"] ;
1 -> 33 ;
34 [label="a5_3 <= 0.5\ngini = 0.143\nsamples = 180\nvalue = [166, 14]"] ;
0 -> 34 [labeldistance=2.5, labelangle=-45, headlabel="False"] ;
35 [label="a1_3 <= 0.5\ngini = 0.015\nsamples = 135\nvalue = [134, 1]"] ;
34 -> 35 ;
36 [label="gini = 0.0\nsamples = 93\nvalue = [93, 0]"] ;
35 -> 36 ;
37 [label="a4_1 <= 0.5\ngini = 0.046\nsamples = 42\nvalue = [41, 1]"] ;
35 -> 37 ;
38 [label="gini = 0.0\nsamples = 29\nvalue = [29, 0]"] ;
37 -> 38 ;
39 [label="a5_4 <= 0.5\ngini = 0.142\nsamples = 13\nvalue = [12, 1]"] ;
37 -> 39 ;
40 [label="gini = 0.0\nsamples = 8\nvalue = [8, 0]"] ;
39 -> 40 ;
41 [label="a6_1 <= 0.5\ngini = 0.32\nsamples = 5\nvalue = [4, 1]"] ;
39 -> 41 ;
42 [label="gini = 0.0\nsamples = 2\nvalue = [2, 0]"] ;
41 -> 42 ;
43 [label="a3_1 <= 0.5\ngini = 0.444\nsamples = 3\nvalue = [2, 1]"] ;
41 -> 43 ;
44 [label="gini = 0.0\nsamples = 1\nvalue = [1, 0]"] ;
43 -> 44 ;
45 [label="gini = 0.5\nsamples = 2\nvalue = [1, 1]"] ;
43 -> 45 ;
46 [label="a4_1 <= 0.5\ngini = 0.411\nsamples = 45\nvalue = [32, 13]"] ;
34 -> 46 ;
47 [label="gini = 0.0\nsamples = 32\nvalue = [32, 0]"] ;
46 -> 47 ;
48 [label="gini = 0.0\nsamples = 13\nvalue = [0, 13]"] ;
46 -> 48 ;
}