digraph Tree {
node [shape=box] ;
0 [label="F21_f <= 0.5\ngini = 0.5\nsamples = 3004\nvalue = [1502, 1502]"] ;
1 [label="gini = 0.0\nsamples = 515\nvalue = [0, 515]"] ;
0 -> 1 [labeldistance=2.5, labelangle=45, headlabel="True"] ;
2 [label="F33_t <= 0.5\ngini = 0.479\nsamples = 2489\nvalue = [1502, 987]"] ;
0 -> 2 [labeldistance=2.5, labelangle=-45, headlabel="False"] ;
3 [label="F10_t <= 0.5\ngini = 0.483\nsamples = 1591\nvalue = [649, 942]"] ;
2 -> 3 ;
4 [label="F32_f <= 0.5\ngini = 0.355\nsamples = 1225\nvalue = [283, 942]"] ;
3 -> 4 ;
5 [label="F2_f <= 0.5\ngini = 0.043\nsamples = 135\nvalue = [132, 3]"] ;
4 -> 5 ;
6 [label="F18_t <= 0.5\ngini = 0.255\nsamples = 20\nvalue = [17, 3]"] ;
5 -> 6 ;
7 [label="F24_t <= 0.5\ngini = 0.444\nsamples = 9\nvalue = [6, 3]"] ;
6 -> 7 ;
8 [label="gini = 0.0\nsamples = 3\nvalue = [0, 3]"] ;
7 -> 8 ;
9 [label="gini = 0.0\nsamples = 6\nvalue = [6, 0]"] ;
7 -> 9 ;
10 [label="gini = 0.0\nsamples = 11\nvalue = [11, 0]"] ;
6 -> 10 ;
11 [label="gini = 0.0\nsamples = 115\nvalue = [115, 0]"] ;
5 -> 11 ;
12 [label="F35_f <= 0.5\ngini = 0.239\nsamples = 1090\nvalue = [151, 939]"] ;
4 -> 12 ;
13 [label="F15_b <= 0.5\ngini = 0.094\nsamples = 808\nvalue = [40, 768]"] ;
12 -> 13 ;
14 [label="F23_f <= 0.5\ngini = 0.044\nsamples = 750\nvalue = [17, 733]"] ;
13 -> 14 ;
15 [label="F17_f <= 0.5\ngini = 0.43\nsamples = 48\nvalue = [15, 33]"] ;
14 -> 15 ;
16 [label="gini = 0.0\nsamples = 24\nvalue = [0, 24]"] ;
15 -> 16 ;
17 [label="F6_t <= 0.5\ngini = 0.469\nsamples = 24\nvalue = [15, 9]"] ;
15 -> 17 ;
18 [label="gini = 0.0\nsamples = 15\nvalue = [15, 0]"] ;
17 -> 18 ;
19 [label="gini = 0.0\nsamples = 9\nvalue = [0, 9]"] ;
17 -> 19 ;
20 [label="F12_f <= 0.5\ngini = 0.006\nsamples = 702\nvalue = [2, 700]"] ;
14 -> 20 ;
21 [label="F30_t <= 0.5\ngini = 0.057\nsamples = 68\nvalue = [2, 66]"] ;
20 -> 21 ;
22 [label="F13_l <= 0.5\ngini = 0.031\nsamples = 64\nvalue = [1, 63]"] ;
21 -> 22 ;
23 [label="F36_n <= 0.5\ngini = 0.095\nsamples = 20\nvalue = [1, 19]"] ;
22 -> 23 ;
24 [label="F26_f <= 0.5\ngini = 0.245\nsamples = 7\nvalue = [1, 6]"] ;
23 -> 24 ;
25 [label="F6_f <= 0.5\ngini = 0.444\nsamples = 3\nvalue = [1, 2]"] ;
24 -> 25 ;
26 [label="gini = 0.0\nsamples = 2\nvalue = [0, 2]"] ;
25 -> 26 ;
27 [label="gini = 0.0\nsamples = 1\nvalue = [1, 0]"] ;
25 -> 27 ;
28 [label="gini = 0.0\nsamples = 4\nvalue = [0, 4]"] ;
24 -> 28 ;
29 [label="gini = 0.0\nsamples = 13\nvalue = [0, 13]"] ;
23 -> 29 ;
30 [label="gini = 0.0\nsamples = 44\nvalue = [0, 44]"] ;
22 -> 30 ;
31 [label="F13_g <= 0.5\ngini = 0.375\nsamples = 4\nvalue = [1, 3]"] ;
21 -> 31 ;
32 [label="gini = 0.0\nsamples = 3\nvalue = [0, 3]"] ;
31 -> 32 ;
33 [label="gini = 0.0\nsamples = 1\nvalue = [1, 0]"] ;
31 -> 33 ;
34 [label="gini = 0.0\nsamples = 634\nvalue = [0, 634]"] ;
20 -> 34 ;
35 [label="F6_f <= 0.5\ngini = 0.479\nsamples = 58\nvalue = [23, 35]"] ;
13 -> 35 ;
36 [label="gini = 0.0\nsamples = 29\nvalue = [0, 29]"] ;
35 -> 36 ;
37 [label="F1_f <= 0.5\ngini = 0.328\nsamples = 29\nvalue = [23, 6]"] ;
35 -> 37 ;
38 [label="F23_t <= 0.5\ngini = 0.245\nsamples = 7\nvalue = [1, 6]"] ;
37 -> 38 ;
39 [label="gini = 0.0\nsamples = 5\nvalue = [0, 5]"] ;
38 -> 39 ;
40 [label="F17_f <= 0.5\ngini = 0.5\nsamples = 2\nvalue = [1, 1]"] ;
38 -> 40 ;
41 [label="gini = 0.0\nsamples = 1\nvalue = [0, 1]"] ;
40 -> 41 ;
42 [label="gini = 0.0\nsamples = 1\nvalue = [1, 0]"] ;
40 -> 42 ;
43 [label="gini = 0.0\nsamples = 22\nvalue = [22, 0]"] ;
37 -> 43 ;
44 [label="F6_f <= 0.5\ngini = 0.477\nsamples = 282\nvalue = [111, 171]"] ;
12 -> 44 ;
45 [label="gini = 0.0\nsamples = 113\nvalue = [0, 113]"] ;
44 -> 45 ;
46 [label="F15_w <= 0.5\ngini = 0.451\nsamples = 169\nvalue = [111, 58]"] ;
44 -> 46 ;
47 [label="F1_f <= 0.5\ngini = 0.276\nsamples = 133\nvalue = [111, 22]"] ;
46 -> 47 ;
48 [label="F14_t <= 0.5\ngini = 0.471\nsamples = 29\nvalue = [11, 18]"] ;
47 -> 48 ;
49 [label="F28_f <= 0.5\ngini = 0.1\nsamples = 19\nvalue = [1, 18]"] ;
48 -> 49 ;
50 [label="gini = 0.0\nsamples = 1\nvalue = [1, 0]"] ;
49 -> 50 ;
51 [label="gini = 0.0\nsamples = 18\nvalue = [0, 18]"] ;
49 -> 51 ;
52 [label="gini = 0.0\nsamples = 10\nvalue = [10, 0]"] ;
48 -> 52 ;
53 [label="F18_t <= 0.5\ngini = 0.074\nsamples = 104\nvalue = [100, 4]"] ;
47 -> 53 ;
54 [label="F31_f <= 0.5\ngini = 0.238\nsamples = 29\nvalue = [25, 4]"] ;
53 -> 54 ;
55 [label="F20_t <= 0.5\ngini = 0.408\nsamples = 14\nvalue = [10, 4]"] ;
54 -> 55 ;
56 [label="F23_t <= 0.5\ngini = 0.49\nsamples = 7\nvalue = [3, 4]"] ;
55 -> 56 ;
57 [label="F24_t <= 0.5\ngini = 0.48\nsamples = 5\nvalue = [3, 2]"] ;
56 -> 57 ;
58 [label="gini = 0.0\nsamples = 1\nvalue = [0, 1]"] ;
57 -> 58 ;
59 [label="F25_f <= 0.5\ngini = 0.375\nsamples = 4\nvalue = [3, 1]"] ;
57 -> 59 ;
60 [label="gini = 0.0\nsamples = 1\nvalue = [1, 0]"] ;
59 -> 60 ;
61 [label="F5_t <= 0.5\ngini = 0.444\nsamples = 3\nvalue = [2, 1]"] ;
59 -> 61 ;
62 [label="F30_t <= 0.5\ngini = 0.5\nsamples = 2\nvalue = [1, 1]"] ;
61 -> 62 ;
63 [label="gini = 0.0\nsamples = 1\nvalue = [0, 1]"] ;
62 -> 63 ;
64 [label="gini = 0.0\nsamples = 1\nvalue = [1, 0]"] ;
62 -> 64 ;
65 [label="gini = 0.0\nsamples = 1\nvalue = [1, 0]"] ;
61 -> 65 ;
66 [label="gini = 0.0\nsamples = 2\nvalue = [0, 2]"] ;
56 -> 66 ;
67 [label="gini = 0.0\nsamples = 7\nvalue = [7, 0]"] ;
55 -> 67 ;
68 [label="gini = 0.0\nsamples = 15\nvalue = [15, 0]"] ;
54 -> 68 ;
69 [label="gini = 0.0\nsamples = 75\nvalue = [75, 0]"] ;
53 -> 69 ;
70 [label="gini = 0.0\nsamples = 36\nvalue = [0, 36]"] ;
46 -> 70 ;
71 [label="gini = 0.0\nsamples = 366\nvalue = [366, 0]"] ;
3 -> 71 ;
72 [label="F18_f <= 0.5\ngini = 0.095\nsamples = 898\nvalue = [853, 45]"] ;
2 -> 72 ;
73 [label="F34_f <= 0.5\ngini = 0.024\nsamples = 653\nvalue = [645, 8]"] ;
72 -> 73 ;
74 [label="gini = 0.0\nsamples = 528\nvalue = [528, 0]"] ;
73 -> 74 ;
75 [label="F7_f <= 0.5\ngini = 0.12\nsamples = 125\nvalue = [117, 8]"] ;
73 -> 75 ;
76 [label="gini = 0.0\nsamples = 79\nvalue = [79, 0]"] ;
75 -> 76 ;
77 [label="F4_f <= 0.5\ngini = 0.287\nsamples = 46\nvalue = [38, 8]"] ;
75 -> 77 ;
78 [label="gini = 0.0\nsamples = 20\nvalue = [20, 0]"] ;
77 -> 78 ;
79 [label="F5_t <= 0.5\ngini = 0.426\nsamples = 26\nvalue = [18, 8]"] ;
77 -> 79 ;
80 [label="F16_t <= 0.5\ngini = 0.298\nsamples = 22\nvalue = [18, 4]"] ;
79 -> 80 ;
81 [label="F3_t <= 0.5\ngini = 0.48\nsamples = 10\nvalue = [6, 4]"] ;
80 -> 81 ;
82 [label="F11_t <= 0.5\ngini = 0.444\nsamples = 6\nvalue = [2, 4]"] ;
81 -> 82 ;
83 [label="gini = 0.0\nsamples = 4\nvalue = [0, 4]"] ;
82 -> 83 ;
84 [label="gini = 0.0\nsamples = 2\nvalue = [2, 0]"] ;
82 -> 84 ;
85 [label="gini = 0.0\nsamples = 4\nvalue = [4, 0]"] ;
81 -> 85 ;
86 [label="gini = 0.0\nsamples = 12\nvalue = [12, 0]"] ;
80 -> 86 ;
87 [label="gini = 0.0\nsamples = 4\nvalue = [0, 4]"] ;
79 -> 87 ;
88 [label="F7_f <= 0.5\ngini = 0.256\nsamples = 245\nvalue = [208, 37]"] ;
72 -> 88 ;
89 [label="gini = 0.0\nsamples = 98\nvalue = [98, 0]"] ;
88 -> 89 ;
90 [label="F27_t <= 0.5\ngini = 0.377\nsamples = 147\nvalue = [110, 37]"] ;
88 -> 90 ;
91 [label="F10_f <= 0.5\ngini = 0.452\nsamples = 107\nvalue = [70, 37]"] ;
90 -> 91 ;
92 [label="gini = 0.0\nsamples = 22\nvalue = [22, 0]"] ;
91 -> 92 ;
93 [label="F16_f <= 0.5\ngini = 0.492\nsamples = 85\nvalue = [48, 37]"] ;
91 -> 93 ;
94 [label="gini = 0.0\nsamples = 19\nvalue = [19, 0]"] ;
93 -> 94 ;
95 [label="F30_f <= 0.5\ngini = 0.493\nsamples = 66\nvalue = [29, 37]"] ;
93 -> 95 ;
96 [label="gini = 0.0\nsamples = 7\nvalue = [7, 0]"] ;
95 -> 96 ;
97 [label="F4_f <= 0.5\ngini = 0.468\nsamples = 59\nvalue = [22, 37]"] ;
95 -> 97 ;
98 [label="gini = 0.0\nsamples = 7\nvalue = [7, 0]"] ;
97 -> 98 ;
99 [label="F20_f <= 0.5\ngini = 0.411\nsamples = 52\nvalue = [15, 37]"] ;
97 -> 99 ;
100 [label="gini = 0.0\nsamples = 7\nvalue = [7, 0]"] ;
99 -> 100 ;
101 [label="F22_f <= 0.5\ngini = 0.292\nsamples = 45\nvalue = [8, 37]"] ;
99 -> 101 ;
102 [label="gini = 0.0\nsamples = 4\nvalue = [4, 0]"] ;
101 -> 102 ;
103 [label="F3_f <= 0.5\ngini = 0.176\nsamples = 41\nvalue = [4, 37]"] ;
101 -> 103 ;
104 [label="gini = 0.0\nsamples = 2\nvalue = [2, 0]"] ;
103 -> 104 ;
105 [label="F25_f <= 0.5\ngini = 0.097\nsamples = 39\nvalue = [2, 37]"] ;
103 -> 105 ;
106 [label="gini = 0.0\nsamples = 2\nvalue = [2, 0]"] ;
105 -> 106 ;
107 [label="gini = 0.0\nsamples = 37\nvalue = [0, 37]"] ;
105 -> 107 ;
108 [label="gini = 0.0\nsamples = 40\nvalue = [40, 0]"] ;
90 -> 108 ;
}