digraph Tree {
node [shape=box] ;
0 [label="F21_f <= 0.5\ngini = 0.5\nsamples = 3004\nvalue = [1502, 1502]"] ;
1 [label="gini = 0.0\nsamples = 535\nvalue = [0, 535]"] ;
0 -> 1 [labeldistance=2.5, labelangle=45, headlabel="True"] ;
2 [label="F10_t <= 0.5\ngini = 0.477\nsamples = 2469\nvalue = [1502, 967]"] ;
0 -> 2 [labeldistance=2.5, labelangle=-45, headlabel="False"] ;
3 [label="F33_t <= 0.5\ngini = 0.485\nsamples = 1648\nvalue = [681, 967]"] ;
2 -> 3 ;
4 [label="F32_f <= 0.5\ngini = 0.318\nsamples = 1151\nvalue = [228, 923]"] ;
3 -> 4 ;
5 [label="F2_t <= 0.5\ngini = 0.056\nsamples = 105\nvalue = [102, 3]"] ;
4 -> 5 ;
6 [label="gini = 0.0\nsamples = 94\nvalue = [94, 0]"] ;
5 -> 6 ;
7 [label="F18_t <= 0.5\ngini = 0.397\nsamples = 11\nvalue = [8, 3]"] ;
5 -> 7 ;
8 [label="F24_f <= 0.5\ngini = 0.375\nsamples = 4\nvalue = [1, 3]"] ;
7 -> 8 ;
9 [label="gini = 0.0\nsamples = 1\nvalue = [1, 0]"] ;
8 -> 9 ;
10 [label="gini = 0.0\nsamples = 3\nvalue = [0, 3]"] ;
8 -> 10 ;
11 [label="gini = 0.0\nsamples = 7\nvalue = [7, 0]"] ;
7 -> 11 ;
12 [label="F6_f <= 0.5\ngini = 0.212\nsamples = 1046\nvalue = [126, 920]"] ;
4 -> 12 ;
13 [label="gini = 0.0\nsamples = 530\nvalue = [0, 530]"] ;
12 -> 13 ;
14 [label="F35_t <= 0.5\ngini = 0.369\nsamples = 516\nvalue = [126, 390]"] ;
12 -> 14 ;
15 [label="F15_w <= 0.5\ngini = 0.5\nsamples = 173\nvalue = [86, 87]"] ;
14 -> 15 ;
16 [label="F1_f <= 0.5\ngini = 0.441\nsamples = 128\nvalue = [86, 42]"] ;
15 -> 16 ;
17 [label="F14_t <= 0.5\ngini = 0.32\nsamples = 50\nvalue = [10, 40]"] ;
16 -> 17 ;
18 [label="gini = 0.0\nsamples = 40\nvalue = [0, 40]"] ;
17 -> 18 ;
19 [label="gini = 0.0\nsamples = 10\nvalue = [10, 0]"] ;
17 -> 19 ;
20 [label="F34_f <= 0.5\ngini = 0.05\nsamples = 78\nvalue = [76, 2]"] ;
16 -> 20 ;
21 [label="gini = 0.0\nsamples = 63\nvalue = [63, 0]"] ;
20 -> 21 ;
22 [label="F31_t <= 0.5\ngini = 0.231\nsamples = 15\nvalue = [13, 2]"] ;
20 -> 22 ;
23 [label="gini = 0.0\nsamples = 11\nvalue = [11, 0]"] ;
22 -> 23 ;
24 [label="F23_t <= 0.5\ngini = 0.5\nsamples = 4\nvalue = [2, 2]"] ;
22 -> 24 ;
25 [label="F5_f <= 0.5\ngini = 0.444\nsamples = 3\nvalue = [1, 2]"] ;
24 -> 25 ;
26 [label="gini = 0.0\nsamples = 1\nvalue = [1, 0]"] ;
25 -> 26 ;
27 [label="gini = 0.0\nsamples = 2\nvalue = [0, 2]"] ;
25 -> 27 ;
28 [label="gini = 0.0\nsamples = 1\nvalue = [1, 0]"] ;
24 -> 28 ;
29 [label="gini = 0.0\nsamples = 45\nvalue = [0, 45]"] ;
15 -> 29 ;
30 [label="F15_b <= 0.5\ngini = 0.206\nsamples = 343\nvalue = [40, 303]"] ;
14 -> 30 ;
31 [label="F23_t <= 0.5\ngini = 0.103\nsamples = 311\nvalue = [17, 294]"] ;
30 -> 31 ;
32 [label="F12_t <= 0.5\ngini = 0.014\nsamples = 284\nvalue = [2, 282]"] ;
31 -> 32 ;
33 [label="gini = 0.0\nsamples = 253\nvalue = [0, 253]"] ;
32 -> 33 ;
34 [label="F30_t <= 0.5\ngini = 0.121\nsamples = 31\nvalue = [2, 29]"] ;
32 -> 34 ;
35 [label="F13_g <= 0.5\ngini = 0.067\nsamples = 29\nvalue = [1, 28]"] ;
34 -> 35 ;
36 [label="gini = 0.0\nsamples = 20\nvalue = [0, 20]"] ;
35 -> 36 ;
37 [label="F36_n <= 0.5\ngini = 0.198\nsamples = 9\nvalue = [1, 8]"] ;
35 -> 37 ;
38 [label="F26_t <= 0.5\ngini = 0.444\nsamples = 3\nvalue = [1, 2]"] ;
37 -> 38 ;
39 [label="gini = 0.0\nsamples = 2\nvalue = [0, 2]"] ;
38 -> 39 ;
40 [label="gini = 0.0\nsamples = 1\nvalue = [1, 0]"] ;
38 -> 40 ;
41 [label="gini = 0.0\nsamples = 6\nvalue = [0, 6]"] ;
37 -> 41 ;
42 [label="F26_t <= 0.5\ngini = 0.5\nsamples = 2\nvalue = [1, 1]"] ;
34 -> 42 ;
43 [label="gini = 0.0\nsamples = 1\nvalue = [0, 1]"] ;
42 -> 43 ;
44 [label="gini = 0.0\nsamples = 1\nvalue = [1, 0]"] ;
42 -> 44 ;
45 [label="F17_f <= 0.5\ngini = 0.494\nsamples = 27\nvalue = [15, 12]"] ;
31 -> 45 ;
46 [label="gini = 0.0\nsamples = 12\nvalue = [0, 12]"] ;
45 -> 46 ;
47 [label="gini = 0.0\nsamples = 15\nvalue = [15, 0]"] ;
45 -> 47 ;
48 [label="F1_f <= 0.5\ngini = 0.404\nsamples = 32\nvalue = [23, 9]"] ;
30 -> 48 ;
49 [label="F23_f <= 0.5\ngini = 0.18\nsamples = 10\nvalue = [1, 9]"] ;
48 -> 49 ;
50 [label="F17_t <= 0.5\ngini = 0.5\nsamples = 2\nvalue = [1, 1]"] ;
49 -> 50 ;
51 [label="gini = 0.0\nsamples = 1\nvalue = [1, 0]"] ;
50 -> 51 ;
52 [label="gini = 0.0\nsamples = 1\nvalue = [0, 1]"] ;
50 -> 52 ;
53 [label="gini = 0.0\nsamples = 8\nvalue = [0, 8]"] ;
49 -> 53 ;
54 [label="gini = 0.0\nsamples = 22\nvalue = [22, 0]"] ;
48 -> 54 ;
55 [label="F18_t <= 0.5\ngini = 0.161\nsamples = 497\nvalue = [453, 44]"] ;
3 -> 55 ;
56 [label="F7_f <= 0.5\ngini = 0.373\nsamples = 145\nvalue = [109, 36]"] ;
55 -> 56 ;
57 [label="gini = 0.0\nsamples = 51\nvalue = [51, 0]"] ;
56 -> 57 ;
58 [label="F27_f <= 0.5\ngini = 0.473\nsamples = 94\nvalue = [58, 36]"] ;
56 -> 58 ;
59 [label="gini = 0.0\nsamples = 28\nvalue = [28, 0]"] ;
58 -> 59 ;
60 [label="F16_t <= 0.5\ngini = 0.496\nsamples = 66\nvalue = [30, 36]"] ;
58 -> 60 ;
61 [label="F4_f <= 0.5\ngini = 0.452\nsamples = 55\nvalue = [19, 36]"] ;
60 -> 61 ;
62 [label="gini = 0.0\nsamples = 6\nvalue = [6, 0]"] ;
61 -> 62 ;
63 [label="F30_t <= 0.5\ngini = 0.39\nsamples = 49\nvalue = [13, 36]"] ;
61 -> 63 ;
64 [label="F22_f <= 0.5\ngini = 0.298\nsamples = 44\nvalue = [8, 36]"] ;
63 -> 64 ;
65 [label="gini = 0.0\nsamples = 4\nvalue = [4, 0]"] ;
64 -> 65 ;
66 [label="F20_f <= 0.5\ngini = 0.18\nsamples = 40\nvalue = [4, 36]"] ;
64 -> 66 ;
67 [label="gini = 0.0\nsamples = 3\nvalue = [3, 0]"] ;
66 -> 67 ;
68 [label="F3_t <= 0.5\ngini = 0.053\nsamples = 37\nvalue = [1, 36]"] ;
66 -> 68 ;
69 [label="gini = 0.0\nsamples = 36\nvalue = [0, 36]"] ;
68 -> 69 ;
70 [label="gini = 0.0\nsamples = 1\nvalue = [1, 0]"] ;
68 -> 70 ;
71 [label="gini = 0.0\nsamples = 5\nvalue = [5, 0]"] ;
63 -> 71 ;
72 [label="gini = 0.0\nsamples = 11\nvalue = [11, 0]"] ;
60 -> 72 ;
73 [label="F34_f <= 0.5\ngini = 0.044\nsamples = 352\nvalue = [344, 8]"] ;
55 -> 73 ;
74 [label="gini = 0.0\nsamples = 291\nvalue = [291, 0]"] ;
73 -> 74 ;
75 [label="F7_t <= 0.5\ngini = 0.228\nsamples = 61\nvalue = [53, 8]"] ;
73 -> 75 ;
76 [label="F4_f <= 0.5\ngini = 0.383\nsamples = 31\nvalue = [23, 8]"] ;
75 -> 76 ;
77 [label="gini = 0.0\nsamples = 13\nvalue = [13, 0]"] ;
76 -> 77 ;
78 [label="F16_f <= 0.5\ngini = 0.494\nsamples = 18\nvalue = [10, 8]"] ;
76 -> 78 ;
79 [label="gini = 0.0\nsamples = 6\nvalue = [6, 0]"] ;
78 -> 79 ;
80 [label="F3_t <= 0.5\ngini = 0.444\nsamples = 12\nvalue = [4, 8]"] ;
78 -> 80 ;
81 [label="gini = 0.0\nsamples = 8\nvalue = [0, 8]"] ;
80 -> 81 ;
82 [label="gini = 0.0\nsamples = 4\nvalue = [4, 0]"] ;
80 -> 82 ;
83 [label="gini = 0.0\nsamples = 30\nvalue = [30, 0]"] ;
75 -> 83 ;
84 [label="gini = 0.0\nsamples = 821\nvalue = [821, 0]"] ;
2 -> 84 ;
}