digraph Tree {
node [shape=box] ;
0 [label="Uniformity of Cell Size_1 <= 0.5\ngini = 0.5\nsamples = 916\nvalue = [458, 458]"] ;
1 [label="Bare Nuclei_1 <= 0.5\ngini = 0.253\nsamples = 526\nvalue = [78, 448]"] ;
0 -> 1 [labeldistance=2.5, labelangle=45, headlabel="True"] ;
2 [label="Uniformity of Cell Shape_1 <= 0.5\ngini = 0.102\nsamples = 443\nvalue = [24, 419]"] ;
1 -> 2 ;
3 [label="Uniformity of Cell Shape_2 <= 0.5\ngini = 0.091\nsamples = 440\nvalue = [21, 419]"] ;
2 -> 3 ;
4 [label="Clump Thickness_4 <= 0.5\ngini = 0.06\nsamples = 420\nvalue = [13, 407]"] ;
3 -> 4 ;
5 [label="Normal Nucleoli_2 <= 0.5\ngini = 0.048\nsamples = 404\nvalue = [10, 394]"] ;
4 -> 5 ;
6 [label="Clump Thickness_6 <= 0.5\ngini = 0.036\nsamples = 385\nvalue = [7, 378]"] ;
5 -> 6 ;
7 [label="Uniformity of Cell Shape_4 <= 0.5\ngini = 0.022\nsamples = 354\nvalue = [4, 350]"] ;
6 -> 7 ;
8 [label="Single Epithelial Cell Size_7 <= 0.5\ngini = 0.013\nsamples = 314\nvalue = [2, 312]"] ;
7 -> 8 ;
9 [label="Normal Nucleoli_4 <= 0.5\ngini = 0.007\nsamples = 298\nvalue = [1, 297]"] ;
8 -> 9 ;
10 [label="gini = 0.0\nsamples = 280\nvalue = [0, 280]"] ;
9 -> 10 ;
11 [label="Marginal Adhesion_1 <= 0.5\ngini = 0.105\nsamples = 18\nvalue = [1, 17]"] ;
9 -> 11 ;
12 [label="gini = 0.0\nsamples = 17\nvalue = [0, 17]"] ;
11 -> 12 ;
13 [label="gini = 0.0\nsamples = 1\nvalue = [1, 0]"] ;
11 -> 13 ;
14 [label="Normal Nucleoli_6 <= 0.5\ngini = 0.117\nsamples = 16\nvalue = [1, 15]"] ;
8 -> 14 ;
15 [label="gini = 0.0\nsamples = 15\nvalue = [0, 15]"] ;
14 -> 15 ;
16 [label="gini = 0.0\nsamples = 1\nvalue = [1, 0]"] ;
14 -> 16 ;
17 [label="Bland Chromatin_7 <= 0.5\ngini = 0.095\nsamples = 40\nvalue = [2, 38]"] ;
7 -> 17 ;
18 [label="Normal Nucleoli_7 <= 0.5\ngini = 0.05\nsamples = 39\nvalue = [1, 38]"] ;
17 -> 18 ;
19 [label="gini = 0.0\nsamples = 38\nvalue = [0, 38]"] ;
18 -> 19 ;
20 [label="gini = 0.0\nsamples = 1\nvalue = [1, 0]"] ;
18 -> 20 ;
21 [label="gini = 0.0\nsamples = 1\nvalue = [1, 0]"] ;
17 -> 21 ;
22 [label="Uniformity of Cell Shape_3 <= 0.5\ngini = 0.175\nsamples = 31\nvalue = [3, 28]"] ;
6 -> 22 ;
23 [label="Normal Nucleoli_7 <= 0.5\ngini = 0.067\nsamples = 29\nvalue = [1, 28]"] ;
22 -> 23 ;
24 [label="gini = 0.0\nsamples = 28\nvalue = [0, 28]"] ;
23 -> 24 ;
25 [label="gini = 0.0\nsamples = 1\nvalue = [1, 0]"] ;
23 -> 25 ;
26 [label="gini = 0.0\nsamples = 2\nvalue = [2, 0]"] ;
22 -> 26 ;
27 [label="Bare Nuclei_2 <= 0.5\ngini = 0.266\nsamples = 19\nvalue = [3, 16]"] ;
5 -> 27 ;
28 [label="Uniformity of Cell Size_9 <= 0.5\ngini = 0.198\nsamples = 18\nvalue = [2, 16]"] ;
27 -> 28 ;
29 [label="Uniformity of Cell Size_4 <= 0.5\ngini = 0.111\nsamples = 17\nvalue = [1, 16]"] ;
28 -> 29 ;
30 [label="gini = 0.0\nsamples = 16\nvalue = [0, 16]"] ;
29 -> 30 ;
31 [label="gini = 0.0\nsamples = 1\nvalue = [1, 0]"] ;
29 -> 31 ;
32 [label="gini = 0.0\nsamples = 1\nvalue = [1, 0]"] ;
28 -> 32 ;
33 [label="gini = 0.0\nsamples = 1\nvalue = [1, 0]"] ;
27 -> 33 ;
34 [label="Uniformity of Cell Shape_4 <= 0.5\ngini = 0.305\nsamples = 16\nvalue = [3, 13]"] ;
4 -> 34 ;
35 [label="gini = 0.0\nsamples = 12\nvalue = [0, 12]"] ;
34 -> 35 ;
36 [label="Marginal Adhesion_7 <= 0.5\ngini = 0.375\nsamples = 4\nvalue = [3, 1]"] ;
34 -> 36 ;
37 [label="gini = 0.0\nsamples = 3\nvalue = [3, 0]"] ;
36 -> 37 ;
38 [label="gini = 0.0\nsamples = 1\nvalue = [0, 1]"] ;
36 -> 38 ;
39 [label="Bland Chromatin_3 <= 0.5\ngini = 0.48\nsamples = 20\nvalue = [8, 12]"] ;
3 -> 39 ;
40 [label="Bland Chromatin_2 <= 0.5\ngini = 0.32\nsamples = 15\nvalue = [3, 12]"] ;
39 -> 40 ;
41 [label="Marginal Adhesion_4 <= 0.5\ngini = 0.142\nsamples = 13\nvalue = [1, 12]"] ;
40 -> 41 ;
42 [label="gini = 0.0\nsamples = 12\nvalue = [0, 12]"] ;
41 -> 42 ;
43 [label="gini = 0.0\nsamples = 1\nvalue = [1, 0]"] ;
41 -> 43 ;
44 [label="gini = 0.0\nsamples = 2\nvalue = [2, 0]"] ;
40 -> 44 ;
45 [label="gini = 0.0\nsamples = 5\nvalue = [5, 0]"] ;
39 -> 45 ;
46 [label="gini = 0.0\nsamples = 3\nvalue = [3, 0]"] ;
2 -> 46 ;
47 [label="Uniformity of Cell Size_10 <= 0.5\ngini = 0.455\nsamples = 83\nvalue = [54, 29]"] ;
1 -> 47 ;
48 [label="Normal Nucleoli_10 <= 0.5\ngini = 0.364\nsamples = 71\nvalue = [54, 17]"] ;
47 -> 48 ;
49 [label="Marginal Adhesion_10 <= 0.5\ngini = 0.264\nsamples = 64\nvalue = [54, 10]"] ;
48 -> 49 ;
50 [label="Clump Thickness_7 <= 0.5\ngini = 0.155\nsamples = 59\nvalue = [54, 5]"] ;
49 -> 50 ;
51 [label="Normal Nucleoli_4 <= 0.5\ngini = 0.1\nsamples = 57\nvalue = [54, 3]"] ;
50 -> 51 ;
52 [label="Single Epithelial Cell Size_10 <= 0.5\ngini = 0.069\nsamples = 56\nvalue = [54, 2]"] ;
51 -> 52 ;
53 [label="Uniformity of Cell Shape_5 <= 0.5\ngini = 0.036\nsamples = 55\nvalue = [54, 1]"] ;
52 -> 53 ;
54 [label="gini = 0.0\nsamples = 52\nvalue = [52, 0]"] ;
53 -> 54 ;
55 [label="Normal Nucleoli_3 <= 0.5\ngini = 0.444\nsamples = 3\nvalue = [2, 1]"] ;
53 -> 55 ;
56 [label="gini = 0.0\nsamples = 2\nvalue = [2, 0]"] ;
55 -> 56 ;
57 [label="gini = 0.0\nsamples = 1\nvalue = [0, 1]"] ;
55 -> 57 ;
58 [label="gini = 0.0\nsamples = 1\nvalue = [0, 1]"] ;
52 -> 58 ;
59 [label="gini = 0.0\nsamples = 1\nvalue = [0, 1]"] ;
51 -> 59 ;
60 [label="gini = 0.0\nsamples = 2\nvalue = [0, 2]"] ;
50 -> 60 ;
61 [label="gini = 0.0\nsamples = 5\nvalue = [0, 5]"] ;
49 -> 61 ;
62 [label="gini = 0.0\nsamples = 7\nvalue = [0, 7]"] ;
48 -> 62 ;
63 [label="gini = 0.0\nsamples = 12\nvalue = [0, 12]"] ;
47 -> 63 ;
64 [label="Bland Chromatin_5 <= 0.5\ngini = 0.05\nsamples = 390\nvalue = [380, 10]"] ;
0 -> 64 [labeldistance=2.5, labelangle=-45, headlabel="False"] ;
65 [label="Bare Nuclei_5 <= 0.5\ngini = 0.021\nsamples = 381\nvalue = [377, 4]"] ;
64 -> 65 ;
66 [label="Clump Thickness_9 <= 0.5\ngini = 0.005\nsamples = 373\nvalue = [372, 1]"] ;
65 -> 66 ;
67 [label="gini = 0.0\nsamples = 372\nvalue = [372, 0]"] ;
66 -> 67 ;
68 [label="gini = 0.0\nsamples = 1\nvalue = [0, 1]"] ;
66 -> 68 ;
69 [label="Clump Thickness_4 <= 0.5\ngini = 0.469\nsamples = 8\nvalue = [5, 3]"] ;
65 -> 69 ;
70 [label="gini = 0.0\nsamples = 5\nvalue = [5, 0]"] ;
69 -> 70 ;
71 [label="gini = 0.0\nsamples = 3\nvalue = [0, 3]"] ;
69 -> 71 ;
72 [label="Clump Thickness_3 <= 0.5\ngini = 0.444\nsamples = 9\nvalue = [3, 6]"] ;
64 -> 72 ;
73 [label="Normal Nucleoli_1 <= 0.5\ngini = 0.245\nsamples = 7\nvalue = [1, 6]"] ;
72 -> 73 ;
74 [label="gini = 0.0\nsamples = 6\nvalue = [0, 6]"] ;
73 -> 74 ;
75 [label="gini = 0.0\nsamples = 1\nvalue = [1, 0]"] ;
73 -> 75 ;
76 [label="gini = 0.0\nsamples = 2\nvalue = [2, 0]"] ;
72 -> 76 ;
}