digraph Tree {
node [shape=box] ;
0 [label="Uniformity of Cell Size_1 <= 0.5\ngini = 0.5\nsamples = 824\nvalue = [412, 412]"] ;
1 [label="Bare Nuclei_1 <= 0.5\ngini = 0.234\nsamples = 465\nvalue = [63, 402]"] ;
0 -> 1 [labeldistance=2.5, labelangle=45, headlabel="True"] ;
2 [label="Uniformity of Cell Shape_1 <= 0.5\ngini = 0.087\nsamples = 394\nvalue = [18, 376]"] ;
1 -> 2 ;
3 [label="Clump Thickness_4 <= 0.5\ngini = 0.074\nsamples = 391\nvalue = [15, 376]"] ;
2 -> 3 ;
4 [label="Bland Chromatin_3 <= 0.5\ngini = 0.057\nsamples = 376\nvalue = [11, 365]"] ;
3 -> 4 ;
5 [label="Marginal Adhesion_3 <= 0.5\ngini = 0.031\nsamples = 313\nvalue = [5, 308]"] ;
4 -> 5 ;
6 [label="Bare Nuclei_7 <= 0.5\ngini = 0.014\nsamples = 278\nvalue = [2, 276]"] ;
5 -> 6 ;
7 [label="Uniformity of Cell Size_2 <= 0.5\ngini = 0.007\nsamples = 274\nvalue = [1, 273]"] ;
6 -> 7 ;
8 [label="gini = 0.0\nsamples = 267\nvalue = [0, 267]"] ;
7 -> 8 ;
9 [label="Bland Chromatin_2 <= 0.5\ngini = 0.245\nsamples = 7\nvalue = [1, 6]"] ;
7 -> 9 ;
10 [label="gini = 0.0\nsamples = 6\nvalue = [0, 6]"] ;
9 -> 10 ;
11 [label="gini = 0.0\nsamples = 1\nvalue = [1, 0]"] ;
9 -> 11 ;
12 [label="Single Epithelial Cell Size_4 <= 0.5\ngini = 0.375\nsamples = 4\nvalue = [1, 3]"] ;
6 -> 12 ;
13 [label="gini = 0.0\nsamples = 3\nvalue = [0, 3]"] ;
12 -> 13 ;
14 [label="gini = 0.0\nsamples = 1\nvalue = [1, 0]"] ;
12 -> 14 ;
15 [label="Normal Nucleoli_6 <= 0.5\ngini = 0.157\nsamples = 35\nvalue = [3, 32]"] ;
5 -> 15 ;
16 [label="Clump Thickness_6 <= 0.5\ngini = 0.111\nsamples = 34\nvalue = [2, 32]"] ;
15 -> 16 ;
17 [label="Normal Nucleoli_7 <= 0.5\ngini = 0.059\nsamples = 33\nvalue = [1, 32]"] ;
16 -> 17 ;
18 [label="gini = 0.0\nsamples = 31\nvalue = [0, 31]"] ;
17 -> 18 ;
19 [label="Bare Nuclei_5 <= 0.5\ngini = 0.5\nsamples = 2\nvalue = [1, 1]"] ;
17 -> 19 ;
20 [label="gini = 0.0\nsamples = 1\nvalue = [0, 1]"] ;
19 -> 20 ;
21 [label="gini = 0.0\nsamples = 1\nvalue = [1, 0]"] ;
19 -> 21 ;
22 [label="gini = 0.0\nsamples = 1\nvalue = [1, 0]"] ;
16 -> 22 ;
23 [label="gini = 0.0\nsamples = 1\nvalue = [1, 0]"] ;
15 -> 23 ;
24 [label="Marginal Adhesion_5 <= 0.5\ngini = 0.172\nsamples = 63\nvalue = [6, 57]"] ;
4 -> 24 ;
25 [label="Normal Nucleoli_7 <= 0.5\ngini = 0.123\nsamples = 61\nvalue = [4, 57]"] ;
24 -> 25 ;
26 [label="Uniformity of Cell Size_7 <= 0.5\ngini = 0.095\nsamples = 60\nvalue = [3, 57]"] ;
25 -> 26 ;
27 [label="Uniformity of Cell Shape_2 <= 0.5\ngini = 0.065\nsamples = 59\nvalue = [2, 57]"] ;
26 -> 27 ;
28 [label="Bare Nuclei_2 <= 0.5\ngini = 0.034\nsamples = 58\nvalue = [1, 57]"] ;
27 -> 28 ;
29 [label="gini = 0.0\nsamples = 54\nvalue = [0, 54]"] ;
28 -> 29 ;
30 [label="Uniformity of Cell Shape_3 <= 0.5\ngini = 0.375\nsamples = 4\nvalue = [1, 3]"] ;
28 -> 30 ;
31 [label="gini = 0.0\nsamples = 3\nvalue = [0, 3]"] ;
30 -> 31 ;
32 [label="gini = 0.0\nsamples = 1\nvalue = [1, 0]"] ;
30 -> 32 ;
33 [label="gini = 0.0\nsamples = 1\nvalue = [1, 0]"] ;
27 -> 33 ;
34 [label="gini = 0.0\nsamples = 1\nvalue = [1, 0]"] ;
26 -> 34 ;
35 [label="gini = 0.0\nsamples = 1\nvalue = [1, 0]"] ;
25 -> 35 ;
36 [label="gini = 0.0\nsamples = 2\nvalue = [2, 0]"] ;
24 -> 36 ;
37 [label="Single Epithelial Cell Size_2 <= 0.5\ngini = 0.391\nsamples = 15\nvalue = [4, 11]"] ;
3 -> 37 ;
38 [label="Uniformity of Cell Size_4 <= 0.5\ngini = 0.153\nsamples = 12\nvalue = [1, 11]"] ;
37 -> 38 ;
39 [label="gini = 0.0\nsamples = 11\nvalue = [0, 11]"] ;
38 -> 39 ;
40 [label="gini = 0.0\nsamples = 1\nvalue = [1, 0]"] ;
38 -> 40 ;
41 [label="gini = 0.0\nsamples = 3\nvalue = [3, 0]"] ;
37 -> 41 ;
42 [label="gini = 0.0\nsamples = 3\nvalue = [3, 0]"] ;
2 -> 42 ;
43 [label="Uniformity of Cell Size_2 <= 0.5\ngini = 0.464\nsamples = 71\nvalue = [45, 26]"] ;
1 -> 43 ;
44 [label="Uniformity of Cell Size_3 <= 0.5\ngini = 0.487\nsamples = 43\nvalue = [18, 25]"] ;
43 -> 44 ;
45 [label="Normal Nucleoli_6 <= 0.5\ngini = 0.278\nsamples = 30\nvalue = [5, 25]"] ;
44 -> 45 ;
46 [label="Uniformity of Cell Shape_3 <= 0.5\ngini = 0.238\nsamples = 29\nvalue = [4, 25]"] ;
45 -> 46 ;
47 [label="Clump Thickness_6 <= 0.5\ngini = 0.191\nsamples = 28\nvalue = [3, 25]"] ;
46 -> 47 ;
48 [label="Single Epithelial Cell Size_3 <= 0.5\ngini = 0.137\nsamples = 27\nvalue = [2, 25]"] ;
47 -> 48 ;
49 [label="Marginal Adhesion_6 <= 0.5\ngini = 0.074\nsamples = 26\nvalue = [1, 25]"] ;
48 -> 49 ;
50 [label="gini = 0.0\nsamples = 24\nvalue = [0, 24]"] ;
49 -> 50 ;
51 [label="Bland Chromatin_4 <= 0.5\ngini = 0.5\nsamples = 2\nvalue = [1, 1]"] ;
49 -> 51 ;
52 [label="gini = 0.0\nsamples = 1\nvalue = [0, 1]"] ;
51 -> 52 ;
53 [label="gini = 0.0\nsamples = 1\nvalue = [1, 0]"] ;
51 -> 53 ;
54 [label="gini = 0.0\nsamples = 1\nvalue = [1, 0]"] ;
48 -> 54 ;
55 [label="gini = 0.0\nsamples = 1\nvalue = [1, 0]"] ;
47 -> 55 ;
56 [label="gini = 0.0\nsamples = 1\nvalue = [1, 0]"] ;
46 -> 56 ;
57 [label="gini = 0.0\nsamples = 1\nvalue = [1, 0]"] ;
45 -> 57 ;
58 [label="gini = 0.0\nsamples = 13\nvalue = [13, 0]"] ;
44 -> 58 ;
59 [label="Mitoses_4 <= 0.5\ngini = 0.069\nsamples = 28\nvalue = [27, 1]"] ;
43 -> 59 ;
60 [label="gini = 0.0\nsamples = 27\nvalue = [27, 0]"] ;
59 -> 60 ;
61 [label="gini = 0.0\nsamples = 1\nvalue = [0, 1]"] ;
59 -> 61 ;
62 [label="Bland Chromatin_5 <= 0.5\ngini = 0.054\nsamples = 359\nvalue = [349, 10]"] ;
0 -> 62 [labeldistance=2.5, labelangle=-45, headlabel="False"] ;
63 [label="Bare Nuclei_5 <= 0.5\ngini = 0.023\nsamples = 350\nvalue = [346, 4]"] ;
62 -> 63 ;
64 [label="Normal Nucleoli_7 <= 0.5\ngini = 0.006\nsamples = 343\nvalue = [342, 1]"] ;
63 -> 64 ;
65 [label="gini = 0.0\nsamples = 342\nvalue = [342, 0]"] ;
64 -> 65 ;
66 [label="gini = 0.0\nsamples = 1\nvalue = [0, 1]"] ;
64 -> 66 ;
67 [label="Marginal Adhesion_3 <= 0.5\ngini = 0.49\nsamples = 7\nvalue = [4, 3]"] ;
63 -> 67 ;
68 [label="gini = 0.0\nsamples = 4\nvalue = [4, 0]"] ;
67 -> 68 ;
69 [label="gini = 0.0\nsamples = 3\nvalue = [0, 3]"] ;
67 -> 69 ;
70 [label="Clump Thickness_3 <= 0.5\ngini = 0.444\nsamples = 9\nvalue = [3, 6]"] ;
62 -> 70 ;
71 [label="Clump Thickness_1 <= 0.5\ngini = 0.245\nsamples = 7\nvalue = [1, 6]"] ;
70 -> 71 ;
72 [label="gini = 0.0\nsamples = 6\nvalue = [0, 6]"] ;
71 -> 72 ;
73 [label="gini = 0.0\nsamples = 1\nvalue = [1, 0]"] ;
71 -> 73 ;
74 [label="gini = 0.0\nsamples = 2\nvalue = [2, 0]"] ;
70 -> 74 ;
}