digraph Tree {
node [shape=box] ;
0 [label="Uniformity of Cell Size_1 <= 0.5\ngini = 0.5\nsamples = 824\nvalue = [412, 412]"] ;
1 [label="Bare Nuclei_1 <= 0.5\ngini = 0.262\nsamples = 478\nvalue = [74, 404]"] ;
0 -> 1 [labeldistance=2.5, labelangle=45, headlabel="True"] ;
2 [label="Uniformity of Cell Shape_2 <= 0.5\ngini = 0.112\nsamples = 403\nvalue = [24, 379]"] ;
1 -> 2 ;
3 [label="Uniformity of Cell Shape_1 <= 0.5\ngini = 0.079\nsamples = 387\nvalue = [16, 371]"] ;
2 -> 3 ;
4 [label="Bare Nuclei_2 <= 0.5\ngini = 0.065\nsamples = 384\nvalue = [13, 371]"] ;
3 -> 4 ;
5 [label="Uniformity of Cell Shape_4 <= 0.5\ngini = 0.052\nsamples = 372\nvalue = [10, 362]"] ;
4 -> 5 ;
6 [label="Clump Thickness_6 <= 0.5\ngini = 0.03\nsamples = 323\nvalue = [5, 318]"] ;
5 -> 6 ;
7 [label="Bare Nuclei_3 <= 0.5\ngini = 0.013\nsamples = 298\nvalue = [2, 296]"] ;
6 -> 7 ;
8 [label="Normal Nucleoli_4 <= 0.5\ngini = 0.007\nsamples = 283\nvalue = [1, 282]"] ;
7 -> 8 ;
9 [label="gini = 0.0\nsamples = 267\nvalue = [0, 267]"] ;
8 -> 9 ;
10 [label="Marginal Adhesion_1 <= 0.5\ngini = 0.117\nsamples = 16\nvalue = [1, 15]"] ;
8 -> 10 ;
11 [label="gini = 0.0\nsamples = 15\nvalue = [0, 15]"] ;
10 -> 11 ;
12 [label="gini = 0.0\nsamples = 1\nvalue = [1, 0]"] ;
10 -> 12 ;
13 [label="Clump Thickness_3 <= 0.5\ngini = 0.124\nsamples = 15\nvalue = [1, 14]"] ;
7 -> 13 ;
14 [label="gini = 0.0\nsamples = 14\nvalue = [0, 14]"] ;
13 -> 14 ;
15 [label="gini = 0.0\nsamples = 1\nvalue = [1, 0]"] ;
13 -> 15 ;
16 [label="Bland Chromatin_3 <= 0.5\ngini = 0.211\nsamples = 25\nvalue = [3, 22]"] ;
6 -> 16 ;
17 [label="Single Epithelial Cell Size_5 <= 0.5\ngini = 0.087\nsamples = 22\nvalue = [1, 21]"] ;
16 -> 17 ;
18 [label="gini = 0.0\nsamples = 21\nvalue = [0, 21]"] ;
17 -> 18 ;
19 [label="gini = 0.0\nsamples = 1\nvalue = [1, 0]"] ;
17 -> 19 ;
20 [label="Uniformity of Cell Size_5 <= 0.5\ngini = 0.444\nsamples = 3\nvalue = [2, 1]"] ;
16 -> 20 ;
21 [label="gini = 0.0\nsamples = 2\nvalue = [2, 0]"] ;
20 -> 21 ;
22 [label="gini = 0.0\nsamples = 1\nvalue = [0, 1]"] ;
20 -> 22 ;
23 [label="Marginal Adhesion_5 <= 0.5\ngini = 0.183\nsamples = 49\nvalue = [5, 44]"] ;
5 -> 23 ;
24 [label="Bare Nuclei_5 <= 0.5\ngini = 0.122\nsamples = 46\nvalue = [3, 43]"] ;
23 -> 24 ;
25 [label="Marginal Adhesion_2 <= 0.5\ngini = 0.045\nsamples = 43\nvalue = [1, 42]"] ;
24 -> 25 ;
26 [label="gini = 0.0\nsamples = 42\nvalue = [0, 42]"] ;
25 -> 26 ;
27 [label="gini = 0.0\nsamples = 1\nvalue = [1, 0]"] ;
25 -> 27 ;
28 [label="Single Epithelial Cell Size_2 <= 0.5\ngini = 0.444\nsamples = 3\nvalue = [2, 1]"] ;
24 -> 28 ;
29 [label="gini = 0.0\nsamples = 2\nvalue = [2, 0]"] ;
28 -> 29 ;
30 [label="gini = 0.0\nsamples = 1\nvalue = [0, 1]"] ;
28 -> 30 ;
31 [label="Clump Thickness_10 <= 0.5\ngini = 0.444\nsamples = 3\nvalue = [2, 1]"] ;
23 -> 31 ;
32 [label="gini = 0.0\nsamples = 2\nvalue = [2, 0]"] ;
31 -> 32 ;
33 [label="gini = 0.0\nsamples = 1\nvalue = [0, 1]"] ;
31 -> 33 ;
34 [label="Uniformity of Cell Shape_3 <= 0.5\ngini = 0.375\nsamples = 12\nvalue = [3, 9]"] ;
4 -> 34 ;
35 [label="Clump Thickness_4 <= 0.5\ngini = 0.18\nsamples = 10\nvalue = [1, 9]"] ;
34 -> 35 ;
36 [label="gini = 0.0\nsamples = 9\nvalue = [0, 9]"] ;
35 -> 36 ;
37 [label="gini = 0.0\nsamples = 1\nvalue = [1, 0]"] ;
35 -> 37 ;
38 [label="gini = 0.0\nsamples = 2\nvalue = [2, 0]"] ;
34 -> 38 ;
39 [label="gini = 0.0\nsamples = 3\nvalue = [3, 0]"] ;
3 -> 39 ;
40 [label="Bland Chromatin_3 <= 0.5\ngini = 0.5\nsamples = 16\nvalue = [8, 8]"] ;
2 -> 40 ;
41 [label="Bland Chromatin_2 <= 0.5\ngini = 0.397\nsamples = 11\nvalue = [3, 8]"] ;
40 -> 41 ;
42 [label="Marginal Adhesion_4 <= 0.5\ngini = 0.198\nsamples = 9\nvalue = [1, 8]"] ;
41 -> 42 ;
43 [label="gini = 0.0\nsamples = 8\nvalue = [0, 8]"] ;
42 -> 43 ;
44 [label="gini = 0.0\nsamples = 1\nvalue = [1, 0]"] ;
42 -> 44 ;
45 [label="gini = 0.0\nsamples = 2\nvalue = [2, 0]"] ;
41 -> 45 ;
46 [label="gini = 0.0\nsamples = 5\nvalue = [5, 0]"] ;
40 -> 46 ;
47 [label="Uniformity of Cell Size_10 <= 0.5\ngini = 0.444\nsamples = 75\nvalue = [50, 25]"] ;
1 -> 47 ;
48 [label="Normal Nucleoli_10 <= 0.5\ngini = 0.342\nsamples = 64\nvalue = [50, 14]"] ;
47 -> 48 ;
49 [label="Marginal Adhesion_10 <= 0.5\ngini = 0.259\nsamples = 59\nvalue = [50, 9]"] ;
48 -> 49 ;
50 [label="Marginal Adhesion_4 <= 0.5\ngini = 0.165\nsamples = 55\nvalue = [50, 5]"] ;
49 -> 50 ;
51 [label="Bland Chromatin_5 <= 0.5\ngini = 0.107\nsamples = 53\nvalue = [50, 3]"] ;
50 -> 51 ;
52 [label="Single Epithelial Cell Size_10 <= 0.5\ngini = 0.074\nsamples = 52\nvalue = [50, 2]"] ;
51 -> 52 ;
53 [label="Clump Thickness_8 <= 0.5\ngini = 0.038\nsamples = 51\nvalue = [50, 1]"] ;
52 -> 53 ;
54 [label="gini = 0.0\nsamples = 48\nvalue = [48, 0]"] ;
53 -> 54 ;
55 [label="Bland Chromatin_7 <= 0.5\ngini = 0.444\nsamples = 3\nvalue = [2, 1]"] ;
53 -> 55 ;
56 [label="gini = 0.0\nsamples = 2\nvalue = [2, 0]"] ;
55 -> 56 ;
57 [label="gini = 0.0\nsamples = 1\nvalue = [0, 1]"] ;
55 -> 57 ;
58 [label="gini = 0.0\nsamples = 1\nvalue = [0, 1]"] ;
52 -> 58 ;
59 [label="gini = 0.0\nsamples = 1\nvalue = [0, 1]"] ;
51 -> 59 ;
60 [label="gini = 0.0\nsamples = 2\nvalue = [0, 2]"] ;
50 -> 60 ;
61 [label="gini = 0.0\nsamples = 4\nvalue = [0, 4]"] ;
49 -> 61 ;
62 [label="gini = 0.0\nsamples = 5\nvalue = [0, 5]"] ;
48 -> 62 ;
63 [label="gini = 0.0\nsamples = 11\nvalue = [0, 11]"] ;
47 -> 63 ;
64 [label="Normal Nucleoli_10 <= 0.5\ngini = 0.045\nsamples = 346\nvalue = [338, 8]"] ;
0 -> 64 [labeldistance=2.5, labelangle=-45, headlabel="False"] ;
65 [label="Bare Nuclei_10 <= 0.5\ngini = 0.029\nsamples = 343\nvalue = [338, 5]"] ;
64 -> 65 ;
66 [label="Bare Nuclei_5 <= 0.5\ngini = 0.017\nsamples = 340\nvalue = [337, 3]"] ;
65 -> 66 ;
67 [label="gini = 0.0\nsamples = 331\nvalue = [331, 0]"] ;
66 -> 67 ;
68 [label="Single Epithelial Cell Size_1 <= 0.5\ngini = 0.444\nsamples = 9\nvalue = [6, 3]"] ;
66 -> 68 ;
69 [label="gini = 0.0\nsamples = 6\nvalue = [6, 0]"] ;
68 -> 69 ;
70 [label="gini = 0.0\nsamples = 3\nvalue = [0, 3]"] ;
68 -> 70 ;
71 [label="Bland Chromatin_3 <= 0.5\ngini = 0.444\nsamples = 3\nvalue = [1, 2]"] ;
65 -> 71 ;
72 [label="gini = 0.0\nsamples = 2\nvalue = [0, 2]"] ;
71 -> 72 ;
73 [label="gini = 0.0\nsamples = 1\nvalue = [1, 0]"] ;
71 -> 73 ;
74 [label="gini = 0.0\nsamples = 3\nvalue = [0, 3]"] ;
64 -> 74 ;
}