digraph Tree {
node [shape=box] ;
0 [label="middle-middle-square_o <= 0.5\ngini = 0.5\nsamples = 1126\nvalue = [563, 563]"] ;
1 [label="top-left-square_o <= 0.5\ngini = 0.455\nsamples = 653\nvalue = [229, 424]"] ;
0 -> 1 [labeldistance=2.5, labelangle=45, headlabel="True"] ;
2 [label="bottom-right-square_o <= 0.5\ngini = 0.369\nsamples = 426\nvalue = [104, 322]"] ;
1 -> 2 ;
3 [label="gini = 0.0\nsamples = 216\nvalue = [0, 216]"] ;
2 -> 3 ;
4 [label="bottom-left-square_o <= 0.5\ngini = 0.5\nsamples = 210\nvalue = [104, 106]"] ;
2 -> 4 ;
5 [label="top-right-square_o <= 0.5\ngini = 0.462\nsamples = 124\nvalue = [45, 79]"] ;
4 -> 5 ;
6 [label="gini = 0.0\nsamples = 60\nvalue = [0, 60]"] ;
5 -> 6 ;
7 [label="middle-right-square_o <= 0.5\ngini = 0.417\nsamples = 64\nvalue = [45, 19]"] ;
5 -> 7 ;
8 [label="middle-left-square_o <= 0.5\ngini = 0.095\nsamples = 20\nvalue = [1, 19]"] ;
7 -> 8 ;
9 [label="gini = 0.0\nsamples = 16\nvalue = [0, 16]"] ;
8 -> 9 ;
10 [label="top-middle-square_o <= 0.5\ngini = 0.375\nsamples = 4\nvalue = [1, 3]"] ;
8 -> 10 ;
11 [label="gini = 0.0\nsamples = 3\nvalue = [0, 3]"] ;
10 -> 11 ;
12 [label="gini = 0.0\nsamples = 1\nvalue = [1, 0]"] ;
10 -> 12 ;
13 [label="gini = 0.0\nsamples = 44\nvalue = [44, 0]"] ;
7 -> 13 ;
14 [label="bottom-middle-square_o <= 0.5\ngini = 0.431\nsamples = 86\nvalue = [59, 27]"] ;
4 -> 14 ;
15 [label="middle-right-square_o <= 0.5\ngini = 0.327\nsamples = 34\nvalue = [7, 27]"] ;
14 -> 15 ;
16 [label="top-middle-square_o <= 0.5\ngini = 0.091\nsamples = 21\nvalue = [1, 20]"] ;
15 -> 16 ;
17 [label="gini = 0.0\nsamples = 16\nvalue = [0, 16]"] ;
16 -> 17 ;
18 [label="middle-left-square_x <= 0.5\ngini = 0.32\nsamples = 5\nvalue = [1, 4]"] ;
16 -> 18 ;
19 [label="gini = 0.0\nsamples = 1\nvalue = [1, 0]"] ;
18 -> 19 ;
20 [label="gini = 0.0\nsamples = 4\nvalue = [0, 4]"] ;
18 -> 20 ;
21 [label="top-right-square_o <= 0.5\ngini = 0.497\nsamples = 13\nvalue = [6, 7]"] ;
15 -> 21 ;
22 [label="gini = 0.0\nsamples = 7\nvalue = [0, 7]"] ;
21 -> 22 ;
23 [label="gini = 0.0\nsamples = 6\nvalue = [6, 0]"] ;
21 -> 23 ;
24 [label="gini = 0.0\nsamples = 52\nvalue = [52, 0]"] ;
14 -> 24 ;
25 [label="top-right-square_o <= 0.5\ngini = 0.495\nsamples = 227\nvalue = [125, 102]"] ;
1 -> 25 ;
26 [label="bottom-left-square_o <= 0.5\ngini = 0.467\nsamples = 143\nvalue = [53, 90]"] ;
25 -> 26 ;
27 [label="gini = 0.0\nsamples = 74\nvalue = [0, 74]"] ;
26 -> 27 ;
28 [label="middle-left-square_o <= 0.5\ngini = 0.356\nsamples = 69\nvalue = [53, 16]"] ;
26 -> 28 ;
29 [label="top-middle-square_x <= 0.5\ngini = 0.363\nsamples = 21\nvalue = [5, 16]"] ;
28 -> 29 ;
30 [label="middle-right-square_o <= 0.5\ngini = 0.133\nsamples = 14\nvalue = [1, 13]"] ;
29 -> 30 ;
31 [label="gini = 0.0\nsamples = 13\nvalue = [0, 13]"] ;
30 -> 31 ;
32 [label="gini = 0.0\nsamples = 1\nvalue = [1, 0]"] ;
30 -> 32 ;
33 [label="bottom-middle-square_o <= 0.5\ngini = 0.49\nsamples = 7\nvalue = [4, 3]"] ;
29 -> 33 ;
34 [label="gini = 0.0\nsamples = 3\nvalue = [0, 3]"] ;
33 -> 34 ;
35 [label="gini = 0.0\nsamples = 4\nvalue = [4, 0]"] ;
33 -> 35 ;
36 [label="gini = 0.0\nsamples = 48\nvalue = [48, 0]"] ;
28 -> 36 ;
37 [label="top-middle-square_b <= 0.5\ngini = 0.245\nsamples = 84\nvalue = [72, 12]"] ;
25 -> 37 ;
38 [label="gini = 0.0\nsamples = 68\nvalue = [68, 0]"] ;
37 -> 38 ;
39 [label="bottom-middle-square_x <= 0.5\ngini = 0.375\nsamples = 16\nvalue = [4, 12]"] ;
37 -> 39 ;
40 [label="gini = 0.0\nsamples = 5\nvalue = [0, 5]"] ;
39 -> 40 ;
41 [label="middle-middle-square_b <= 0.5\ngini = 0.463\nsamples = 11\nvalue = [4, 7]"] ;
39 -> 41 ;
42 [label="bottom-right-square_b <= 0.5\ngini = 0.5\nsamples = 8\nvalue = [4, 4]"] ;
41 -> 42 ;
43 [label="bottom-left-square_o <= 0.5\ngini = 0.49\nsamples = 7\nvalue = [4, 3]"] ;
42 -> 43 ;
44 [label="bottom-right-square_o <= 0.5\ngini = 0.48\nsamples = 5\nvalue = [2, 3]"] ;
43 -> 44 ;
45 [label="gini = 0.0\nsamples = 2\nvalue = [0, 2]"] ;
44 -> 45 ;
46 [label="middle-right-square_x <= 0.5\ngini = 0.444\nsamples = 3\nvalue = [2, 1]"] ;
44 -> 46 ;
47 [label="gini = 0.0\nsamples = 2\nvalue = [2, 0]"] ;
46 -> 47 ;
48 [label="gini = 0.0\nsamples = 1\nvalue = [0, 1]"] ;
46 -> 48 ;
49 [label="gini = 0.0\nsamples = 2\nvalue = [2, 0]"] ;
43 -> 49 ;
50 [label="gini = 0.0\nsamples = 1\nvalue = [0, 1]"] ;
42 -> 50 ;
51 [label="gini = 0.0\nsamples = 3\nvalue = [0, 3]"] ;
41 -> 51 ;
52 [label="top-left-square_x <= 0.5\ngini = 0.415\nsamples = 473\nvalue = [334, 139]"] ;
0 -> 52 [labeldistance=2.5, labelangle=-45, headlabel="False"] ;
53 [label="bottom-right-square_x <= 0.5\ngini = 0.337\nsamples = 242\nvalue = [190, 52]"] ;
52 -> 53 ;
54 [label="gini = 0.0\nsamples = 126\nvalue = [126, 0]"] ;
53 -> 54 ;
55 [label="top-middle-square_b <= 0.5\ngini = 0.495\nsamples = 116\nvalue = [64, 52]"] ;
53 -> 55 ;
56 [label="middle-left-square_x <= 0.5\ngini = 0.433\nsamples = 85\nvalue = [58, 27]"] ;
55 -> 56 ;
57 [label="top-middle-square_o <= 0.5\ngini = 0.494\nsamples = 47\nvalue = [26, 21]"] ;
56 -> 57 ;
58 [label="middle-right-square_x <= 0.5\ngini = 0.358\nsamples = 30\nvalue = [23, 7]"] ;
57 -> 58 ;
59 [label="top-right-square_o <= 0.5\ngini = 0.18\nsamples = 20\nvalue = [18, 2]"] ;
58 -> 59 ;
60 [label="gini = 0.0\nsamples = 16\nvalue = [16, 0]"] ;
59 -> 60 ;
61 [label="bottom-left-square_x <= 0.5\ngini = 0.5\nsamples = 4\nvalue = [2, 2]"] ;
59 -> 61 ;
62 [label="gini = 0.0\nsamples = 2\nvalue = [2, 0]"] ;
61 -> 62 ;
63 [label="gini = 0.0\nsamples = 2\nvalue = [0, 2]"] ;
61 -> 63 ;
64 [label="top-right-square_x <= 0.5\ngini = 0.5\nsamples = 10\nvalue = [5, 5]"] ;
58 -> 64 ;
65 [label="gini = 0.0\nsamples = 5\nvalue = [5, 0]"] ;
64 -> 65 ;
66 [label="gini = 0.0\nsamples = 5\nvalue = [0, 5]"] ;
64 -> 66 ;
67 [label="bottom-middle-square_o <= 0.5\ngini = 0.291\nsamples = 17\nvalue = [3, 14]"] ;
57 -> 67 ;
68 [label="gini = 0.0\nsamples = 14\nvalue = [0, 14]"] ;
67 -> 68 ;
69 [label="gini = 0.0\nsamples = 3\nvalue = [3, 0]"] ;
67 -> 69 ;
70 [label="bottom-middle-square_x <= 0.5\ngini = 0.266\nsamples = 38\nvalue = [32, 6]"] ;
56 -> 70 ;
71 [label="bottom-left-square_o <= 0.5\ngini = 0.137\nsamples = 27\nvalue = [25, 2]"] ;
70 -> 71 ;
72 [label="gini = 0.0\nsamples = 19\nvalue = [19, 0]"] ;
71 -> 72 ;
73 [label="top-right-square_x <= 0.5\ngini = 0.375\nsamples = 8\nvalue = [6, 2]"] ;
71 -> 73 ;
74 [label="gini = 0.0\nsamples = 6\nvalue = [6, 0]"] ;
73 -> 74 ;
75 [label="gini = 0.0\nsamples = 2\nvalue = [0, 2]"] ;
73 -> 75 ;
76 [label="bottom-left-square_x <= 0.5\ngini = 0.463\nsamples = 11\nvalue = [7, 4]"] ;
70 -> 76 ;
77 [label="gini = 0.0\nsamples = 7\nvalue = [7, 0]"] ;
76 -> 77 ;
78 [label="gini = 0.0\nsamples = 4\nvalue = [0, 4]"] ;
76 -> 78 ;
79 [label="middle-left-square_b <= 0.5\ngini = 0.312\nsamples = 31\nvalue = [6, 25]"] ;
55 -> 79 ;
80 [label="middle-right-square_o <= 0.5\ngini = 0.408\nsamples = 21\nvalue = [6, 15]"] ;
79 -> 80 ;
81 [label="top-right-square_o <= 0.5\ngini = 0.305\nsamples = 16\nvalue = [3, 13]"] ;
80 -> 81 ;
82 [label="gini = 0.0\nsamples = 11\nvalue = [0, 11]"] ;
81 -> 82 ;
83 [label="bottom-left-square_x <= 0.5\ngini = 0.48\nsamples = 5\nvalue = [3, 2]"] ;
81 -> 83 ;
84 [label="gini = 0.0\nsamples = 3\nvalue = [3, 0]"] ;
83 -> 84 ;
85 [label="gini = 0.0\nsamples = 2\nvalue = [0, 2]"] ;
83 -> 85 ;
86 [label="top-right-square_x <= 0.5\ngini = 0.48\nsamples = 5\nvalue = [3, 2]"] ;
80 -> 86 ;
87 [label="gini = 0.0\nsamples = 2\nvalue = [0, 2]"] ;
86 -> 87 ;
88 [label="gini = 0.0\nsamples = 3\nvalue = [3, 0]"] ;
86 -> 88 ;
89 [label="gini = 0.0\nsamples = 10\nvalue = [0, 10]"] ;
79 -> 89 ;
90 [label="bottom-left-square_x <= 0.5\ngini = 0.47\nsamples = 231\nvalue = [144, 87]"] ;
52 -> 90 ;
91 [label="top-right-square_x <= 0.5\ngini = 0.389\nsamples = 140\nvalue = [103, 37]"] ;
90 -> 91 ;
92 [label="gini = 0.0\nsamples = 80\nvalue = [80, 0]"] ;
91 -> 92 ;
93 [label="top-middle-square_x <= 0.5\ngini = 0.473\nsamples = 60\nvalue = [23, 37]"] ;
91 -> 93 ;
94 [label="middle-right-square_x <= 0.5\ngini = 0.328\nsamples = 29\nvalue = [23, 6]"] ;
93 -> 94 ;
95 [label="gini = 0.0\nsamples = 15\nvalue = [15, 0]"] ;
94 -> 95 ;
96 [label="bottom-right-square_x <= 0.5\ngini = 0.49\nsamples = 14\nvalue = [8, 6]"] ;
94 -> 96 ;
97 [label="gini = 0.0\nsamples = 8\nvalue = [8, 0]"] ;
96 -> 97 ;
98 [label="gini = 0.0\nsamples = 6\nvalue = [0, 6]"] ;
96 -> 98 ;
99 [label="gini = 0.0\nsamples = 31\nvalue = [0, 31]"] ;
93 -> 99 ;
100 [label="middle-left-square_x <= 0.5\ngini = 0.495\nsamples = 91\nvalue = [41, 50]"] ;
90 -> 100 ;
101 [label="middle-right-square_b <= 0.5\ngini = 0.35\nsamples = 53\nvalue = [41, 12]"] ;
100 -> 101 ;
102 [label="middle-left-square_o <= 0.5\ngini = 0.245\nsamples = 42\nvalue = [36, 6]"] ;
101 -> 102 ;
103 [label="middle-right-square_x <= 0.5\ngini = 0.463\nsamples = 11\nvalue = [7, 4]"] ;
102 -> 103 ;
104 [label="top-right-square_b <= 0.5\ngini = 0.5\nsamples = 8\nvalue = [4, 4]"] ;
103 -> 104 ;
105 [label="top-middle-square_o <= 0.5\ngini = 0.49\nsamples = 7\nvalue = [4, 3]"] ;
104 -> 105 ;
106 [label="top-right-square_x <= 0.5\ngini = 0.48\nsamples = 5\nvalue = [2, 3]"] ;
105 -> 106 ;
107 [label="top-middle-square_x <= 0.5\ngini = 0.444\nsamples = 3\nvalue = [2, 1]"] ;
106 -> 107 ;
108 [label="gini = 0.0\nsamples = 1\nvalue = [0, 1]"] ;
107 -> 108 ;
109 [label="gini = 0.0\nsamples = 2\nvalue = [2, 0]"] ;
107 -> 109 ;
110 [label="gini = 0.0\nsamples = 2\nvalue = [0, 2]"] ;
106 -> 110 ;
111 [label="gini = 0.0\nsamples = 2\nvalue = [2, 0]"] ;
105 -> 111 ;
112 [label="gini = 0.0\nsamples = 1\nvalue = [0, 1]"] ;
104 -> 112 ;
113 [label="gini = 0.0\nsamples = 3\nvalue = [3, 0]"] ;
103 -> 113 ;
114 [label="middle-right-square_o <= 0.5\ngini = 0.121\nsamples = 31\nvalue = [29, 2]"] ;
102 -> 114 ;
115 [label="bottom-right-square_b <= 0.5\ngini = 0.346\nsamples = 9\nvalue = [7, 2]"] ;
114 -> 115 ;
116 [label="top-right-square_b <= 0.5\ngini = 0.444\nsamples = 6\nvalue = [4, 2]"] ;
115 -> 116 ;
117 [label="bottom-right-square_x <= 0.5\ngini = 0.48\nsamples = 5\nvalue = [3, 2]"] ;
116 -> 117 ;
118 [label="bottom-middle-square_o <= 0.5\ngini = 0.375\nsamples = 4\nvalue = [3, 1]"] ;
117 -> 118 ;
119 [label="gini = 0.0\nsamples = 3\nvalue = [3, 0]"] ;
118 -> 119 ;
120 [label="gini = 0.0\nsamples = 1\nvalue = [0, 1]"] ;
118 -> 120 ;
121 [label="gini = 0.0\nsamples = 1\nvalue = [0, 1]"] ;
117 -> 121 ;
122 [label="gini = 0.0\nsamples = 1\nvalue = [1, 0]"] ;
116 -> 122 ;
123 [label="gini = 0.0\nsamples = 3\nvalue = [3, 0]"] ;
115 -> 123 ;
124 [label="gini = 0.0\nsamples = 22\nvalue = [22, 0]"] ;
114 -> 124 ;
125 [label="bottom-middle-square_o <= 0.5\ngini = 0.496\nsamples = 11\nvalue = [5, 6]"] ;
101 -> 125 ;
126 [label="gini = 0.0\nsamples = 4\nvalue = [0, 4]"] ;
125 -> 126 ;
127 [label="top-middle-square_o <= 0.5\ngini = 0.408\nsamples = 7\nvalue = [5, 2]"] ;
125 -> 127 ;
128 [label="gini = 0.0\nsamples = 2\nvalue = [0, 2]"] ;
127 -> 128 ;
129 [label="gini = 0.0\nsamples = 5\nvalue = [5, 0]"] ;
127 -> 129 ;
130 [label="gini = 0.0\nsamples = 38\nvalue = [0, 38]"] ;
100 -> 130 ;
}