digraph Tree {
node [shape=box] ;
0 [label="a5_4 <= 0.5\ngini = 0.5\nsamples = 520\nvalue = [260, 260]"] ;
1 [label="a2_3 <= 0.5\ngini = 0.434\nsamples = 380\nvalue = [121, 259]"] ;
0 -> 1 [labeldistance=2.5, labelangle=45, headlabel="True"] ;
2 [label="a5_3 <= 0.5\ngini = 0.039\nsamples = 250\nvalue = [5, 245]"] ;
1 -> 2 ;
3 [label="a4_2 <= 0.5\ngini = 0.012\nsamples = 170\nvalue = [1, 169]"] ;
2 -> 3 ;
4 [label="gini = 0.0\nsamples = 116\nvalue = [0, 116]"] ;
3 -> 4 ;
5 [label="a1_2 <= 0.5\ngini = 0.036\nsamples = 54\nvalue = [1, 53]"] ;
3 -> 5 ;
6 [label="gini = 0.0\nsamples = 33\nvalue = [0, 33]"] ;
5 -> 6 ;
7 [label="a5_2 <= 0.5\ngini = 0.091\nsamples = 21\nvalue = [1, 20]"] ;
5 -> 7 ;
8 [label="gini = 0.0\nsamples = 12\nvalue = [0, 12]"] ;
7 -> 8 ;
9 [label="a6_2 <= 0.5\ngini = 0.198\nsamples = 9\nvalue = [1, 8]"] ;
7 -> 9 ;
10 [label="a2_2 <= 0.5\ngini = 0.32\nsamples = 5\nvalue = [1, 4]"] ;
9 -> 10 ;
11 [label="gini = 0.0\nsamples = 2\nvalue = [0, 2]"] ;
10 -> 11 ;
12 [label="a3_2 <= 0.5\ngini = 0.444\nsamples = 3\nvalue = [1, 2]"] ;
10 -> 12 ;
13 [label="gini = 0.5\nsamples = 2\nvalue = [1, 1]"] ;
12 -> 13 ;
14 [label="gini = 0.0\nsamples = 1\nvalue = [0, 1]"] ;
12 -> 14 ;
15 [label="gini = 0.0\nsamples = 4\nvalue = [0, 4]"] ;
9 -> 15 ;
16 [label="a3_2 <= 0.5\ngini = 0.095\nsamples = 80\nvalue = [4, 76]"] ;
2 -> 16 ;
17 [label="a1_3 <= 0.5\ngini = 0.172\nsamples = 42\nvalue = [4, 38]"] ;
16 -> 17 ;
18 [label="a6_2 <= 0.5\ngini = 0.219\nsamples = 32\nvalue = [4, 28]"] ;
17 -> 18 ;
19 [label="a2_1 <= 0.5\ngini = 0.305\nsamples = 16\nvalue = [3, 13]"] ;
18 -> 19 ;
20 [label="a4_1 <= 0.5\ngini = 0.346\nsamples = 9\nvalue = [2, 7]"] ;
19 -> 20 ;
21 [label="a1_1 <= 0.5\ngini = 0.444\nsamples = 6\nvalue = [2, 4]"] ;
20 -> 21 ;
22 [label="a4_3 <= 0.5\ngini = 0.444\nsamples = 3\nvalue = [1, 2]"] ;
21 -> 22 ;
23 [label="gini = 0.0\nsamples = 1\nvalue = [0, 1]"] ;
22 -> 23 ;
24 [label="gini = 0.5\nsamples = 2\nvalue = [1, 1]"] ;
22 -> 24 ;
25 [label="a4_3 <= 0.5\ngini = 0.444\nsamples = 3\nvalue = [1, 2]"] ;
21 -> 25 ;
26 [label="gini = 0.5\nsamples = 2\nvalue = [1, 1]"] ;
25 -> 26 ;
27 [label="gini = 0.0\nsamples = 1\nvalue = [0, 1]"] ;
25 -> 27 ;
28 [label="gini = 0.0\nsamples = 3\nvalue = [0, 3]"] ;
20 -> 28 ;
29 [label="a4_1 <= 0.5\ngini = 0.245\nsamples = 7\nvalue = [1, 6]"] ;
19 -> 29 ;
30 [label="gini = 0.0\nsamples = 4\nvalue = [0, 4]"] ;
29 -> 30 ;
31 [label="a1_2 <= 0.5\ngini = 0.444\nsamples = 3\nvalue = [1, 2]"] ;
29 -> 31 ;
32 [label="gini = 0.5\nsamples = 2\nvalue = [1, 1]"] ;
31 -> 32 ;
33 [label="gini = 0.0\nsamples = 1\nvalue = [0, 1]"] ;
31 -> 33 ;
34 [label="a4_3 <= 0.5\ngini = 0.117\nsamples = 16\nvalue = [1, 15]"] ;
18 -> 34 ;
35 [label="gini = 0.0\nsamples = 9\nvalue = [0, 9]"] ;
34 -> 35 ;
36 [label="a2_1 <= 0.5\ngini = 0.245\nsamples = 7\nvalue = [1, 6]"] ;
34 -> 36 ;
37 [label="a1_2 <= 0.5\ngini = 0.375\nsamples = 4\nvalue = [1, 3]"] ;
36 -> 37 ;
38 [label="gini = 0.0\nsamples = 2\nvalue = [0, 2]"] ;
37 -> 38 ;
39 [label="gini = 0.5\nsamples = 2\nvalue = [1, 1]"] ;
37 -> 39 ;
40 [label="gini = 0.0\nsamples = 3\nvalue = [0, 3]"] ;
36 -> 40 ;
41 [label="gini = 0.0\nsamples = 10\nvalue = [0, 10]"] ;
17 -> 41 ;
42 [label="gini = 0.0\nsamples = 38\nvalue = [0, 38]"] ;
16 -> 42 ;
43 [label="a5_3 <= 0.5\ngini = 0.192\nsamples = 130\nvalue = [116, 14]"] ;
1 -> 43 ;
44 [label="gini = 0.0\nsamples = 87\nvalue = [87, 0]"] ;
43 -> 44 ;
45 [label="a4_1 <= 0.5\ngini = 0.439\nsamples = 43\nvalue = [29, 14]"] ;
43 -> 45 ;
46 [label="gini = 0.0\nsamples = 29\nvalue = [29, 0]"] ;
45 -> 46 ;
47 [label="gini = 0.0\nsamples = 14\nvalue = [0, 14]"] ;
45 -> 47 ;
48 [label="a1_3 <= 0.5\ngini = 0.014\nsamples = 140\nvalue = [139, 1]"] ;
0 -> 48 [labeldistance=2.5, labelangle=-45, headlabel="False"] ;
49 [label="gini = 0.0\nsamples = 99\nvalue = [99, 0]"] ;
48 -> 49 ;
50 [label="a2_3 <= 0.5\ngini = 0.048\nsamples = 41\nvalue = [40, 1]"] ;
48 -> 50 ;
51 [label="gini = 0.0\nsamples = 31\nvalue = [31, 0]"] ;
50 -> 51 ;
52 [label="a4_1 <= 0.5\ngini = 0.18\nsamples = 10\nvalue = [9, 1]"] ;
50 -> 52 ;
53 [label="gini = 0.0\nsamples = 7\nvalue = [7, 0]"] ;
52 -> 53 ;
54 [label="a6_1 <= 0.5\ngini = 0.444\nsamples = 3\nvalue = [2, 1]"] ;
52 -> 54 ;
55 [label="gini = 0.0\nsamples = 1\nvalue = [1, 0]"] ;
54 -> 55 ;
56 [label="gini = 0.5\nsamples = 2\nvalue = [1, 1]"] ;
54 -> 56 ;
}